Language model created by QuickLM on Wed Dec  9 15:14:38 EST 2015
Copyright (c) 1996-2010 Carnegie Mellon University and Alexander I. Rudnicky

The model is in standard ARPA format, designed by Doug Paul while he was at MITRE.

The code that was used to produce this language model is available in Open Source.
Please visit http://www.speech.cs.cmu.edu/tools/ for more information

The (fixed) discount mass is 0.5. The backoffs are computed using the ratio method.
This model based on a corpus of 4354 sentences and 4354 words

\data\
ngram 1=4354
ngram 2=8704
ngram 3=4352

\1-grams:
-0.7782 </s> -0.3010
-0.7782 <s> -0.2218
-4.4170 A -0.2218
-4.4170 ABANDON -0.2218
-4.4170 ABILITY -0.2218
-4.4170 ABLE -0.2218
-4.4170 ABORTION -0.2218
-4.4170 ABOUT -0.2218
-4.4170 ABOVE -0.2218
-4.4170 ABROAD -0.2218
-4.4170 ABSENCE -0.2218
-4.4170 ABSOLUTE -0.2218
-4.4170 ABSOLUTELY -0.2218
-4.4170 ABSORB -0.2218
-4.4170 ABSTRACT -0.2218
-4.4170 ABUSE -0.2218
-4.4170 ACADEMIC -0.2218
-4.4170 ACCELERATE -0.2218
-4.4170 ACCENT -0.2218
-4.4170 ACCEPT -0.2218
-4.4170 ACCEPTABLE -0.2218
-4.4170 ACCEPTANCE -0.2218
-4.4170 ACCESS -0.2218
-4.4170 ACCESSIBLE -0.2218
-4.4170 ACCIDENT -0.2218
-4.4170 ACCOMMODATE -0.2218
-4.4170 ACCOMPANY -0.2218
-4.4170 ACCOMPLISH -0.2218
-4.4170 ACCOMPLISHMENT -0.2218
-4.4170 ACCORDING -0.2218
-4.4170 ACCOUNT -0.2218
-4.4170 ACCOUNTABILITY -0.2218
-4.4170 ACCOUNTING -0.2218
-4.4170 ACCURACY -0.2218
-4.4170 ACCURATE -0.2218
-4.4170 ACCURATELY -0.2218
-4.4170 ACCUSATION -0.2218
-4.4170 ACCUSE -0.2218
-4.4170 ACHIEVE -0.2218
-4.4170 ACHIEVEMENT -0.2218
-4.4170 ACID -0.2218
-4.4170 ACKNOWLEDGE -0.2218
-4.4170 ACQUIRE -0.2218
-4.4170 ACQUISITION -0.2218
-4.4170 ACROSS -0.2218
-4.4170 ACT -0.2218
-4.4170 ACTION -0.2218
-4.4170 ACTIVE -0.2218
-4.4170 ACTIVELY -0.2218
-4.4170 ACTIVIST -0.2218
-4.4170 ACTIVITY -0.2218
-4.4170 ACTOR -0.2218
-4.4170 ACTRESS -0.2218
-4.4170 ACTUAL -0.2218
-4.4170 ACTUALLY -0.2218
-4.4170 AD -0.2218
-4.4170 ADAPT -0.2218
-4.4170 ADD -0.2218
-4.4170 ADDED -0.2218
-4.4170 ADDITION -0.2218
-4.4170 ADDITIONAL -0.2218
-4.4170 ADDRESS -0.2218
-4.4170 ADEQUATE -0.2218
-4.4170 ADJUST -0.2218
-4.4170 ADJUSTMENT -0.2218
-4.4170 ADMINISTER -0.2218
-4.4170 ADMINISTRATION -0.2218
-4.4170 ADMINISTRATIVE -0.2218
-4.4170 ADMINISTRATOR -0.2218
-4.4170 ADMIRE -0.2218
-4.4170 ADMISSION -0.2218
-4.4170 ADMIT -0.2218
-4.4170 ADOLESCENT -0.2218
-4.4170 ADOPT -0.2218
-4.4170 ADOPTION -0.2218
-4.4170 ADULT -0.2218
-4.4170 ADVANCE -0.2218
-4.4170 ADVANCED -0.2218
-4.4170 ADVANTAGE -0.2218
-4.4170 ADVENTURE -0.2218
-4.4170 ADVERTISING -0.2218
-4.4170 ADVICE -0.2218
-4.4170 ADVISE -0.2218
-4.4170 ADVISER -0.2218
-4.4170 ADVOCATE -0.2218
-4.4170 AESTHETIC -0.2218
-4.4170 AFFAIR -0.2218
-4.4170 AFFECT -0.2218
-4.4170 AFFORD -0.2218
-4.4170 AFRAID -0.2218
-4.4170 AFRICAN -0.2218
-4.4170 AFRICAN-AMERICAN -0.2218
-4.4170 AFTER -0.2218
-4.4170 AFTERNOON -0.2218
-4.4170 AFTERWARD -0.2218
-4.4170 AGAIN -0.2218
-4.4170 AGAINST -0.2218
-4.4170 AGE -0.2218
-4.4170 AGENCY -0.2218
-4.4170 AGENDA -0.2218
-4.4170 AGENT -0.2218
-4.4170 AGGRESSION -0.2218
-4.4170 AGGRESSIVE -0.2218
-4.4170 AGO -0.2218
-4.4170 AGREE -0.2218
-4.4170 AGREEMENT -0.2218
-4.4170 AGRICULTURAL -0.2218
-4.4170 AGRICULTURE -0.2218
-4.4170 AH -0.2218
-4.4170 AHEAD -0.2218
-4.4170 AID -0.2218
-4.4170 AIDE -0.2218
-4.4170 AIDS -0.2218
-4.4170 AIM -0.2218
-4.4170 AIR -0.2218
-4.4170 AIRCRAFT -0.2218
-4.4170 AIRLINE -0.2218
-4.4170 AIRPLANE -0.2218
-4.4170 AIRPORT -0.2218
-4.4170 AISLE -0.2218
-4.4170 ALARM -0.2218
-4.4170 ALBUM -0.2218
-4.4170 ALCOHOL -0.2218
-4.4170 ALIEN -0.2218
-4.4170 ALIKE -0.2218
-4.4170 ALIVE -0.2218
-4.4170 ALL -0.2218
-4.4170 ALLEGATION -0.2218
-4.4170 ALLEGED -0.2218
-4.4170 ALLEGEDLY -0.2218
-4.4170 ALLEY -0.2218
-4.4170 ALLIANCE -0.2218
-4.4170 ALLOW -0.2218
-4.4170 ALLY -0.2218
-4.4170 ALMOST -0.2218
-4.4170 ALONE -0.2218
-4.4170 ALONG -0.2218
-4.4170 ALONGSIDE -0.2218
-4.4170 ALREADY -0.2218
-4.4170 ALSO -0.2218
-4.4170 ALTER -0.2218
-4.4170 ALTERNATIVE -0.2218
-4.4170 ALTHOUGH -0.2218
-4.4170 ALTOGETHER -0.2218
-4.4170 ALUMINUM -0.2218
-4.4170 ALWAYS -0.2218
-4.4170 AM -0.2218
-4.4170 AMAZING -0.2218
-4.4170 AMBASSADOR -0.2218
-4.4170 AMBITION -0.2218
-4.4170 AMBITIOUS -0.2218
-4.4170 AMENDMENT -0.2218
-4.4170 AMERICAN -0.2218
-4.4170 AMID -0.2218
-4.4170 AMONG -0.2218
-4.4170 AMOUNT -0.2218
-4.4170 ANALYSIS -0.2218
-4.4170 ANALYST -0.2218
-4.4170 ANALYZE -0.2218
-4.4170 ANCESTOR -0.2218
-4.4170 ANCIENT -0.2218
-4.4170 AND -0.2218
-4.4170 AND/OR -0.2218
-4.4170 ANGEL -0.2218
-4.4170 ANGER -0.2218
-4.4170 ANGLE -0.2218
-4.4170 ANGRY -0.2218
-4.4170 ANIMAL -0.2218
-4.4170 ANKLE -0.2218
-4.4170 ANNIVERSARY -0.2218
-4.4170 ANNOUNCE -0.2218
-4.4170 ANNOUNCEMENT -0.2218
-4.4170 ANNUAL -0.2218
-4.4170 ANNUALLY -0.2218
-4.4170 ANONYMOUS -0.2218
-4.4170 ANOTHER -0.2218
-4.4170 ANSWER -0.2218
-4.4170 ANTICIPATE -0.2218
-4.4170 ANXIETY -0.2218
-4.4170 ANXIOUS -0.2218
-4.4170 ANY -0.2218
-4.4170 ANYBODY -0.2218
-4.4170 ANYMORE -0.2218
-4.4170 ANYONE -0.2218
-4.4170 ANYTHING -0.2218
-4.4170 ANYWAY -0.2218
-4.4170 ANYWHERE -0.2218
-4.4170 APART -0.2218
-4.4170 APARTMENT -0.2218
-4.4170 APOLOGIZE -0.2218
-4.4170 APOLOGY -0.2218
-4.4170 APPARENT -0.2218
-4.4170 APPARENTLY -0.2218
-4.4170 APPEAL -0.2218
-4.4170 APPEAR -0.2218
-4.4170 APPEARANCE -0.2218
-4.4170 APPLE -0.2218
-4.4170 APPLICATION -0.2218
-4.4170 APPLY -0.2218
-4.4170 APPOINT -0.2218
-4.4170 APPOINTMENT -0.2218
-4.4170 APPRECIATE -0.2218
-4.4170 APPRECIATION -0.2218
-4.4170 APPROACH -0.2218
-4.4170 APPROPRIATE -0.2218
-4.4170 APPROVAL -0.2218
-4.4170 APPROVE -0.2218
-4.4170 APPROXIMATELY -0.2218
-4.4170 ARAB -0.2218
-4.4170 ARCHITECT -0.2218
-4.4170 ARCHITECTURE -0.2218
-4.4170 AREA -0.2218
-4.4170 ARENA -0.2218
-4.4170 ARGUE -0.2218
-4.4170 ARGUMENT -0.2218
-4.4170 ARISE -0.2218
-4.4170 ARM -0.2218
-4.4170 ARMED -0.2218
-4.4170 ARMY -0.2218
-4.4170 AROUND -0.2218
-4.4170 ARRANGE -0.2218
-4.4170 ARRANGEMENT -0.2218
-4.4170 ARRAY -0.2218
-4.4170 ARREST -0.2218
-4.4170 ARRIVAL -0.2218
-4.4170 ARRIVE -0.2218
-4.4170 ARROW -0.2218
-4.4170 ART -0.2218
-4.4170 ARTICLE -0.2218
-4.4170 ARTICULATE -0.2218
-4.4170 ARTIFACT -0.2218
-4.4170 ARTIFICIAL -0.2218
-4.4170 ARTIST -0.2218
-4.4170 ARTISTIC -0.2218
-4.4170 AS -0.2218
-4.4170 ASH -0.2218
-4.4170 ASIAN -0.2218
-4.4170 ASIDE -0.2218
-4.4170 ASK -0.2218
-4.4170 ASLEEP -0.2218
-4.4170 ASPECT -0.2218
-4.4170 ASS -0.2218
-4.4170 ASSAULT -0.2218
-4.4170 ASSEMBLE -0.2218
-4.4170 ASSEMBLY -0.2218
-4.4170 ASSERT -0.2218
-4.4170 ASSESS -0.2218
-4.4170 ASSESSMENT -0.2218
-4.4170 ASSET -0.2218
-4.4170 ASSIGN -0.2218
-4.4170 ASSIGNMENT -0.2218
-4.4170 ASSIST -0.2218
-4.4170 ASSISTANCE -0.2218
-4.4170 ASSISTANT -0.2218
-4.4170 ASSOCIATE -0.2218
-4.4170 ASSOCIATED -0.2218
-4.4170 ASSOCIATION -0.2218
-4.4170 ASSUME -0.2218
-4.4170 ASSUMPTION -0.2218
-4.4170 ASSURE -0.2218
-4.4170 ASTRONOMER -0.2218
-4.4170 AT -0.2218
-4.4170 ATHLETE -0.2218
-4.4170 ATHLETIC -0.2218
-4.4170 ATMOSPHERE -0.2218
-4.4170 ATOP -0.2218
-4.4170 ATTACH -0.2218
-4.4170 ATTACK -0.2218
-4.4170 ATTEMPT -0.2218
-4.4170 ATTEND -0.2218
-4.4170 ATTENDANCE -0.2218
-4.4170 ATTENTION -0.2218
-4.4170 ATTITUDE -0.2218
-4.4170 ATTORNEY -0.2218
-4.4170 ATTRACT -0.2218
-4.4170 ATTRACTION -0.2218
-4.4170 ATTRACTIVE -0.2218
-4.4170 ATTRIBUTE -0.2218
-4.4170 AUCTION -0.2218
-4.4170 AUDIENCE -0.2218
-4.4170 AUNT -0.2218
-4.4170 AUTHOR -0.2218
-4.4170 AUTHORITY -0.2218
-4.4170 AUTHORIZE -0.2218
-4.4170 AUTO -0.2218
-4.4170 AUTOMATIC -0.2218
-4.4170 AUTOMATICALLY -0.2218
-4.4170 AUTOMOBILE -0.2218
-4.4170 AUTONOMY -0.2218
-4.4170 AVAILABILITY -0.2218
-4.4170 AVAILABLE -0.2218
-4.4170 AVERAGE -0.2218
-4.4170 AVOID -0.2218
-4.4170 AWAIT -0.2218
-4.4170 AWAKE -0.2218
-4.4170 AWARD -0.2218
-4.4170 AWARE -0.2218
-4.4170 AWARENESS -0.2218
-4.4170 AWAY -0.2218
-4.4170 AWFUL -0.2218
-4.4170 BABY -0.2218
-4.4170 BACK -0.2218
-4.4170 BACKGROUND -0.2218
-4.4170 BACKYARD -0.2218
-4.4170 BACTERIA -0.2218
-4.4170 BAD -0.2218
-4.4170 BADLY -0.2218
-4.4170 BAG -0.2218
-4.4170 BAKE -0.2218
-4.4170 BALANCE -0.2218
-4.4170 BALANCED -0.2218
-4.4170 BALL -0.2218
-4.4170 BALLOON -0.2218
-4.4170 BALLOT -0.2218
-4.4170 BAN -0.2218
-4.4170 BANANA -0.2218
-4.4170 BAND -0.2218
-4.4170 BANK -0.2218
-4.4170 BANKER -0.2218
-4.4170 BANKING -0.2218
-4.4170 BANKRUPTCY -0.2218
-4.4170 BAR -0.2218
-4.4170 BARE -0.2218
-4.4170 BARELY -0.2218
-4.4170 BARN -0.2218
-4.4170 BARREL -0.2218
-4.4170 BARRIER -0.2218
-4.4170 BASE -0.2218
-4.4170 BASEBALL -0.2218
-4.4170 BASEMENT -0.2218
-4.4170 BASIC -0.2218
-4.4170 BASICALLY -0.2218
-4.4170 BASIS -0.2218
-4.4170 BASKET -0.2218
-4.4170 BASKETBALL -0.2218
-4.4170 BAT -0.2218
-4.4170 BATH -0.2218
-4.4170 BATHROOM -0.2218
-4.4170 BATTERY -0.2218
-4.4170 BATTLE -0.2218
-4.4170 BAY -0.2218
-4.4170 BE -0.2218
-4.4170 BEACH -0.2218
-4.4170 BEAM -0.2218
-4.4170 BEAN -0.2218
-4.4170 BEAR -0.2218
-4.4170 BEARD -0.2218
-4.4170 BEAST -0.2218
-4.4170 BEAT -0.2218
-4.4170 BEAUTIFUL -0.2218
-4.4170 BEAUTY -0.2218
-4.4170 BECAUSE -0.2218
-4.4170 BECOME -0.2218
-4.4170 BED -0.2218
-4.4170 BEDROOM -0.2218
-4.4170 BEE -0.2218
-4.4170 BEEF -0.2218
-4.4170 BEER -0.2218
-4.4170 BEFORE -0.2218
-4.4170 BEG -0.2218
-4.4170 BEGIN -0.2218
-4.4170 BEGINNING -0.2218
-4.4170 BEHALF -0.2218
-4.4170 BEHAVE -0.2218
-4.4170 BEHAVIOR -0.2218
-4.4170 BEHAVIORAL -0.2218
-4.4170 BEHIND -0.2218
-4.4170 BEING -0.2218
-4.4170 BELIEF -0.2218
-4.4170 BELIEVE -0.2218
-4.4170 BELL -0.2218
-4.4170 BELLY -0.2218
-4.4170 BELONG -0.2218
-4.4170 BELOW -0.2218
-4.4170 BELT -0.2218
-4.4170 BENCH -0.2218
-4.4170 BEND -0.2218
-4.4170 BENEATH -0.2218
-4.4170 BENEFIT -0.2218
-4.4170 BESIDE -0.2218
-4.4170 BESIDES -0.2218
-4.4170 BEST -0.2218
-4.4170 BET -0.2218
-4.4170 BETTER -0.2218
-4.4170 BETWEEN -0.2218
-4.4170 BEYOND -0.2218
-4.4170 BIAS -0.2218
-4.4170 BIBLE -0.2218
-4.4170 BICYCLE -0.2218
-4.4170 BID -0.2218
-4.4170 BIG -0.2218
-4.4170 BIKE -0.2218
-4.4170 BILL -0.2218
-4.4170 BILLION -0.2218
-4.4170 BIND -0.2218
-4.4170 BIOGRAPHY -0.2218
-4.4170 BIOLOGICAL -0.2218
-4.4170 BIOLOGY -0.2218
-4.4170 BIRD -0.2218
-4.4170 BIRTH -0.2218
-4.4170 BIRTHDAY -0.2218
-4.4170 BISHOP -0.2218
-4.4170 BIT -0.2218
-4.4170 BITE -0.2218
-4.4170 BITTER -0.2218
-4.4170 BLACK -0.2218
-4.4170 BLADE -0.2218
-4.4170 BLAME -0.2218
-4.4170 BLANK -0.2218
-4.4170 BLANKET -0.2218
-4.4170 BLAST -0.2218
-4.4170 BLEND -0.2218
-4.4170 BLESS -0.2218
-4.4170 BLESSING -0.2218
-4.4170 BLIND -0.2218
-4.4170 BLINK -0.2218
-4.4170 BLOCK -0.2218
-4.4170 BLOND -0.2218
-4.4170 BLOOD -0.2218
-4.4170 BLOODY -0.2218
-4.4170 BLOW -0.2218
-4.4170 BLUE -0.2218
-4.4170 BOARD -0.2218
-4.4170 BOAST -0.2218
-4.4170 BOAT -0.2218
-4.4170 BODY -0.2218
-4.4170 BOIL -0.2218
-4.4170 BOLD -0.2218
-4.4170 BOLT -0.2218
-4.4170 BOMB -0.2218
-4.4170 BOMBING -0.2218
-4.4170 BOND -0.2218
-4.4170 BONE -0.2218
-4.4170 BONUS -0.2218
-4.4170 BOOK -0.2218
-4.4170 BOOM -0.2218
-4.4170 BOOST -0.2218
-4.4170 BOOT -0.2218
-4.4170 BOOTH -0.2218
-4.4170 BORDER -0.2218
-4.4170 BORING -0.2218
-4.4170 BORN -0.2218
-4.4170 BORROW -0.2218
-4.4170 BOSS -0.2218
-4.4170 BOTH -0.2218
-4.4170 BOTHER -0.2218
-4.4170 BOTTLE -0.2218
-4.4170 BOTTOM -0.2218
-4.4170 BOUNCE -0.2218
-4.4170 BOUNDARY -0.2218
-4.4170 BOW -0.2218
-4.4170 BOWL -0.2218
-4.4170 BOX -0.2218
-4.4170 BOY -0.2218
-4.4170 BOYFRIEND -0.2218
-4.4170 BRAIN -0.2218
-4.4170 BRAKE -0.2218
-4.4170 BRANCH -0.2218
-4.4170 BRAND -0.2218
-4.4170 BRAVE -0.2218
-4.4170 BREAD -0.2218
-4.4170 BREAK -0.2218
-4.4170 BREAKFAST -0.2218
-4.4170 BREAST -0.2218
-4.4170 BREATH -0.2218
-4.4170 BREATHE -0.2218
-4.4170 BREATHING -0.2218
-4.4170 BREEZE -0.2218
-4.4170 BRICK -0.2218
-4.4170 BRIDE -0.2218
-4.4170 BRIDGE -0.2218
-4.4170 BRIEF -0.2218
-4.4170 BRIEFLY -0.2218
-4.4170 BRIGHT -0.2218
-4.4170 BRILLIANT -0.2218
-4.4170 BRING -0.2218
-4.4170 BRITISH -0.2218
-4.4170 BROAD -0.2218
-4.4170 BROADCAST -0.2218
-4.4170 BROKEN -0.2218
-4.4170 BROKER -0.2218
-4.4170 BRONZE -0.2218
-4.4170 BROTHER -0.2218
-4.4170 BROWN -0.2218
-4.4170 BRUSH -0.2218
-4.4170 BRUTAL -0.2218
-4.4170 BUBBLE -0.2218
-4.4170 BUCK -0.2218
-4.4170 BUCKET -0.2218
-4.4170 BUDDY -0.2218
-4.4170 BUDGET -0.2218
-4.4170 BUG -0.2218
-4.4170 BUILD -0.2218
-4.4170 BUILDER -0.2218
-4.4170 BUILDING -0.2218
-4.4170 BULB -0.2218
-4.4170 BULK -0.2218
-4.4170 BULL -0.2218
-4.4170 BULLET -0.2218
-4.4170 BUNCH -0.2218
-4.4170 BURDEN -0.2218
-4.4170 BUREAU -0.2218
-4.4170 BURN -0.2218
-4.4170 BURNING -0.2218
-4.4170 BURST -0.2218
-4.4170 BURY -0.2218
-4.4170 BUS -0.2218
-4.4170 BUSH -0.2218
-4.4170 BUSINESS -0.2218
-4.4170 BUSINESSMAN -0.2218
-4.4170 BUSY -0.2218
-4.4170 BUT -0.2218
-4.4170 BUTT -0.2218
-4.4170 BUTTER -0.2218
-4.4170 BUTTERFLY -0.2218
-4.4170 BUTTON -0.2218
-4.4170 BUY -0.2218
-4.4170 BUYER -0.2218
-4.4170 BY -0.2218
-4.4170 CAB -0.2218
-4.4170 CABIN -0.2218
-4.4170 CABINET -0.2218
-4.4170 CABLE -0.2218
-4.4170 CAGE -0.2218
-4.4170 CAKE -0.2218
-4.4170 CALCULATE -0.2218
-4.4170 CALCULATION -0.2218
-4.4170 CALENDAR -0.2218
-4.4170 CALL -0.2218
-4.4170 CALM -0.2218
-4.4170 CAMERA -0.2218
-4.4170 CAMP -0.2218
-4.4170 CAMPAIGN -0.2218
-4.4170 CAMPUS -0.2218
-4.4170 CAN -0.2218
-4.4170 CANADIAN -0.2218
-4.4170 CANCEL -0.2218
-4.4170 CANCER -0.2218
-4.4170 CANDIDATE -0.2218
-4.4170 CANDLE -0.2218
-4.4170 CANDY -0.2218
-4.4170 CANVAS -0.2218
-4.4170 CAP -0.2218
-4.4170 CAPABILITY -0.2218
-4.4170 CAPABLE -0.2218
-4.4170 CAPACITY -0.2218
-4.4170 CAPITAL -0.2218
-4.4170 CAPTAIN -0.2218
-4.4170 CAPTURE -0.2218
-4.4170 CAR -0.2218
-4.4170 CARBOHYDRATE -0.2218
-4.4170 CARBON -0.2218
-4.4170 CARD -0.2218
-4.4170 CARE -0.2218
-4.4170 CAREER -0.2218
-4.4170 CAREFUL -0.2218
-4.4170 CAREFULLY -0.2218
-4.4170 CARGO -0.2218
-4.4170 CARPET -0.2218
-4.4170 CARRIER -0.2218
-4.4170 CARROT -0.2218
-4.4170 CARRY -0.2218
-4.4170 CART -0.2218
-4.4170 CARTOON -0.2218
-4.4170 CARVE -0.2218
-4.4170 CASE -0.2218
-4.4170 CASH -0.2218
-4.4170 CASINO -0.2218
-4.4170 CAST -0.2218
-4.4170 CASUAL -0.2218
-4.4170 CASUALTY -0.2218
-4.4170 CAT -0.2218
-4.4170 CATALOG -0.2218
-4.4170 CATCH -0.2218
-4.4170 CATEGORY -0.2218
-4.4170 CATHOLIC -0.2218
-4.4170 CATTLE -0.2218
-4.4170 CAUSE -0.2218
-4.4170 CAVE -0.2218
-4.4170 CEASE -0.2218
-4.4170 CEILING -0.2218
-4.4170 CELEBRATE -0.2218
-4.4170 CELEBRATION -0.2218
-4.4170 CELEBRITY -0.2218
-4.4170 CELL -0.2218
-4.4170 CEMETERY -0.2218
-4.4170 CENTER -0.2218
-4.4170 CENTRAL -0.2218
-4.4170 CENTURY -0.2218
-4.4170 CEO -0.2218
-4.4170 CEREMONY -0.2218
-4.4170 CERTAIN -0.2218
-4.4170 CERTAINLY -0.2218
-4.4170 CHAIN -0.2218
-4.4170 CHAIR -0.2218
-4.4170 CHAIRMAN -0.2218
-4.4170 CHALLENGE -0.2218
-4.4170 CHAMBER -0.2218
-4.4170 CHAMPION -0.2218
-4.4170 CHAMPIONSHIP -0.2218
-4.4170 CHANCE -0.2218
-4.4170 CHANGE -0.2218
-4.4170 CHANGING -0.2218
-4.4170 CHANNEL -0.2218
-4.4170 CHAOS -0.2218
-4.4170 CHAPTER -0.2218
-4.4170 CHARACTER -0.2218
-4.4170 CHARACTERISTIC -0.2218
-4.4170 CHARACTERIZE -0.2218
-4.4170 CHARGE -0.2218
-4.4170 CHARITY -0.2218
-4.4170 CHARM -0.2218
-4.4170 CHART -0.2218
-4.4170 CHARTER -0.2218
-4.4170 CHASE -0.2218
-4.4170 CHEAP -0.2218
-4.4170 CHEAT -0.2218
-4.4170 CHECK -0.2218
-4.4170 CHEEK -0.2218
-4.4170 CHEER -0.2218
-4.4170 CHEESE -0.2218
-4.4170 CHEF -0.2218
-4.4170 CHEMICAL -0.2218
-4.4170 CHEMISTRY -0.2218
-4.4170 CHEST -0.2218
-4.4170 CHEW -0.2218
-4.4170 CHICKEN -0.2218
-4.4170 CHIEF -0.2218
-4.4170 CHILD -0.2218
-4.4170 CHILDHOOD -0.2218
-4.4170 CHILL -0.2218
-4.4170 CHIN -0.2218
-4.4170 CHINESE -0.2218
-4.4170 CHIP -0.2218
-4.4170 CHOCOLATE -0.2218
-4.4170 CHOICE -0.2218
-4.4170 CHOLESTEROL -0.2218
-4.4170 CHOOSE -0.2218
-4.4170 CHOP -0.2218
-4.4170 CHRISTIAN -0.2218
-4.4170 CHRISTIANITY -0.2218
-4.4170 CHRISTMAS -0.2218
-4.4170 CHRONIC -0.2218
-4.4170 CHUNK -0.2218
-4.4170 CHURCH -0.2218
-4.4170 CIGARETTE -0.2218
-4.4170 CIRCLE -0.2218
-4.4170 CIRCUIT -0.2218
-4.4170 CIRCUMSTANCE -0.2218
-4.4170 CITE -0.2218
-4.4170 CITIZEN -0.2218
-4.4170 CITIZENSHIP -0.2218
-4.4170 CITY -0.2218
-4.4170 CIVIC -0.2218
-4.4170 CIVIL -0.2218
-4.4170 CIVILIAN -0.2218
-4.4170 CIVILIZATION -0.2218
-4.4170 CLAIM -0.2218
-4.4170 CLASS -0.2218
-4.4170 CLASSIC -0.2218
-4.4170 CLASSICAL -0.2218
-4.4170 CLASSIFY -0.2218
-4.4170 CLASSROOM -0.2218
-4.4170 CLAY -0.2218
-4.4170 CLEAN -0.2218
-4.4170 CLEAR -0.2218
-4.4170 CLEARLY -0.2218
-4.4170 CLERK -0.2218
-4.4170 CLICK -0.2218
-4.4170 CLIENT -0.2218
-4.4170 CLIFF -0.2218
-4.4170 CLIMATE -0.2218
-4.4170 CLIMB -0.2218
-4.4170 CLING -0.2218
-4.4170 CLINIC -0.2218
-4.4170 CLINICAL -0.2218
-4.4170 CLIP -0.2218
-4.4170 CLOCK -0.2218
-4.4170 CLOSE -0.2218
-4.4170 CLOSED -0.2218
-4.4170 CLOSELY -0.2218
-4.4170 CLOSER -0.2218
-4.4170 CLOSEST -0.2218
-4.4170 CLOSET -0.2218
-4.4170 CLOTH -0.2218
-4.4170 CLOTHES -0.2218
-4.4170 CLOTHING -0.2218
-4.4170 CLOUD -0.2218
-4.4170 CLUB -0.2218
-4.4170 CLUE -0.2218
-4.4170 CLUSTER -0.2218
-4.4170 COACH -0.2218
-4.4170 COAL -0.2218
-4.4170 COALITION -0.2218
-4.4170 COAST -0.2218
-4.4170 COASTAL -0.2218
-4.4170 COAT -0.2218
-4.4170 COCAINE -0.2218
-4.4170 CODE -0.2218
-4.4170 COFFEE -0.2218
-4.4170 COGNITIVE -0.2218
-4.4170 COIN -0.2218
-4.4170 COLD -0.2218
-4.4170 COLLABORATION -0.2218
-4.4170 COLLAPSE -0.2218
-4.4170 COLLAR -0.2218
-4.4170 COLLEAGUE -0.2218
-4.4170 COLLECT -0.2218
-4.4170 COLLECTION -0.2218
-4.4170 COLLECTIVE -0.2218
-4.4170 COLLECTOR -0.2218
-4.4170 COLLEGE -0.2218
-4.4170 COLONIAL -0.2218
-4.4170 COLONY -0.2218
-4.4170 COLOR -0.2218
-4.4170 COLORFUL -0.2218
-4.4170 COLUMN -0.2218
-4.4170 COLUMNIST -0.2218
-4.4170 COMBAT -0.2218
-4.4170 COMBINATION -0.2218
-4.4170 COMBINE -0.2218
-4.4170 COMBINED -0.2218
-4.4170 COME -0.2218
-4.4170 COMEDY -0.2218
-4.4170 COMFORT -0.2218
-4.4170 COMFORTABLE -0.2218
-4.4170 COMING -0.2218
-4.4170 COMMAND -0.2218
-4.4170 COMMANDER -0.2218
-4.4170 COMMENT -0.2218
-4.4170 COMMERCIAL -0.2218
-4.4170 COMMISSION -0.2218
-4.4170 COMMISSIONER -0.2218
-4.4170 COMMIT -0.2218
-4.4170 COMMITMENT -0.2218
-4.4170 COMMITTEE -0.2218
-4.4170 COMMODITY -0.2218
-4.4170 COMMON -0.2218
-4.4170 COMMONLY -0.2218
-4.4170 COMMUNICATE -0.2218
-4.4170 COMMUNICATION -0.2218
-4.4170 COMMUNITY -0.2218
-4.4170 COMPANION -0.2218
-4.4170 COMPANY -0.2218
-4.4170 COMPARABLE -0.2218
-4.4170 COMPARE -0.2218
-4.4170 COMPARISON -0.2218
-4.4170 COMPEL -0.2218
-4.4170 COMPELLING -0.2218
-4.4170 COMPENSATION -0.2218
-4.4170 COMPETE -0.2218
-4.4170 COMPETITION -0.2218
-4.4170 COMPETITIVE -0.2218
-4.4170 COMPETITOR -0.2218
-4.4170 COMPLAIN -0.2218
-4.4170 COMPLAINT -0.2218
-4.4170 COMPLETE -0.2218
-4.4170 COMPLETELY -0.2218
-4.4170 COMPLEX -0.2218
-4.4170 COMPLEXITY -0.2218
-4.4170 COMPLIANCE -0.2218
-4.4170 COMPLICATED -0.2218
-4.4170 COMPLY -0.2218
-4.4170 COMPONENT -0.2218
-4.4170 COMPOSE -0.2218
-4.4170 COMPOSITION -0.2218
-4.4170 COMPOUND -0.2218
-4.4170 COMPREHENSIVE -0.2218
-4.4170 COMPRISE -0.2218
-4.4170 COMPROMISE -0.2218
-4.4170 COMPUTER -0.2218
-4.4170 CONCEDE -0.2218
-4.4170 CONCEIVE -0.2218
-4.4170 CONCENTRATE -0.2218
-4.4170 CONCENTRATION -0.2218
-4.4170 CONCEPT -0.2218
-4.4170 CONCEPTION -0.2218
-4.4170 CONCERN -0.2218
-4.4170 CONCERNED -0.2218
-4.4170 CONCERNING -0.2218
-4.4170 CONCERT -0.2218
-4.4170 CONCLUDE -0.2218
-4.4170 CONCLUSION -0.2218
-4.4170 CONCRETE -0.2218
-4.4170 CONDEMN -0.2218
-4.4170 CONDITION -0.2218
-4.4170 CONDUCT -0.2218
-4.4170 CONFERENCE -0.2218
-4.4170 CONFESS -0.2218
-4.4170 CONFESSION -0.2218
-4.4170 CONFIDENCE -0.2218
-4.4170 CONFIDENT -0.2218
-4.4170 CONFIRM -0.2218
-4.4170 CONFLICT -0.2218
-4.4170 CONFRONT -0.2218
-4.4170 CONFRONTATION -0.2218
-4.4170 CONFUSE -0.2218
-4.4170 CONFUSION -0.2218
-4.4170 CONGRESS -0.2218
-4.4170 CONGRESSIONAL -0.2218
-4.4170 CONNECT -0.2218
-4.4170 CONNECTION -0.2218
-4.4170 CONSCIENCE -0.2218
-4.4170 CONSCIOUS -0.2218
-4.4170 CONSCIOUSNESS -0.2218
-4.4170 CONSECUTIVE -0.2218
-4.4170 CONSENSUS -0.2218
-4.4170 CONSENT -0.2218
-4.4170 CONSEQUENCE -0.2218
-4.4170 CONSEQUENTLY -0.2218
-4.4170 CONSERVATION -0.2218
-4.4170 CONSERVATIVE -0.2218
-4.4170 CONSIDER -0.2218
-4.4170 CONSIDERABLE -0.2218
-4.4170 CONSIDERABLY -0.2218
-4.4170 CONSIDERATION -0.2218
-4.4170 CONSIST -0.2218
-4.4170 CONSISTENT -0.2218
-4.4170 CONSISTENTLY -0.2218
-4.4170 CONSPIRACY -0.2218
-4.4170 CONSTANT -0.2218
-4.4170 CONSTANTLY -0.2218
-4.4170 CONSTITUTE -0.2218
-4.4170 CONSTITUTION -0.2218
-4.4170 CONSTITUTIONAL -0.2218
-4.4170 CONSTRAINT -0.2218
-4.4170 CONSTRUCT -0.2218
-4.4170 CONSTRUCTION -0.2218
-4.4170 CONSULT -0.2218
-4.4170 CONSULTANT -0.2218
-4.4170 CONSUME -0.2218
-4.4170 CONSUMER -0.2218
-4.4170 CONSUMPTION -0.2218
-4.4170 CONTACT -0.2218
-4.4170 CONTAIN -0.2218
-4.4170 CONTAINER -0.2218
-4.4170 CONTEMPLATE -0.2218
-4.4170 CONTEMPORARY -0.2218
-4.4170 CONTEND -0.2218
-4.4170 CONTENT -0.2218
-4.4170 CONTEST -0.2218
-4.4170 CONTEXT -0.2218
-4.4170 CONTINENT -0.2218
-4.4170 CONTINUE -0.2218
-4.4170 CONTINUED -0.2218
-4.4170 CONTINUING -0.2218
-4.4170 CONTINUOUS -0.2218
-4.4170 CONTRACT -0.2218
-4.4170 CONTRACTOR -0.2218
-4.4170 CONTRAST -0.2218
-4.4170 CONTRIBUTE -0.2218
-4.4170 CONTRIBUTION -0.2218
-4.4170 CONTRIBUTOR -0.2218
-4.4170 CONTROL -0.2218
-4.4170 CONTROVERSIAL -0.2218
-4.4170 CONTROVERSY -0.2218
-4.4170 CONVENIENCE -0.2218
-4.4170 CONVENTION -0.2218
-4.4170 CONVENTIONAL -0.2218
-4.4170 CONVERSATION -0.2218
-4.4170 CONVERSION -0.2218
-4.4170 CONVERT -0.2218
-4.4170 CONVEY -0.2218
-4.4170 CONVICT -0.2218
-4.4170 CONVICTION -0.2218
-4.4170 CONVINCE -0.2218
-4.4170 CONVINCED -0.2218
-4.4170 COOK -0.2218
-4.4170 COOKIE -0.2218
-4.4170 COOKING -0.2218
-4.4170 COOL -0.2218
-4.4170 COOPERATE -0.2218
-4.4170 COOPERATION -0.2218
-4.4170 COOPERATIVE -0.2218
-4.4170 COORDINATE -0.2218
-4.4170 COORDINATOR -0.2218
-4.4170 COP -0.2218
-4.4170 COPE -0.2218
-4.4170 COPY -0.2218
-4.4170 CORD -0.2218
-4.4170 CORE -0.2218
-4.4170 CORN -0.2218
-4.4170 CORNER -0.2218
-4.4170 CORPORATE -0.2218
-4.4170 CORPORATION -0.2218
-4.4170 CORRECT -0.2218
-4.4170 CORRECTLY -0.2218
-4.4170 CORRELATION -0.2218
-4.4170 CORRESPONDENT -0.2218
-4.4170 CORRIDOR -0.2218
-4.4170 CORRUPTION -0.2218
-4.4170 COST -0.2218
-4.4170 COSTLY -0.2218
-4.4170 COSTUME -0.2218
-4.4170 COTTAGE -0.2218
-4.4170 COTTON -0.2218
-4.4170 COUCH -0.2218
-4.4170 COULD -0.2218
-4.4170 COUNCIL -0.2218
-4.4170 COUNSEL -0.2218
-4.4170 COUNSELING -0.2218
-4.4170 COUNSELOR -0.2218
-4.4170 COUNT -0.2218
-4.4170 COUNTER -0.2218
-4.4170 COUNTERPART -0.2218
-4.4170 COUNTRY -0.2218
-4.4170 COUNTY -0.2218
-4.4170 COUP -0.2218
-4.4170 COUPLE -0.2218
-4.4170 COURAGE -0.2218
-4.4170 COURSE -0.2218
-4.4170 COURT -0.2218
-4.4170 COURTROOM -0.2218
-4.4170 COUSIN -0.2218
-4.4170 COVER -0.2218
-4.4170 COVERAGE -0.2218
-4.4170 COW -0.2218
-4.4170 CRACK -0.2218
-4.4170 CRAFT -0.2218
-4.4170 CRASH -0.2218
-4.4170 CRAWL -0.2218
-4.4170 CRAZY -0.2218
-4.4170 CREAM -0.2218
-4.4170 CREATE -0.2218
-4.4170 CREATION -0.2218
-4.4170 CREATIVE -0.2218
-4.4170 CREATIVITY -0.2218
-4.4170 CREATURE -0.2218
-4.4170 CREDIBILITY -0.2218
-4.4170 CREDIT -0.2218
-4.4170 CREW -0.2218
-4.4170 CRIME -0.2218
-4.4170 CRIMINAL -0.2218
-4.4170 CRISIS -0.2218
-4.4170 CRITERIA -0.2218
-4.4170 CRITIC -0.2218
-4.4170 CRITICAL -0.2218
-4.4170 CRITICISM -0.2218
-4.4170 CRITICIZE -0.2218
-4.4170 CROP -0.2218
-4.4170 CROSS -0.2218
-4.4170 CROWD -0.2218
-4.4170 CROWDED -0.2218
-4.4170 CRUCIAL -0.2218
-4.4170 CRUEL -0.2218
-4.4170 CRUISE -0.2218
-4.4170 CRUSH -0.2218
-4.4170 CRY -0.2218
-4.4170 CRYSTAL -0.2218
-4.4170 CUBAN -0.2218
-4.4170 CUE -0.2218
-4.4170 CULTURAL -0.2218
-4.4170 CULTURE -0.2218
-4.4170 CUP -0.2218
-4.4170 CURE -0.2218
-4.4170 CURIOSITY -0.2218
-4.4170 CURIOUS -0.2218
-4.4170 CURRENCY -0.2218
-4.4170 CURRENT -0.2218
-4.4170 CURRENTLY -0.2218
-4.4170 CURRICULUM -0.2218
-4.4170 CURTAIN -0.2218
-4.4170 CURVE -0.2218
-4.4170 CUSTODY -0.2218
-4.4170 CUSTOM -0.2218
-4.4170 CUSTOMER -0.2218
-4.4170 CUT -0.2218
-4.4170 CUTE -0.2218
-4.4170 CYCLE -0.2218
-4.4170 DAD -0.2218
-4.4170 DAILY -0.2218
-4.4170 DAM -0.2218
-4.4170 DAMAGE -0.2218
-4.4170 DAMN -0.2218
-4.4170 DANCE -0.2218
-4.4170 DANCER -0.2218
-4.4170 DANCING -0.2218
-4.4170 DANGER -0.2218
-4.4170 DANGEROUS -0.2218
-4.4170 DARE -0.2218
-4.4170 DARK -0.2218
-4.4170 DARKNESS -0.2218
-4.4170 DATA -0.2218
-4.4170 DATABASE -0.2218
-4.4170 DATE -0.2218
-4.4170 DAUGHTER -0.2218
-4.4170 DAWN -0.2218
-4.4170 DAY -0.2218
-4.4170 DEAD -0.2218
-4.4170 DEADLINE -0.2218
-4.4170 DEADLY -0.2218
-4.4170 DEAL -0.2218
-4.4170 DEALER -0.2218
-4.4170 DEAR -0.2218
-4.4170 DEATH -0.2218
-4.4170 DEBATE -0.2218
-4.4170 DEBRIS -0.2218
-4.4170 DEBT -0.2218
-4.4170 DEBUT -0.2218
-4.4170 DECADE -0.2218
-4.4170 DECENT -0.2218
-4.4170 DECIDE -0.2218
-4.4170 DECISION -0.2218
-4.4170 DECK -0.2218
-4.4170 DECLARE -0.2218
-4.4170 DECLINE -0.2218
-4.4170 DECORATE -0.2218
-4.4170 DECREASE -0.2218
-4.4170 DEDICATE -0.2218
-4.4170 DEEM -0.2218
-4.4170 DEEP -0.2218
-4.4170 DEEPLY -0.2218
-4.4170 DEER -0.2218
-4.4170 DEFEAT -0.2218
-4.4170 DEFEND -0.2218
-4.4170 DEFENDANT -0.2218
-4.4170 DEFENDER -0.2218
-4.4170 DEFENSE -0.2218
-4.4170 DEFENSIVE -0.2218
-4.4170 DEFICIT -0.2218
-4.4170 DEFINE -0.2218
-4.4170 DEFINITELY -0.2218
-4.4170 DEFINITION -0.2218
-4.4170 DEGREE -0.2218
-4.4170 DELAY -0.2218
-4.4170 DELIBERATELY -0.2218
-4.4170 DELICATE -0.2218
-4.4170 DELIGHT -0.2218
-4.4170 DELIVER -0.2218
-4.4170 DELIVERY -0.2218
-4.4170 DEMAND -0.2218
-4.4170 DEMOCRACY -0.2218
-4.4170 DEMOCRAT -0.2218
-4.4170 DEMOCRATIC -0.2218
-4.4170 DEMOGRAPHIC -0.2218
-4.4170 DEMONSTRATE -0.2218
-4.4170 DEMONSTRATION -0.2218
-4.4170 DENIAL -0.2218
-4.4170 DENSE -0.2218
-4.4170 DENSITY -0.2218
-4.4170 DENY -0.2218
-4.4170 DEPART -0.2218
-4.4170 DEPARTMENT -0.2218
-4.4170 DEPARTURE -0.2218
-4.4170 DEPEND -0.2218
-4.4170 DEPENDENT -0.2218
-4.4170 DEPENDING -0.2218
-4.4170 DEPICT -0.2218
-4.4170 DEPLOY -0.2218
-4.4170 DEPOSIT -0.2218
-4.4170 DEPRESSED -0.2218
-4.4170 DEPRESSION -0.2218
-4.4170 DEPTH -0.2218
-4.4170 DEPUTY -0.2218
-4.4170 DERIVE -0.2218
-4.4170 DESCEND -0.2218
-4.4170 DESCRIBE -0.2218
-4.4170 DESCRIPTION -0.2218
-4.4170 DESERT -0.2218
-4.4170 DESERVE -0.2218
-4.4170 DESIGN -0.2218
-4.4170 DESIGNER -0.2218
-4.4170 DESIRE -0.2218
-4.4170 DESK -0.2218
-4.4170 DESPERATE -0.2218
-4.4170 DESPERATELY -0.2218
-4.4170 DESPITE -0.2218
-4.4170 DESSERT -0.2218
-4.4170 DESTINATION -0.2218
-4.4170 DESTROY -0.2218
-4.4170 DESTRUCTION -0.2218
-4.4170 DETAIL -0.2218
-4.4170 DETAILED -0.2218
-4.4170 DETECT -0.2218
-4.4170 DETECTIVE -0.2218
-4.4170 DETERMINATION -0.2218
-4.4170 DETERMINE -0.2218
-4.4170 DEVASTATING -0.2218
-4.4170 DEVELOP -0.2218
-4.4170 DEVELOPER -0.2218
-4.4170 DEVELOPING -0.2218
-4.4170 DEVELOPMENT -0.2218
-4.4170 DEVELOPMENTAL -0.2218
-4.4170 DEVICE -0.2218
-4.4170 DEVIL -0.2218
-4.4170 DEVOTE -0.2218
-4.4170 DIABETES -0.2218
-4.4170 DIAGNOSE -0.2218
-4.4170 DIAGNOSIS -0.2218
-4.4170 DIALOGUE -0.2218
-4.4170 DIAMOND -0.2218
-4.4170 DIARY -0.2218
-4.4170 DICTATE -0.2218
-4.4170 DIE -0.2218
-4.4170 DIET -0.2218
-4.4170 DIFFER -0.2218
-4.4170 DIFFERENCE -0.2218
-4.4170 DIFFERENT -0.2218
-4.4170 DIFFERENTLY -0.2218
-4.4170 DIFFICULT -0.2218
-4.4170 DIFFICULTY -0.2218
-4.4170 DIG -0.2218
-4.4170 DIGITAL -0.2218
-4.4170 DIGNITY -0.2218
-4.4170 DILEMMA -0.2218
-4.4170 DIMENSION -0.2218
-4.4170 DIMINISH -0.2218
-4.4170 DINING -0.2218
-4.4170 DINNER -0.2218
-4.4170 DIP -0.2218
-4.4170 DIPLOMAT -0.2218
-4.4170 DIPLOMATIC -0.2218
-4.4170 DIRECT -0.2218
-4.4170 DIRECTION -0.2218
-4.4170 DIRECTLY -0.2218
-4.4170 DIRECTOR -0.2218
-4.4170 DIRT -0.2218
-4.4170 DIRTY -0.2218
-4.4170 DISABILITY -0.2218
-4.4170 DISABLED -0.2218
-4.4170 DISAGREE -0.2218
-4.4170 DISAPPEAR -0.2218
-4.4170 DISAPPOINTED -0.2218
-4.4170 DISAPPOINTMENT -0.2218
-4.4170 DISASTER -0.2218
-4.4170 DISC -0.2218
-4.4170 DISCIPLINE -0.2218
-4.4170 DISCLOSE -0.2218
-4.4170 DISCOUNT -0.2218
-4.4170 DISCOURAGE -0.2218
-4.4170 DISCOURSE -0.2218
-4.4170 DISCOVER -0.2218
-4.4170 DISCOVERY -0.2218
-4.4170 DISCRIMINATION -0.2218
-4.4170 DISCUSS -0.2218
-4.4170 DISCUSSION -0.2218
-4.4170 DISEASE -0.2218
-4.4170 DISH -0.2218
-4.4170 DISK -0.2218
-4.4170 DISMISS -0.2218
-4.4170 DISORDER -0.2218
-4.4170 DISPLAY -0.2218
-4.4170 DISPUTE -0.2218
-4.4170 DISSOLVE -0.2218
-4.4170 DISTANCE -0.2218
-4.4170 DISTANT -0.2218
-4.4170 DISTINCT -0.2218
-4.4170 DISTINCTION -0.2218
-4.4170 DISTINCTIVE -0.2218
-4.4170 DISTINGUISH -0.2218
-4.4170 DISTRACT -0.2218
-4.4170 DISTRIBUTE -0.2218
-4.4170 DISTRIBUTION -0.2218
-4.4170 DISTRICT -0.2218
-4.4170 DISTURB -0.2218
-4.4170 DISTURBING -0.2218
-4.4170 DIVERSE -0.2218
-4.4170 DIVERSITY -0.2218
-4.4170 DIVIDE -0.2218
-4.4170 DIVINE -0.2218
-4.4170 DIVISION -0.2218
-4.4170 DIVORCE -0.2218
-4.4170 DNA -0.2218
-4.4170 DO -0.2218
-4.4170 DOCK -0.2218
-4.4170 DOCTOR -0.2218
-4.4170 DOCTRINE -0.2218
-4.4170 DOCUMENT -0.2218
-4.4170 DOCUMENTARY -0.2218
-4.4170 DOG -0.2218
-4.4170 DOLL -0.2218
-4.4170 DOMAIN -0.2218
-4.4170 DOMESTIC -0.2218
-4.4170 DOMINANT -0.2218
-4.4170 DOMINATE -0.2218
-4.4170 DONATE -0.2218
-4.4170 DONATION -0.2218
-4.4170 DONOR -0.2218
-4.4170 DOOR -0.2218
-4.4170 DOORWAY -0.2218
-4.4170 DOSE -0.2218
-4.4170 DOT -0.2218
-4.4170 DOUBLE -0.2218
-4.4170 DOUBT -0.2218
-4.4170 DOUGH -0.2218
-4.4170 DOWN -0.2218
-4.4170 DOWNTOWN -0.2218
-4.4170 DOZEN -0.2218
-4.4170 DRAFT -0.2218
-4.4170 DRAG -0.2218
-4.4170 DRAIN -0.2218
-4.4170 DRAMA -0.2218
-4.4170 DRAMATIC -0.2218
-4.4170 DRAMATICALLY -0.2218
-4.4170 DRAW -0.2218
-4.4170 DRAWER -0.2218
-4.4170 DRAWING -0.2218
-4.4170 DREAM -0.2218
-4.4170 DRESS -0.2218
-4.4170 DRIED -0.2218
-4.4170 DRIFT -0.2218
-4.4170 DRILL -0.2218
-4.4170 DRINK -0.2218
-4.4170 DRINKING -0.2218
-4.4170 DRIVE -0.2218
-4.4170 DRIVER -0.2218
-4.4170 DRIVEWAY -0.2218
-4.4170 DRIVING -0.2218
-4.4170 DROP -0.2218
-4.4170 DROWN -0.2218
-4.4170 DRUG -0.2218
-4.4170 DRUM -0.2218
-4.4170 DRUNK -0.2218
-4.4170 DRY -0.2218
-4.4170 DUCK -0.2218
-4.4170 DUE -0.2218
-4.4170 DUMB -0.2218
-4.4170 DUMP -0.2218
-4.4170 DURING -0.2218
-4.4170 DUST -0.2218
-4.4170 DUTCH -0.2218
-4.4170 DUTY -0.2218
-4.4170 DYING -0.2218
-4.4170 DYNAMIC -0.2218
-4.4170 DYNAMICS -0.2218
-4.4170 E-MAIL -0.2218
-4.4170 EACH -0.2218
-4.4170 EAGER -0.2218
-4.4170 EAR -0.2218
-4.4170 EARLY -0.2218
-4.4170 EARN -0.2218
-4.4170 EARNINGS -0.2218
-4.4170 EARTH -0.2218
-4.4170 EARTHQUAKE -0.2218
-4.4170 EASE -0.2218
-4.4170 EASILY -0.2218
-4.4170 EAST -0.2218
-4.4170 EASTERN -0.2218
-4.4170 EASY -0.2218
-4.4170 EAT -0.2218
-4.4170 EATING -0.2218
-4.4170 ECHO -0.2218
-4.4170 ECOLOGICAL -0.2218
-4.4170 ECONOMIC -0.2218
-4.4170 ECONOMICALLY -0.2218
-4.4170 ECONOMICS -0.2218
-4.4170 ECONOMIST -0.2218
-4.4170 ECONOMY -0.2218
-4.4170 ECOSYSTEM -0.2218
-4.4170 EDGE -0.2218
-4.4170 EDIT -0.2218
-4.4170 EDITION -0.2218
-4.4170 EDITOR -0.2218
-4.4170 EDUCATE -0.2218
-4.4170 EDUCATION -0.2218
-4.4170 EDUCATIONAL -0.2218
-4.4170 EDUCATOR -0.2218
-4.4170 EFFECT -0.2218
-4.4170 EFFECTIVE -0.2218
-4.4170 EFFECTIVELY -0.2218
-4.4170 EFFECTIVENESS -0.2218
-4.4170 EFFICIENCY -0.2218
-4.4170 EFFICIENT -0.2218
-4.4170 EFFORT -0.2218
-4.4170 EGG -0.2218
-4.4170 EGO -0.2218
-4.4170 EIGHT -0.2218
-4.4170 EIGHTH -0.2218
-4.4170 EITHER -0.2218
-4.4170 ELABORATE -0.2218
-4.4170 ELBOW -0.2218
-4.4170 ELDER -0.2218
-4.4170 ELDERLY -0.2218
-4.4170 ELECT -0.2218
-4.4170 ELECTION -0.2218
-4.4170 ELECTRIC -0.2218
-4.4170 ELECTRICAL -0.2218
-4.4170 ELECTRICITY -0.2218
-4.4170 ELECTRONIC -0.2218
-4.4170 ELECTRONICS -0.2218
-4.4170 ELEGANT -0.2218
-4.4170 ELEMENT -0.2218
-4.4170 ELEMENTARY -0.2218
-4.4170 ELEPHANT -0.2218
-4.4170 ELEVATOR -0.2218
-4.4170 ELEVEN -0.2218
-4.4170 ELIGIBLE -0.2218
-4.4170 ELIMINATE -0.2218
-4.4170 ELITE -0.2218
-4.4170 ELSE -0.2218
-4.4170 ELSEWHERE -0.2218
-4.4170 EMBARRASSED -0.2218
-4.4170 EMBRACE -0.2218
-4.4170 EMERGE -0.2218
-4.4170 EMERGENCY -0.2218
-4.4170 EMERGING -0.2218
-4.4170 EMISSION -0.2218
-4.4170 EMOTION -0.2218
-4.4170 EMOTIONAL -0.2218
-4.4170 EMOTIONALLY -0.2218
-4.4170 EMPHASIS -0.2218
-4.4170 EMPHASIZE -0.2218
-4.4170 EMPIRE -0.2218
-4.4170 EMPLOY -0.2218
-4.4170 EMPLOYEE -0.2218
-4.4170 EMPLOYER -0.2218
-4.4170 EMPLOYMENT -0.2218
-4.4170 EMPTY -0.2218
-4.4170 ENABLE -0.2218
-4.4170 ENACT -0.2218
-4.4170 ENCOUNTER -0.2218
-4.4170 ENCOURAGE -0.2218
-4.4170 ENCOURAGING -0.2218
-4.4170 END -0.2218
-4.4170 ENDLESS -0.2218
-4.4170 ENDORSE -0.2218
-4.4170 ENDURE -0.2218
-4.4170 ENEMY -0.2218
-4.4170 ENERGY -0.2218
-4.4170 ENFORCE -0.2218
-4.4170 ENFORCEMENT -0.2218
-4.4170 ENGAGE -0.2218
-4.4170 ENGAGEMENT -0.2218
-4.4170 ENGINE -0.2218
-4.4170 ENGINEER -0.2218
-4.4170 ENGINEERING -0.2218
-4.4170 ENGLISH -0.2218
-4.4170 ENHANCE -0.2218
-4.4170 ENJOY -0.2218
-4.4170 ENORMOUS -0.2218
-4.4170 ENOUGH -0.2218
-4.4170 ENROLL -0.2218
-4.4170 ENSURE -0.2218
-4.4170 ENTER -0.2218
-4.4170 ENTERPRISE -0.2218
-4.4170 ENTERTAINMENT -0.2218
-4.4170 ENTHUSIASM -0.2218
-4.4170 ENTIRE -0.2218
-4.4170 ENTIRELY -0.2218
-4.4170 ENTITLE -0.2218
-4.4170 ENTITY -0.2218
-4.4170 ENTRANCE -0.2218
-4.4170 ENTREPRENEUR -0.2218
-4.4170 ENTRY -0.2218
-4.4170 ENVELOPE -0.2218
-4.4170 ENVIRONMENT -0.2218
-4.4170 ENVIRONMENTAL -0.2218
-4.4170 ENVISION -0.2218
-4.4170 EPIDEMIC -0.2218
-4.4170 EPISODE -0.2218
-4.4170 EQUAL -0.2218
-4.4170 EQUALITY -0.2218
-4.4170 EQUALLY -0.2218
-4.4170 EQUATION -0.2218
-4.4170 EQUIP -0.2218
-4.4170 EQUIPMENT -0.2218
-4.4170 EQUITY -0.2218
-4.4170 EQUIVALENT -0.2218
-4.4170 ERA -0.2218
-4.4170 ERROR -0.2218
-4.4170 ESCAPE -0.2218
-4.4170 ESPECIALLY -0.2218
-4.4170 ESSAY -0.2218
-4.4170 ESSENCE -0.2218
-4.4170 ESSENTIAL -0.2218
-4.4170 ESSENTIALLY -0.2218
-4.4170 ESTABLISH -0.2218
-4.4170 ESTABLISHMENT -0.2218
-4.4170 ESTATE -0.2218
-4.4170 ESTIMATE -0.2218
-4.4170 ESTIMATED -0.2218
-4.4170 ETC -0.2218
-4.4170 ETHICAL -0.2218
-4.4170 ETHICS -0.2218
-4.4170 ETHNIC -0.2218
-4.4170 EUROPEAN -0.2218
-4.4170 EVALUATE -0.2218
-4.4170 EVALUATION -0.2218
-4.4170 EVEN -0.2218
-4.4170 EVENING -0.2218
-4.4170 EVENT -0.2218
-4.4170 EVENTUALLY -0.2218
-4.4170 EVER -0.2218
-4.4170 EVERY -0.2218
-4.4170 EVERYBODY -0.2218
-4.4170 EVERYDAY -0.2218
-4.4170 EVERYONE -0.2218
-4.4170 EVERYTHING -0.2218
-4.4170 EVERYWHERE -0.2218
-4.4170 EVIDENCE -0.2218
-4.4170 EVIDENT -0.2218
-4.4170 EVIL -0.2218
-4.4170 EVOLUTION -0.2218
-4.4170 EVOLVE -0.2218
-4.4170 EXACT -0.2218
-4.4170 EXACTLY -0.2218
-4.4170 EXAM -0.2218
-4.4170 EXAMINATION -0.2218
-4.4170 EXAMINE -0.2218
-4.4170 EXAMPLE -0.2218
-4.4170 EXCEED -0.2218
-4.4170 EXCELLENT -0.2218
-4.4170 EXCEPT -0.2218
-4.4170 EXCEPTION -0.2218
-4.4170 EXCESSIVE -0.2218
-4.4170 EXCHANGE -0.2218
-4.4170 EXCITED -0.2218
-4.4170 EXCITEMENT -0.2218
-4.4170 EXCITING -0.2218
-4.4170 EXCLUDE -0.2218
-4.4170 EXCLUSIVE -0.2218
-4.4170 EXCLUSIVELY -0.2218
-4.4170 EXCUSE -0.2218
-4.4170 EXECUTE -0.2218
-4.4170 EXECUTION -0.2218
-4.4170 EXECUTIVE -0.2218
-4.4170 EXERCISE -0.2218
-4.4170 EXHAUST -0.2218
-4.4170 EXHIBIT -0.2218
-4.4170 EXHIBITION -0.2218
-4.4170 EXIST -0.2218
-4.4170 EXISTENCE -0.2218
-4.4170 EXISTING -0.2218
-4.4170 EXIT -0.2218
-4.4170 EXOTIC -0.2218
-4.4170 EXPAND -0.2218
-4.4170 EXPANSION -0.2218
-4.4170 EXPECT -0.2218
-4.4170 EXPECTATION -0.2218
-4.4170 EXPECTED -0.2218
-4.4170 EXPEDITION -0.2218
-4.4170 EXPENSE -0.2218
-4.4170 EXPENSIVE -0.2218
-4.4170 EXPERIENCE -0.2218
-4.4170 EXPERIENCED -0.2218
-4.4170 EXPERIMENT -0.2218
-4.4170 EXPERIMENTAL -0.2218
-4.4170 EXPERT -0.2218
-4.4170 EXPERTISE -0.2218
-4.4170 EXPLAIN -0.2218
-4.4170 EXPLANATION -0.2218
-4.4170 EXPLICIT -0.2218
-4.4170 EXPLODE -0.2218
-4.4170 EXPLOIT -0.2218
-4.4170 EXPLORATION -0.2218
-4.4170 EXPLORE -0.2218
-4.4170 EXPLOSION -0.2218
-4.4170 EXPORT -0.2218
-4.4170 EXPOSE -0.2218
-4.4170 EXPOSURE -0.2218
-4.4170 EXPRESS -0.2218
-4.4170 EXPRESSION -0.2218
-4.4170 EXTEND -0.2218
-4.4170 EXTENDED -0.2218
-4.4170 EXTENSION -0.2218
-4.4170 EXTENSIVE -0.2218
-4.4170 EXTENT -0.2218
-4.4170 EXTERNAL -0.2218
-4.4170 EXTRA -0.2218
-4.4170 EXTRAORDINARY -0.2218
-4.4170 EXTREME -0.2218
-4.4170 EXTREMELY -0.2218
-4.4170 EYE -0.2218
-4.4170 EYEBROW -0.2218
-4.4170 FABRIC -0.2218
-4.4170 FACE -0.2218
-4.4170 FACILITATE -0.2218
-4.4170 FACILITY -0.2218
-4.4170 FACT -0.2218
-4.4170 FACTOR -0.2218
-4.4170 FACTORY -0.2218
-4.4170 FACULTY -0.2218
-4.4170 FADE -0.2218
-4.4170 FAIL -0.2218
-4.4170 FAILURE -0.2218
-4.4170 FAINT -0.2218
-4.4170 FAIR -0.2218
-4.4170 FAIRLY -0.2218
-4.4170 FAITH -0.2218
-4.4170 FALL -0.2218
-4.4170 FALSE -0.2218
-4.4170 FAME -0.2218
-4.4170 FAMILIAR -0.2218
-4.4170 FAMILY -0.2218
-4.4170 FAMOUS -0.2218
-4.4170 FAN -0.2218
-4.4170 FANTASTIC -0.2218
-4.4170 FANTASY -0.2218
-4.4170 FAR -0.2218
-4.4170 FARE -0.2218
-4.4170 FARM -0.2218
-4.4170 FARMER -0.2218
-4.4170 FASCINATING -0.2218
-4.4170 FASHION -0.2218
-4.4170 FAST -0.2218
-4.4170 FASTER -0.2218
-4.4170 FAT -0.2218
-4.4170 FATAL -0.2218
-4.4170 FATE -0.2218
-4.4170 FATHER -0.2218
-4.4170 FATIGUE -0.2218
-4.4170 FAULT -0.2218
-4.4170 FAVOR -0.2218
-4.4170 FAVORABLE -0.2218
-4.4170 FAVORITE -0.2218
-4.4170 FEAR -0.2218
-4.4170 FEATHER -0.2218
-4.4170 FEATURE -0.2218
-4.4170 FEDERAL -0.2218
-4.4170 FEE -0.2218
-4.4170 FEED -0.2218
-4.4170 FEEDBACK -0.2218
-4.4170 FEEL -0.2218
-4.4170 FEELING -0.2218
-4.4170 FELLOW -0.2218
-4.4170 FEMALE -0.2218
-4.4170 FEMINIST -0.2218
-4.4170 FENCE -0.2218
-4.4170 FESTIVAL -0.2218
-4.4170 FEVER -0.2218
-4.4170 FEW -0.2218
-4.4170 FEWER -0.2218
-4.4170 FIBER -0.2218
-4.4170 FICTION -0.2218
-4.4170 FIELD -0.2218
-4.4170 FIERCE -0.2218
-4.4170 FIFTEEN -0.2218
-4.4170 FIFTH -0.2218
-4.4170 FIFTY -0.2218
-4.4170 FIGHT -0.2218
-4.4170 FIGHTER -0.2218
-4.4170 FIGHTING -0.2218
-4.4170 FIGURE -0.2218
-4.4170 FILE -0.2218
-4.4170 FILL -0.2218
-4.4170 FILM -0.2218
-4.4170 FILTER -0.2218
-4.4170 FINAL -0.2218
-4.4170 FINALLY -0.2218
-4.4170 FINANCE -0.2218
-4.4170 FINANCIAL -0.2218
-4.4170 FIND -0.2218
-4.4170 FINDING -0.2218
-4.4170 FINE -0.2218
-4.4170 FINGER -0.2218
-4.4170 FINISH -0.2218
-4.4170 FIRE -0.2218
-4.4170 FIRM -0.2218
-4.4170 FIRMLY -0.2218
-4.4170 FIRST -0.2218
-4.4170 FISCAL -0.2218
-4.4170 FISH -0.2218
-4.4170 FISHERMAN -0.2218
-4.4170 FISHING -0.2218
-4.4170 FIST -0.2218
-4.4170 FIT -0.2218
-4.4170 FITNESS -0.2218
-4.4170 FIVE -0.2218
-4.4170 FIX -0.2218
-4.4170 FIXED -0.2218
-4.4170 FLAG -0.2218
-4.4170 FLAME -0.2218
-4.4170 FLASH -0.2218
-4.4170 FLAT -0.2218
-4.4170 FLAVOR -0.2218
-4.4170 FLEE -0.2218
-4.4170 FLEET -0.2218
-4.4170 FLESH -0.2218
-4.4170 FLEXIBILITY -0.2218
-4.4170 FLEXIBLE -0.2218
-4.4170 FLIGHT -0.2218
-4.4170 FLIP -0.2218
-4.4170 FLOAT -0.2218
-4.4170 FLOOD -0.2218
-4.4170 FLOOR -0.2218
-4.4170 FLOUR -0.2218
-4.4170 FLOW -0.2218
-4.4170 FLOWER -0.2218
-4.4170 FLUID -0.2218
-4.4170 FLY -0.2218
-4.4170 FLYING -0.2218
-4.4170 FOCUS -0.2218
-4.4170 FOG -0.2218
-4.4170 FOLD -0.2218
-4.4170 FOLK -0.2218
-4.4170 FOLLOW -0.2218
-4.4170 FOLLOWING -0.2218
-4.4170 FOOD -0.2218
-4.4170 FOOL -0.2218
-4.4170 FOOT -0.2218
-4.4170 FOOTBALL -0.2218
-4.4170 FOR -0.2218
-4.4170 FORBID -0.2218
-4.4170 FORCE -0.2218
-4.4170 FOREHEAD -0.2218
-4.4170 FOREIGN -0.2218
-4.4170 FOREIGNER -0.2218
-4.4170 FOREST -0.2218
-4.4170 FOREVER -0.2218
-4.4170 FORGET -0.2218
-4.4170 FORGIVE -0.2218
-4.4170 FORK -0.2218
-4.4170 FORM -0.2218
-4.4170 FORMAL -0.2218
-4.4170 FORMAT -0.2218
-4.4170 FORMATION -0.2218
-4.4170 FORMER -0.2218
-4.4170 FORMERLY -0.2218
-4.4170 FORMULA -0.2218
-4.4170 FORTH -0.2218
-4.4170 FORTUNATELY -0.2218
-4.4170 FORTUNE -0.2218
-4.4170 FORTY -0.2218
-4.4170 FORUM -0.2218
-4.4170 FORWARD -0.2218
-4.4170 FOSTER -0.2218
-4.4170 FOUND -0.2218
-4.4170 FOUNDATION -0.2218
-4.4170 FOUNDER -0.2218
-4.4170 FOUR -0.2218
-4.4170 FOURTH -0.2218
-4.4170 FRACTION -0.2218
-4.4170 FRAGILE -0.2218
-4.4170 FRAGMENT -0.2218
-4.4170 FRAME -0.2218
-4.4170 FRAMEWORK -0.2218
-4.4170 FRANCHISE -0.2218
-4.4170 FRANKLY -0.2218
-4.4170 FRAUD -0.2218
-4.4170 FREE -0.2218
-4.4170 FREEDOM -0.2218
-4.4170 FREELY -0.2218
-4.4170 FREEZE -0.2218
-4.4170 FRENCH -0.2218
-4.4170 FREQUENCY -0.2218
-4.4170 FREQUENT -0.2218
-4.4170 FREQUENTLY -0.2218
-4.4170 FRESH -0.2218
-4.4170 FRESHMAN -0.2218
-4.4170 FRIEND -0.2218
-4.4170 FRIENDLY -0.2218
-4.4170 FRIENDSHIP -0.2218
-4.4170 FROM -0.2218
-4.4170 FRONT -0.2218
-4.4170 FRONTIER -0.2218
-4.4170 FROWN -0.2218
-4.4170 FROZEN -0.2218
-4.4170 FRUIT -0.2218
-4.4170 FRUSTRATE -0.2218
-4.4170 FRUSTRATION -0.2218
-4.4170 FUCKING -0.2218
-4.4170 FUEL -0.2218
-4.4170 FULL -0.2218
-4.4170 FULL-TIME -0.2218
-4.4170 FULLY -0.2218
-4.4170 FUN -0.2218
-4.4170 FUNCTION -0.2218
-4.4170 FUNCTIONAL -0.2218
-4.4170 FUND -0.2218
-4.4170 FUNDAMENTAL -0.2218
-4.4170 FUNDING -0.2218
-4.4170 FUNERAL -0.2218
-4.4170 FUNNY -0.2218
-4.4170 FUR -0.2218
-4.4170 FURNITURE -0.2218
-4.4170 FURTHERMORE -0.2218
-4.4170 FUTURE -0.2218
-4.4170 GAIN -0.2218
-4.4170 GALAXY -0.2218
-4.4170 GALLERY -0.2218
-4.4170 GAME -0.2218
-4.4170 GANG -0.2218
-4.4170 GAP -0.2218
-4.4170 GARAGE -0.2218
-4.4170 GARBAGE -0.2218
-4.4170 GARDEN -0.2218
-4.4170 GARLIC -0.2218
-4.4170 GAS -0.2218
-4.4170 GASOLINE -0.2218
-4.4170 GATE -0.2218
-4.4170 GATHER -0.2218
-4.4170 GATHERING -0.2218
-4.4170 GAY -0.2218
-4.4170 GAZE -0.2218
-4.4170 GEAR -0.2218
-4.4170 GENDER -0.2218
-4.4170 GENE -0.2218
-4.4170 GENERAL -0.2218
-4.4170 GENERALLY -0.2218
-4.4170 GENERATE -0.2218
-4.4170 GENERATION -0.2218
-4.4170 GENEROUS -0.2218
-4.4170 GENETIC -0.2218
-4.4170 GENIUS -0.2218
-4.4170 GENRE -0.2218
-4.4170 GENTLE -0.2218
-4.4170 GENTLEMAN -0.2218
-4.4170 GENTLY -0.2218
-4.4170 GENUINE -0.2218
-4.4170 GERMAN -0.2218
-4.4170 GESTURE -0.2218
-4.4170 GET -0.2218
-4.4170 GHOST -0.2218
-4.4170 GIANT -0.2218
-4.4170 GIFT -0.2218
-4.4170 GIFTED -0.2218
-4.4170 GIRL -0.2218
-4.4170 GIRLFRIEND -0.2218
-4.4170 GIVE -0.2218
-4.4170 GIVEN -0.2218
-4.4170 GLAD -0.2218
-4.4170 GLANCE -0.2218
-4.4170 GLASS -0.2218
-4.4170 GLIMPSE -0.2218
-4.4170 GLOBAL -0.2218
-4.4170 GLOBE -0.2218
-4.4170 GLORY -0.2218
-4.4170 GLOVE -0.2218
-4.4170 GO -0.2218
-4.4170 GOAL -0.2218
-4.4170 GOAT -0.2218
-4.4170 GOD -0.2218
-4.4170 GOLD -0.2218
-4.4170 GOLDEN -0.2218
-4.4170 GOLF -0.2218
-4.4170 GOOD -0.2218
-4.4170 GOVERN -0.2218
-4.4170 GOVERNMENT -0.2218
-4.4170 GOVERNOR -0.2218
-4.4170 GRAB -0.2218
-4.4170 GRACE -0.2218
-4.4170 GRADE -0.2218
-4.4170 GRADUALLY -0.2218
-4.4170 GRADUATE -0.2218
-4.4170 GRADUATION -0.2218
-4.4170 GRAIN -0.2218
-4.4170 GRAND -0.2218
-4.4170 GRANDCHILD -0.2218
-4.4170 GRANDFATHER -0.2218
-4.4170 GRANDMOTHER -0.2218
-4.4170 GRANDPARENT -0.2218
-4.4170 GRANT -0.2218
-4.4170 GRAPE -0.2218
-4.4170 GRASP -0.2218
-4.4170 GRASS -0.2218
-4.4170 GRATEFUL -0.2218
-4.4170 GRAVE -0.2218
-4.4170 GRAVITY -0.2218
-4.4170 GRAY -0.2218
-4.4170 GREAT -0.2218
-4.4170 GREATEST -0.2218
-4.4170 GREATLY -0.2218
-4.4170 GREEK -0.2218
-4.4170 GREEN -0.2218
-4.4170 GREET -0.2218
-4.4170 GRIEF -0.2218
-4.4170 GRIN -0.2218
-4.4170 GRIP -0.2218
-4.4170 GROCERY -0.2218
-4.4170 GROSS -0.2218
-4.4170 GROUND -0.2218
-4.4170 GROUP -0.2218
-4.4170 GROW -0.2218
-4.4170 GROWING -0.2218
-4.4170 GROWTH -0.2218
-4.4170 GUARANTEE -0.2218
-4.4170 GUARD -0.2218
-4.4170 GUESS -0.2218
-4.4170 GUEST -0.2218
-4.4170 GUIDANCE -0.2218
-4.4170 GUIDE -0.2218
-4.4170 GUIDELINE -0.2218
-4.4170 GUILT -0.2218
-4.4170 GUILTY -0.2218
-4.4170 GUITAR -0.2218
-4.4170 GUN -0.2218
-4.4170 GUT -0.2218
-4.4170 GUY -0.2218
-4.4170 GYM -0.2218
-4.4170 HA -0.2218
-4.4170 HABIT -0.2218
-4.4170 HABITAT -0.2218
-4.4170 HAIR -0.2218
-4.4170 HALF -0.2218
-4.4170 HALFWAY -0.2218
-4.4170 HALL -0.2218
-4.4170 HALLWAY -0.2218
-4.4170 HAND -0.2218
-4.4170 HANDFUL -0.2218
-4.4170 HANDLE -0.2218
-4.4170 HANDSOME -0.2218
-4.4170 HANG -0.2218
-4.4170 HAPPEN -0.2218
-4.4170 HAPPILY -0.2218
-4.4170 HAPPINESS -0.2218
-4.4170 HAPPY -0.2218
-4.4170 HARASSMENT -0.2218
-4.4170 HARD -0.2218
-4.4170 HARDLY -0.2218
-4.4170 HARDWARE -0.2218
-4.4170 HARM -0.2218
-4.4170 HARMONY -0.2218
-4.4170 HARSH -0.2218
-4.4170 HARVEST -0.2218
-4.4170 HAT -0.2218
-4.4170 HATE -0.2218
-4.4170 HAUL -0.2218
-4.4170 HAVE -0.2218
-4.4170 HAY -0.2218
-4.4170 HAZARD -0.2218
-4.4170 HE -0.2218
-4.4170 HEAD -0.2218
-4.4170 HEADACHE -0.2218
-4.4170 HEADLINE -0.2218
-4.4170 HEADQUARTERS -0.2218
-4.4170 HEAL -0.2218
-4.4170 HEALTH -0.2218
-4.4170 HEALTH-CARE -0.2218
-4.4170 HEALTHY -0.2218
-4.4170 HEAR -0.2218
-4.4170 HEARING -0.2218
-4.4170 HEART -0.2218
-4.4170 HEAT -0.2218
-4.4170 HEAVEN -0.2218
-4.4170 HEAVILY -0.2218
-4.4170 HEAVY -0.2218
-4.4170 HEEL -0.2218
-4.4170 HEIGHT -0.2218
-4.4170 HELICOPTER -0.2218
-4.4170 HELL -0.2218
-4.4170 HELLO -0.2218
-4.4170 HELMET -0.2218
-4.4170 HELP -0.2218
-4.4170 HELPFUL -0.2218
-4.4170 HENCE -0.2218
-4.4170 HER -0.2218
-4.4170 HERB -0.2218
-4.4170 HERE -0.2218
-4.4170 HERITAGE -0.2218
-4.4170 HERO -0.2218
-4.4170 HERS -0.2218
-4.4170 HERSELF -0.2218
-4.4170 HESITATE -0.2218
-4.4170 HEY -0.2218
-4.4170 HI -0.2218
-4.4170 HIDDEN -0.2218
-4.4170 HIDE -0.2218
-4.4170 HIGH -0.2218
-4.4170 HIGH-TECH -0.2218
-4.4170 HIGHLIGHT -0.2218
-4.4170 HIGHLY -0.2218
-4.4170 HIGHWAY -0.2218
-4.4170 HIKE -0.2218
-4.4170 HILL -0.2218
-4.4170 HIM -0.2218
-4.4170 HIMSELF -0.2218
-4.4170 HINT -0.2218
-4.4170 HIP -0.2218
-4.4170 HIRE -0.2218
-4.4170 HIS -0.2218
-4.4170 HISPANIC -0.2218
-4.4170 HISTORIAN -0.2218
-4.4170 HISTORIC -0.2218
-4.4170 HISTORICAL -0.2218
-4.4170 HISTORICALLY -0.2218
-4.4170 HISTORY -0.2218
-4.4170 HIT -0.2218
-4.4170 HOCKEY -0.2218
-4.4170 HOLD -0.2218
-4.4170 HOLE -0.2218
-4.4170 HOLIDAY -0.2218
-4.4170 HOLY -0.2218
-4.4170 HOME -0.2218
-4.4170 HOMELAND -0.2218
-4.4170 HOMELESS -0.2218
-4.4170 HOMEWORK -0.2218
-4.4170 HONEST -0.2218
-4.4170 HONESTLY -0.2218
-4.4170 HONEY -0.2218
-4.4170 HONOR -0.2218
-4.4170 HOOK -0.2218
-4.4170 HOPE -0.2218
-4.4170 HOPEFULLY -0.2218
-4.4170 HORIZON -0.2218
-4.4170 HORMONE -0.2218
-4.4170 HORN -0.2218
-4.4170 HORRIBLE -0.2218
-4.4170 HORROR -0.2218
-4.4170 HORSE -0.2218
-4.4170 HOSPITAL -0.2218
-4.4170 HOST -0.2218
-4.4170 HOSTAGE -0.2218
-4.4170 HOSTILE -0.2218
-4.4170 HOT -0.2218
-4.4170 HOTEL -0.2218
-4.4170 HOUR -0.2218
-4.4170 HOUSE -0.2218
-4.4170 HOUSEHOLD -0.2218
-4.4170 HOUSING -0.2218
-4.4170 HOW -0.2218
-4.4170 HOWEVER -0.2218
-4.4170 HUG -0.2218
-4.4170 HUGE -0.2218
-4.4170 HUH -0.2218
-4.4170 HUMAN -0.2218
-4.4170 HUMANITY -0.2218
-4.4170 HUMOR -0.2218
-4.4170 HUNDRED -0.2218
-4.4170 HUNGER -0.2218
-4.4170 HUNGRY -0.2218
-4.4170 HUNT -0.2218
-4.4170 HUNTER -0.2218
-4.4170 HUNTING -0.2218
-4.4170 HURRICANE -0.2218
-4.4170 HURRY -0.2218
-4.4170 HURT -0.2218
-4.4170 HUSBAND -0.2218
-4.4170 HYPOTHESIS -0.2218
-4.4170 I -0.2218
-4.4170 ICE -0.2218
-4.4170 ICON -0.2218
-4.4170 IDEA -0.2218
-4.4170 IDEAL -0.2218
-4.4170 IDENTICAL -0.2218
-4.4170 IDENTIFICATION -0.2218
-4.4170 IDENTIFY -0.2218
-4.4170 IDENTITY -0.2218
-4.4170 IDEOLOGICAL -0.2218
-4.4170 IDEOLOGY -0.2218
-4.4170 IE -0.2218
-4.4170 IF -0.2218
-4.4170 IGNORE -0.2218
-4.4170 ILL -0.2218
-4.4170 ILLEGAL -0.2218
-4.4170 ILLNESS -0.2218
-4.4170 ILLUSION -0.2218
-4.4170 ILLUSTRATE -0.2218
-4.4170 IMAGE -0.2218
-4.4170 IMAGINATION -0.2218
-4.4170 IMAGINE -0.2218
-4.4170 IMMEDIATE -0.2218
-4.4170 IMMEDIATELY -0.2218
-4.4170 IMMIGRANT -0.2218
-4.4170 IMMIGRATION -0.2218
-4.4170 IMMUNE -0.2218
-4.4170 IMPACT -0.2218
-4.4170 IMPLEMENT -0.2218
-4.4170 IMPLEMENTATION -0.2218
-4.4170 IMPLICATION -0.2218
-4.4170 IMPLY -0.2218
-4.4170 IMPORT -0.2218
-4.4170 IMPORTANCE -0.2218
-4.4170 IMPORTANT -0.2218
-4.4170 IMPORTANTLY -0.2218
-4.4170 IMPOSE -0.2218
-4.4170 IMPOSSIBLE -0.2218
-4.4170 IMPRESS -0.2218
-4.4170 IMPRESSION -0.2218
-4.4170 IMPRESSIVE -0.2218
-4.4170 IMPROVE -0.2218
-4.4170 IMPROVED -0.2218
-4.4170 IMPROVEMENT -0.2218
-4.4170 IMPULSE -0.2218
-4.4170 IN -0.2218
-4.4170 INCENTIVE -0.2218
-4.4170 INCIDENT -0.2218
-4.4170 INCLUDE -0.2218
-4.4170 INCLUDING -0.2218
-4.4170 INCOME -0.2218
-4.4170 INCORPORATE -0.2218
-4.4170 INCREASE -0.2218
-4.4170 INCREASED -0.2218
-4.4170 INCREASING -0.2218
-4.4170 INCREASINGLY -0.2218
-4.4170 INCREDIBLE -0.2218
-4.4170 INCREDIBLY -0.2218
-4.4170 INDEED -0.2218
-4.4170 INDEPENDENCE -0.2218
-4.4170 INDEPENDENT -0.2218
-4.4170 INDEX -0.2218
-4.4170 INDIAN -0.2218
-4.4170 INDICATE -0.2218
-4.4170 INDICATION -0.2218
-4.4170 INDICATOR -0.2218
-4.4170 INDIGENOUS -0.2218
-4.4170 INDIVIDUAL -0.2218
-4.4170 INDUSTRIAL -0.2218
-4.4170 INDUSTRY -0.2218
-4.4170 INEVITABLE -0.2218
-4.4170 INEVITABLY -0.2218
-4.4170 INFANT -0.2218
-4.4170 INFECTION -0.2218
-4.4170 INFLATION -0.2218
-4.4170 INFLUENCE -0.2218
-4.4170 INFLUENTIAL -0.2218
-4.4170 INFORM -0.2218
-4.4170 INFORMAL -0.2218
-4.4170 INFORMATION -0.2218
-4.4170 INFRASTRUCTURE -0.2218
-4.4170 INGREDIENT -0.2218
-4.4170 INHERENT -0.2218
-4.4170 INHERIT -0.2218
-4.4170 INITIAL -0.2218
-4.4170 INITIALLY -0.2218
-4.4170 INITIATE -0.2218
-4.4170 INITIATIVE -0.2218
-4.4170 INJURE -0.2218
-4.4170 INJURY -0.2218
-4.4170 INMATE -0.2218
-4.4170 INNER -0.2218
-4.4170 INNOCENT -0.2218
-4.4170 INNOVATION -0.2218
-4.4170 INNOVATIVE -0.2218
-4.4170 INPUT -0.2218
-4.4170 INQUIRY -0.2218
-4.4170 INSECT -0.2218
-4.4170 INSERT -0.2218
-4.4170 INSIDE -0.2218
-4.4170 INSIGHT -0.2218
-4.4170 INSIST -0.2218
-4.4170 INSPECTION -0.2218
-4.4170 INSPECTOR -0.2218
-4.4170 INSPIRATION -0.2218
-4.4170 INSPIRE -0.2218
-4.4170 INSTALL -0.2218
-4.4170 INSTALLATION -0.2218
-4.4170 INSTANCE -0.2218
-4.4170 INSTANT -0.2218
-4.4170 INSTANTLY -0.2218
-4.4170 INSTEAD -0.2218
-4.4170 INSTINCT -0.2218
-4.4170 INSTITUTION -0.2218
-4.4170 INSTITUTIONAL -0.2218
-4.4170 INSTRUCT -0.2218
-4.4170 INSTRUCTION -0.2218
-4.4170 INSTRUCTIONAL -0.2218
-4.4170 INSTRUCTOR -0.2218
-4.4170 INSTRUMENT -0.2218
-4.4170 INSURANCE -0.2218
-4.4170 INTACT -0.2218
-4.4170 INTEGRATE -0.2218
-4.4170 INTEGRATED -0.2218
-4.4170 INTEGRATION -0.2218
-4.4170 INTEGRITY -0.2218
-4.4170 INTELLECTUAL -0.2218
-4.4170 INTELLIGENCE -0.2218
-4.4170 INTELLIGENT -0.2218
-4.4170 INTEND -0.2218
-4.4170 INTENSE -0.2218
-4.4170 INTENSITY -0.2218
-4.4170 INTENT -0.2218
-4.4170 INTENTION -0.2218
-4.4170 INTERACT -0.2218
-4.4170 INTERACTION -0.2218
-4.4170 INTEREST -0.2218
-4.4170 INTERESTED -0.2218
-4.4170 INTERESTING -0.2218
-4.4170 INTERFERE -0.2218
-4.4170 INTERIOR -0.2218
-4.4170 INTERNAL -0.2218
-4.4170 INTERNATIONAL -0.2218
-4.4170 INTERNET -0.2218
-4.4170 INTERPRET -0.2218
-4.4170 INTERPRETATION -0.2218
-4.4170 INTERRUPT -0.2218
-4.4170 INTERVAL -0.2218
-4.4170 INTERVENTION -0.2218
-4.4170 INTERVIEW -0.2218
-4.4170 INTIMATE -0.2218
-4.4170 INTO -0.2218
-4.4170 INTRODUCE -0.2218
-4.4170 INTRODUCTION -0.2218
-4.4170 INVADE -0.2218
-4.4170 INVASION -0.2218
-4.4170 INVENT -0.2218
-4.4170 INVENTION -0.2218
-4.4170 INVENTORY -0.2218
-4.4170 INVEST -0.2218
-4.4170 INVESTIGATE -0.2218
-4.4170 INVESTIGATION -0.2218
-4.4170 INVESTIGATOR -0.2218
-4.4170 INVESTMENT -0.2218
-4.4170 INVESTOR -0.2218
-4.4170 INVISIBLE -0.2218
-4.4170 INVITATION -0.2218
-4.4170 INVITE -0.2218
-4.4170 INVOLVE -0.2218
-4.4170 INVOLVED -0.2218
-4.4170 INVOLVEMENT -0.2218
-4.4170 IRAQI -0.2218
-4.4170 IRISH -0.2218
-4.4170 IRON -0.2218
-4.4170 IRONICALLY -0.2218
-4.4170 IRONY -0.2218
-4.4170 ISLAM -0.2218
-4.4170 ISLAMIC -0.2218
-4.4170 ISLAND -0.2218
-4.4170 ISOLATE -0.2218
-4.4170 ISOLATED -0.2218
-4.4170 ISOLATION -0.2218
-4.4170 ISRAELI -0.2218
-4.4170 ISSUE -0.2218
-4.4170 IT -0.2218
-4.4170 ITALIAN -0.2218
-4.4170 ITEM -0.2218
-4.4170 ITS -0.2218
-4.4170 ITSELF -0.2218
-4.4170 JACKET -0.2218
-4.4170 JAIL -0.2218
-4.4170 JAPANESE -0.2218
-4.4170 JAR -0.2218
-4.4170 JAW -0.2218
-4.4170 JAZZ -0.2218
-4.4170 JEANS -0.2218
-4.4170 JET -0.2218
-4.4170 JEW -0.2218
-4.4170 JEWELRY -0.2218
-4.4170 JEWISH -0.2218
-4.4170 JOB -0.2218
-4.4170 JOIN -0.2218
-4.4170 JOINT -0.2218
-4.4170 JOKE -0.2218
-4.4170 JOURNAL -0.2218
-4.4170 JOURNALISM -0.2218
-4.4170 JOURNALIST -0.2218
-4.4170 JOURNEY -0.2218
-4.4170 JOY -0.2218
-4.4170 JUDGE -0.2218
-4.4170 JUDGMENT -0.2218
-4.4170 JUDICIAL -0.2218
-4.4170 JUICE -0.2218
-4.4170 JUMP -0.2218
-4.4170 JUNGLE -0.2218
-4.4170 JUNIOR -0.2218
-4.4170 JURISDICTION -0.2218
-4.4170 JUROR -0.2218
-4.4170 JURY -0.2218
-4.4170 JUST -0.2218
-4.4170 JUSTICE -0.2218
-4.4170 JUSTIFY -0.2218
-4.4170 KEEP -0.2218
-4.4170 KEY -0.2218
-4.4170 KICK -0.2218
-4.4170 KID -0.2218
-4.4170 KILL -0.2218
-4.4170 KILLER -0.2218
-4.4170 KILLING -0.2218
-4.4170 KIND -0.2218
-4.4170 KING -0.2218
-4.4170 KINGDOM -0.2218
-4.4170 KISS -0.2218
-4.4170 KIT -0.2218
-4.4170 KITCHEN -0.2218
-4.4170 KNEE -0.2218
-4.4170 KNEEL -0.2218
-4.4170 KNIFE -0.2218
-4.4170 KNOCK -0.2218
-4.4170 KNOW -0.2218
-4.4170 KNOWLEDGE -0.2218
-4.4170 KNOWN -0.2218
-4.4170 KOREAN -0.2218
-4.4170 LAB -0.2218
-4.4170 LABEL -0.2218
-4.4170 LABOR -0.2218
-4.4170 LABORATORY -0.2218
-4.4170 LACK -0.2218
-4.4170 LADDER -0.2218
-4.4170 LADY -0.2218
-4.4170 LAKE -0.2218
-4.4170 LAMP -0.2218
-4.4170 LAND -0.2218
-4.4170 LANDING -0.2218
-4.4170 LANDMARK -0.2218
-4.4170 LANDSCAPE -0.2218
-4.4170 LANE -0.2218
-4.4170 LANGUAGE -0.2218
-4.4170 LAP -0.2218
-4.4170 LARGE -0.2218
-4.4170 LARGELY -0.2218
-4.4170 LASER -0.2218
-4.4170 LAST -0.2218
-4.4170 LATE -0.2218
-4.4170 LATELY -0.2218
-4.4170 LATER -0.2218
-4.4170 LATIN -0.2218
-4.4170 LATTER -0.2218
-4.4170 LAUGH -0.2218
-4.4170 LAUGHTER -0.2218
-4.4170 LAUNCH -0.2218
-4.4170 LAUNDRY -0.2218
-4.4170 LAW -0.2218
-4.4170 LAWMAKER -0.2218
-4.4170 LAWN -0.2218
-4.4170 LAWSUIT -0.2218
-4.4170 LAWYER -0.2218
-4.4170 LAY -0.2218
-4.4170 LAYER -0.2218
-4.4170 LEAD -0.2218
-4.4170 LEADER -0.2218
-4.4170 LEADERSHIP -0.2218
-4.4170 LEADING -0.2218
-4.4170 LEAF -0.2218
-4.4170 LEAGUE -0.2218
-4.4170 LEAN -0.2218
-4.4170 LEAP -0.2218
-4.4170 LEARN -0.2218
-4.4170 LEARNING -0.2218
-4.4170 LEAST -0.2218
-4.4170 LEATHER -0.2218
-4.4170 LEAVE -0.2218
-4.4170 LECTURE -0.2218
-4.4170 LEFT -0.2218
-4.4170 LEG -0.2218
-4.4170 LEGACY -0.2218
-4.4170 LEGAL -0.2218
-4.4170 LEGALLY -0.2218
-4.4170 LEGEND -0.2218
-4.4170 LEGISLATION -0.2218
-4.4170 LEGISLATIVE -0.2218
-4.4170 LEGISLATOR -0.2218
-4.4170 LEGISLATURE -0.2218
-4.4170 LEGITIMATE -0.2218
-4.4170 LEMON -0.2218
-4.4170 LEND -0.2218
-4.4170 LENGTH -0.2218
-4.4170 LENS -0.2218
-4.4170 LESS -0.2218
-4.4170 LESSON -0.2218
-4.4170 LET -0.2218
-4.4170 LETTER -0.2218
-4.4170 LEVEL -0.2218
-4.4170 LIABILITY -0.2218
-4.4170 LIBERAL -0.2218
-4.4170 LIBERTY -0.2218
-4.4170 LIBRARY -0.2218
-4.4170 LICENSE -0.2218
-4.4170 LID -0.2218
-4.4170 LIE -0.2218
-4.4170 LIFE -0.2218
-4.4170 LIFESTYLE -0.2218
-4.4170 LIFETIME -0.2218
-4.4170 LIFT -0.2218
-4.4170 LIGHT -0.2218
-4.4170 LIGHTING -0.2218
-4.4170 LIGHTLY -0.2218
-4.4170 LIGHTNING -0.2218
-4.4170 LIKE -0.2218
-4.4170 LIKELIHOOD -0.2218
-4.4170 LIKELY -0.2218
-4.4170 LIKEWISE -0.2218
-4.4170 LIMB -0.2218
-4.4170 LIMIT -0.2218
-4.4170 LIMITATION -0.2218
-4.4170 LIMITED -0.2218
-4.4170 LINE -0.2218
-4.4170 LINK -0.2218
-4.4170 LION -0.2218
-4.4170 LIP -0.2218
-4.4170 LIQUID -0.2218
-4.4170 LIST -0.2218
-4.4170 LISTEN -0.2218
-4.4170 LISTENER -0.2218
-4.4170 LITERALLY -0.2218
-4.4170 LITERARY -0.2218
-4.4170 LITERATURE -0.2218
-4.4170 LITTLE -0.2218
-4.4170 LIVE -0.2218
-4.4170 LIVER -0.2218
-4.4170 LIVING -0.2218
-4.4170 LOAD -0.2218
-4.4170 LOAN -0.2218
-4.4170 LOBBY -0.2218
-4.4170 LOCAL -0.2218
-4.4170 LOCATE -0.2218
-4.4170 LOCATION -0.2218
-4.4170 LOCK -0.2218
-4.4170 LOG -0.2218
-4.4170 LOGIC -0.2218
-4.4170 LOGICAL -0.2218
-4.4170 LONELY -0.2218
-4.4170 LONG -0.2218
-4.4170 LONG-TERM -0.2218
-4.4170 LONGTIME -0.2218
-4.4170 LOOK -0.2218
-4.4170 LOOP -0.2218
-4.4170 LOOSE -0.2218
-4.4170 LOSE -0.2218
-4.4170 LOSS -0.2218
-4.4170 LOST -0.2218
-4.4170 LOT -0.2218
-4.4170 LOTS -0.2218
-4.4170 LOUD -0.2218
-4.4170 LOVE -0.2218
-4.4170 LOVELY -0.2218
-4.4170 LOVER -0.2218
-4.4170 LOW -0.2218
-4.4170 LOWER -0.2218
-4.4170 LOYAL -0.2218
-4.4170 LOYALTY -0.2218
-4.4170 LUCK -0.2218
-4.4170 LUCKY -0.2218
-4.4170 LUNCH -0.2218
-4.4170 LUNG -0.2218
-4.4170 MACHINE -0.2218
-4.4170 MAD -0.2218
-4.4170 MAGAZINE -0.2218
-4.4170 MAGIC -0.2218
-4.4170 MAGNETIC -0.2218
-4.4170 MAGNITUDE -0.2218
-4.4170 MAIL -0.2218
-4.4170 MAIN -0.2218
-4.4170 MAINLY -0.2218
-4.4170 MAINSTREAM -0.2218
-4.4170 MAINTAIN -0.2218
-4.4170 MAINTENANCE -0.2218
-4.4170 MAJOR -0.2218
-4.4170 MAJORITY -0.2218
-4.4170 MAKE -0.2218
-4.4170 MAKER -0.2218
-4.4170 MAKEUP -0.2218
-4.4170 MALE -0.2218
-4.4170 MALL -0.2218
-4.4170 MAN -0.2218
-4.4170 MANAGE -0.2218
-4.4170 MANAGEMENT -0.2218
-4.4170 MANAGER -0.2218
-4.4170 MANAGING -0.2218
-4.4170 MANDATE -0.2218
-4.4170 MANIPULATE -0.2218
-4.4170 MANNER -0.2218
-4.4170 MANSION -0.2218
-4.4170 MANUAL -0.2218
-4.4170 MANUFACTURER -0.2218
-4.4170 MANUFACTURING -0.2218
-4.4170 MANY -0.2218
-4.4170 MAP -0.2218
-4.4170 MARBLE -0.2218
-4.4170 MARCH -0.2218
-4.4170 MARGIN -0.2218
-4.4170 MARINE -0.2218
-4.4170 MARK -0.2218
-4.4170 MARKER -0.2218
-4.4170 MARKET -0.2218
-4.4170 MARKETING -0.2218
-4.4170 MARKETPLACE -0.2218
-4.4170 MARRIAGE -0.2218
-4.4170 MARRIED -0.2218
-4.4170 MARRY -0.2218
-4.4170 MASK -0.2218
-4.4170 MASS -0.2218
-4.4170 MASSIVE -0.2218
-4.4170 MASTER -0.2218
-4.4170 MATCH -0.2218
-4.4170 MATE -0.2218
-4.4170 MATERIAL -0.2218
-4.4170 MATH -0.2218
-4.4170 MATHEMATICS -0.2218
-4.4170 MATTER -0.2218
-4.4170 MAXIMUM -0.2218
-4.4170 MAY -0.2218
-4.4170 MAYBE -0.2218
-4.4170 MAYOR -0.2218
-4.4170 ME -0.2218
-4.4170 MEAL -0.2218
-4.4170 MEAN -0.2218
-4.4170 MEANING -0.2218
-4.4170 MEANINGFUL -0.2218
-4.4170 MEANTIME -0.2218
-4.4170 MEANWHILE -0.2218
-4.4170 MEASURE -0.2218
-4.4170 MEASUREMENT -0.2218
-4.4170 MEAT -0.2218
-4.4170 MECHANIC -0.2218
-4.4170 MECHANICAL -0.2218
-4.4170 MECHANISM -0.2218
-4.4170 MEDAL -0.2218
-4.4170 MEDIA -0.2218
-4.4170 MEDICAL -0.2218
-4.4170 MEDICATION -0.2218
-4.4170 MEDICINE -0.2218
-4.4170 MEDIUM -0.2218
-4.4170 MEET -0.2218
-4.4170 MEETING -0.2218
-4.4170 MELT -0.2218
-4.4170 MEMBER -0.2218
-4.4170 MEMBERSHIP -0.2218
-4.4170 MEMORY -0.2218
-4.4170 MENTAL -0.2218
-4.4170 MENTALLY -0.2218
-4.4170 MENTION -0.2218
-4.4170 MENTOR -0.2218
-4.4170 MENU -0.2218
-4.4170 MERCHANT -0.2218
-4.4170 MERE -0.2218
-4.4170 MERELY -0.2218
-4.4170 MERIT -0.2218
-4.4170 MESS -0.2218
-4.4170 MESSAGE -0.2218
-4.4170 METAL -0.2218
-4.4170 METAPHOR -0.2218
-4.4170 METER -0.2218
-4.4170 METHOD -0.2218
-4.4170 METROPOLITAN -0.2218
-4.4170 MEXICAN -0.2218
-4.4170 MIDDLE -0.2218
-4.4170 MIDDLE-CLASS -0.2218
-4.4170 MIDNIGHT -0.2218
-4.4170 MIDST -0.2218
-4.4170 MIGHT -0.2218
-4.4170 MIGRATION -0.2218
-4.4170 MILD -0.2218
-4.4170 MILITARY -0.2218
-4.4170 MILK -0.2218
-4.4170 MILL -0.2218
-4.4170 MILLION -0.2218
-4.4170 MIND -0.2218
-4.4170 MINE -0.2218
-4.4170 MINERAL -0.2218
-4.4170 MINIMAL -0.2218
-4.4170 MINIMIZE -0.2218
-4.4170 MINIMUM -0.2218
-4.4170 MINISTER -0.2218
-4.4170 MINISTRY -0.2218
-4.4170 MINOR -0.2218
-4.4170 MINORITY -0.2218
-4.4170 MINUTE -0.2218
-4.4170 MIRACLE -0.2218
-4.4170 MIRROR -0.2218
-4.4170 MISS -0.2218
-4.4170 MISSILE -0.2218
-4.4170 MISSING -0.2218
-4.4170 MISSION -0.2218
-4.4170 MISSIONARY -0.2218
-4.4170 MISTAKE -0.2218
-4.4170 MIX -0.2218
-4.4170 MIXED -0.2218
-4.4170 MIXTURE -0.2218
-4.4170 MM-HMM -0.2218
-4.4170 MOBILE -0.2218
-4.4170 MODE -0.2218
-4.4170 MODEL -0.2218
-4.4170 MODERATE -0.2218
-4.4170 MODERN -0.2218
-4.4170 MODEST -0.2218
-4.4170 MODIFY -0.2218
-4.4170 MOLECULE -0.2218
-4.4170 MOM -0.2218
-4.4170 MOMENT -0.2218
-4.4170 MOMENTUM -0.2218
-4.4170 MONEY -0.2218
-4.4170 MONITOR -0.2218
-4.4170 MONKEY -0.2218
-4.4170 MONSTER -0.2218
-4.4170 MONTH -0.2218
-4.4170 MONTHLY -0.2218
-4.4170 MONUMENT -0.2218
-4.4170 MOOD -0.2218
-4.4170 MOON -0.2218
-4.4170 MORAL -0.2218
-4.4170 MORE -0.2218
-4.4170 MOREOVER -0.2218
-4.4170 MORNING -0.2218
-4.4170 MORTALITY -0.2218
-4.4170 MORTGAGE -0.2218
-4.4170 MOST -0.2218
-4.4170 MOSTLY -0.2218
-4.4170 MOTHER -0.2218
-4.4170 MOTION -0.2218
-4.4170 MOTIVATE -0.2218
-4.4170 MOTIVATION -0.2218
-4.4170 MOTIVE -0.2218
-4.4170 MOTOR -0.2218
-4.4170 MOUNT -0.2218
-4.4170 MOUNTAIN -0.2218
-4.4170 MOUSE -0.2218
-4.4170 MOUTH -0.2218
-4.4170 MOVE -0.2218
-4.4170 MOVEMENT -0.2218
-4.4170 MOVIE -0.2218
-4.4170 MR -0.2218
-4.4170 MRS -0.2218
-4.4170 MS -0.2218
-4.4170 MUCH -0.2218
-4.4170 MUD -0.2218
-4.4170 MULTIPLE -0.2218
-4.4170 MUNICIPAL -0.2218
-4.4170 MURDER -0.2218
-4.4170 MUSCLE -0.2218
-4.4170 MUSEUM -0.2218
-4.4170 MUSHROOM -0.2218
-4.4170 MUSIC -0.2218
-4.4170 MUSICAL -0.2218
-4.4170 MUSICIAN -0.2218
-4.4170 MUSLIM -0.2218
-4.4170 MUST -0.2218
-4.4170 MUTTER -0.2218
-4.4170 MUTUAL -0.2218
-4.4170 MY -0.2218
-4.4170 MYSELF -0.2218
-4.4170 MYSTERIOUS -0.2218
-4.4170 MYSTERY -0.2218
-4.4170 MYTH -0.2218
-4.4170 N'T -0.2218
-4.4170 NAIL -0.2218
-4.4170 NAKED -0.2218
-4.4170 NAME -0.2218
-4.4170 NARRATIVE -0.2218
-4.4170 NARROW -0.2218
-4.4170 NASTY -0.2218
-4.4170 NATION -0.2218
-4.4170 NATIONAL -0.2218
-4.4170 NATIONWIDE -0.2218
-4.4170 NATIVE -0.2218
-4.4170 NATURAL -0.2218
-4.4170 NATURALLY -0.2218
-4.4170 NATURE -0.2218
-4.4170 NAVAL -0.2218
-4.4170 NEAR -0.2218
-4.4170 NEARBY -0.2218
-4.4170 NEARLY -0.2218
-4.4170 NEAT -0.2218
-4.4170 NECESSARILY -0.2218
-4.4170 NECESSARY -0.2218
-4.4170 NECESSITY -0.2218
-4.4170 NECK -0.2218
-4.4170 NEED -0.2218
-4.4170 NEEDLE -0.2218
-4.4170 NEGATIVE -0.2218
-4.4170 NEGOTIATE -0.2218
-4.4170 NEGOTIATION -0.2218
-4.4170 NEIGHBOR -0.2218
-4.4170 NEIGHBORHOOD -0.2218
-4.4170 NEIGHBORING -0.2218
-4.4170 NEITHER -0.2218
-4.4170 NERVE -0.2218
-4.4170 NERVOUS -0.2218
-4.4170 NEST -0.2218
-4.4170 NET -0.2218
-4.4170 NETWORK -0.2218
-4.4170 NEUTRAL -0.2218
-4.4170 NEVER -0.2218
-4.4170 NEVERTHELESS -0.2218
-4.4170 NEW -0.2218
-4.4170 NEWLY -0.2218
-4.4170 NEWS -0.2218
-4.4170 NEWSPAPER -0.2218
-4.4170 NEXT -0.2218
-4.4170 NICE -0.2218
-4.4170 NIGHT -0.2218
-4.4170 NIGHTMARE -0.2218
-4.4170 NINE -0.2218
-4.4170 NO -0.2218
-4.4170 NOBODY -0.2218
-4.4170 NOD -0.2218
-4.4170 NOISE -0.2218
-4.4170 NOMINATION -0.2218
-4.4170 NOMINEE -0.2218
-4.4170 NONE -0.2218
-4.4170 NONETHELESS -0.2218
-4.4170 NONPROFIT -0.2218
-4.4170 NOON -0.2218
-4.4170 NOR -0.2218
-4.4170 NORM -0.2218
-4.4170 NORMAL -0.2218
-4.4170 NORMALLY -0.2218
-4.4170 NORTH -0.2218
-4.4170 NORTHEAST -0.2218
-4.4170 NORTHERN -0.2218
-4.4170 NORTHWEST -0.2218
-4.4170 NOSE -0.2218
-4.4170 NOT -0.2218
-4.4170 NOTE -0.2218
-4.4170 NOTEBOOK -0.2218
-4.4170 NOTHING -0.2218
-4.4170 NOTICE -0.2218
-4.4170 NOTION -0.2218
-4.4170 NOVEL -0.2218
-4.4170 NOW -0.2218
-4.4170 NOWHERE -0.2218
-4.4170 NUCLEAR -0.2218
-4.4170 NUMBER -0.2218
-4.4170 NUMEROUS -0.2218
-4.4170 NURSE -0.2218
-4.4170 NUT -0.2218
-4.4170 NUTRIENT -0.2218
-4.4170 O'CLOCK -0.2218
-4.4170 OAK -0.2218
-4.4170 OBJECT -0.2218
-4.4170 OBJECTION -0.2218
-4.4170 OBJECTIVE -0.2218
-4.4170 OBLIGATION -0.2218
-4.4170 OBSERVATION -0.2218
-4.4170 OBSERVE -0.2218
-4.4170 OBSERVER -0.2218
-4.4170 OBSTACLE -0.2218
-4.4170 OBTAIN -0.2218
-4.4170 OBVIOUS -0.2218
-4.4170 OBVIOUSLY -0.2218
-4.4170 OCCASION -0.2218
-4.4170 OCCASIONAL -0.2218
-4.4170 OCCASIONALLY -0.2218
-4.4170 OCCUPATION -0.2218
-4.4170 OCCUPY -0.2218
-4.4170 OCCUR -0.2218
-4.4170 OCEAN -0.2218
-4.4170 ODD -0.2218
-4.4170 ODDS -0.2218
-4.4170 OF -0.2218
-4.4170 OFF -0.2218
-4.4170 OFFENDER -0.2218
-4.4170 OFFENSE -0.2218
-4.4170 OFFENSIVE -0.2218
-4.4170 OFFER -0.2218
-4.4170 OFFERING -0.2218
-4.4170 OFFICE -0.2218
-4.4170 OFFICER -0.2218
-4.4170 OFFICIAL -0.2218
-4.4170 OFFICIALLY -0.2218
-4.4170 OFTEN -0.2218
-4.4170 OH -0.2218
-4.4170 OIL -0.2218
-4.1160 OK -0.2218
-4.4170 OKAY -0.2218
-4.4170 OLD -0.2218
-4.4170 OLD-FASHIONED -0.2218
-4.4170 OLYMPIC -0.2218
-4.4170 OLYMPICS -0.2218
-4.4170 ON -0.2218
-4.4170 ONCE -0.2218
-4.4170 ONE -0.2218
-4.4170 ONE-THIRD -0.2218
-4.4170 ONGOING -0.2218
-4.4170 ONION -0.2218
-4.4170 ONLINE -0.2218
-4.4170 ONLY -0.2218
-4.4170 ONTO -0.2218
-4.4170 OPEN -0.2218
-4.4170 OPENING -0.2218
-4.4170 OPENLY -0.2218
-4.4170 OPERA -0.2218
-4.4170 OPERATE -0.2218
-4.4170 OPERATING -0.2218
-4.4170 OPERATION -0.2218
-4.4170 OPERATOR -0.2218
-4.4170 OPINION -0.2218
-4.4170 OPPONENT -0.2218
-4.4170 OPPORTUNITY -0.2218
-4.4170 OPPOSE -0.2218
-4.4170 OPPOSED -0.2218
-4.4170 OPPOSITE -0.2218
-4.4170 OPPOSITION -0.2218
-4.4170 OPT -0.2218
-4.4170 OPTIMISTIC -0.2218
-4.4170 OPTION -0.2218
-4.4170 OR -0.2218
-4.4170 ORAL -0.2218
-4.4170 ORANGE -0.2218
-4.4170 ORBIT -0.2218
-4.4170 ORDER -0.2218
-4.4170 ORDINARY -0.2218
-4.4170 ORGAN -0.2218
-4.4170 ORGANIC -0.2218
-4.4170 ORGANISM -0.2218
-4.4170 ORGANIZATION -0.2218
-4.4170 ORGANIZATIONAL -0.2218
-4.4170 ORGANIZE -0.2218
-4.4170 ORGANIZED -0.2218
-4.4170 ORIENTATION -0.2218
-4.4170 ORIGIN -0.2218
-4.4170 ORIGINAL -0.2218
-4.4170 ORIGINALLY -0.2218
-4.4170 OTHER -0.2218
-4.4170 OTHERS -0.2218
-4.4170 OTHERWISE -0.2218
-4.4170 OUGHT -0.2218
-4.4170 OUR -0.2218
-4.4170 OURS -0.2218
-4.4170 OURSELVES -0.2218
-4.4170 OUT -0.2218
-4.4170 OUTCOME -0.2218
-4.4170 OUTDOOR -0.2218
-4.4170 OUTER -0.2218
-4.4170 OUTFIT -0.2218
-4.4170 OUTLET -0.2218
-4.4170 OUTLINE -0.2218
-4.4170 OUTPUT -0.2218
-4.4170 OUTSIDE -0.2218
-4.4170 OUTSIDER -0.2218
-4.4170 OUTSTANDING -0.2218
-4.4170 OVEN -0.2218
-4.4170 OVER -0.2218
-4.4170 OVERALL -0.2218
-4.4170 OVERCOME -0.2218
-4.4170 OVERLOOK -0.2218
-4.4170 OVERNIGHT -0.2218
-4.4170 OVERSEE -0.2218
-4.4170 OVERWHELM -0.2218
-4.4170 OVERWHELMING -0.2218
-4.4170 OWE -0.2218
-4.4170 OWN -0.2218
-4.4170 OWNER -0.2218
-4.4170 OWNERSHIP -0.2218
-4.4170 OXYGEN -0.2218
-4.4170 PACE -0.2218
-4.4170 PACK -0.2218
-4.4170 PACKAGE -0.2218
-4.4170 PAD -0.2218
-4.4170 PAGE -0.2218
-4.4170 PAIN -0.2218
-4.4170 PAINFUL -0.2218
-4.4170 PAINT -0.2218
-4.4170 PAINTER -0.2218
-4.4170 PAINTING -0.2218
-4.4170 PAIR -0.2218
-4.4170 PALACE -0.2218
-4.4170 PALE -0.2218
-4.4170 PALESTINIAN -0.2218
-4.4170 PALM -0.2218
-4.4170 PAN -0.2218
-4.4170 PANEL -0.2218
-4.4170 PANIC -0.2218
-4.4170 PANT -0.2218
-4.4170 PAPER -0.2218
-4.4170 PARADE -0.2218
-4.4170 PARENT -0.2218
-4.4170 PARENTAL -0.2218
-4.4170 PARISH -0.2218
-4.4170 PARK -0.2218
-4.4170 PARKING -0.2218
-4.4170 PART -0.2218
-4.4170 PARTIAL -0.2218
-4.4170 PARTIALLY -0.2218
-4.4170 PARTICIPANT -0.2218
-4.4170 PARTICIPATE -0.2218
-4.4170 PARTICIPATION -0.2218
-4.4170 PARTICLE -0.2218
-4.4170 PARTICULAR -0.2218
-4.4170 PARTICULARLY -0.2218
-4.4170 PARTLY -0.2218
-4.4170 PARTNER -0.2218
-4.4170 PARTNERSHIP -0.2218
-4.4170 PARTY -0.2218
-4.4170 PASS -0.2218
-4.4170 PASSAGE -0.2218
-4.4170 PASSENGER -0.2218
-4.4170 PASSING -0.2218
-4.4170 PASSION -0.2218
-4.4170 PAST -0.2218
-4.4170 PASTA -0.2218
-4.4170 PASTOR -0.2218
-4.4170 PAT -0.2218
-4.4170 PATCH -0.2218
-4.4170 PATENT -0.2218
-4.4170 PATH -0.2218
-4.4170 PATIENCE -0.2218
-4.4170 PATIENT -0.2218
-4.4170 PATROL -0.2218
-4.4170 PATRON -0.2218
-4.4170 PATTERN -0.2218
-4.4170 PAUSE -0.2218
-4.4170 PAY -0.2218
-4.4170 PAYMENT -0.2218
-4.4170 PC -0.2218
-4.4170 PEACE -0.2218
-4.4170 PEACEFUL -0.2218
-4.4170 PEAK -0.2218
-4.4170 PEANUT -0.2218
-4.4170 PEASANT -0.2218
-4.4170 PEEL -0.2218
-4.4170 PEER -0.2218
-4.4170 PEN -0.2218
-4.4170 PENALTY -0.2218
-4.4170 PENCIL -0.2218
-4.4170 PENSION -0.2218
-4.4170 PEOPLE -0.2218
-4.4170 PEPPER -0.2218
-4.4170 PER -0.2218
-4.4170 PERCEIVE -0.2218
-4.4170 PERCEIVED -0.2218
-4.4170 PERCENTAGE -0.2218
-4.4170 PERCEPTION -0.2218
-4.4170 PERFECT -0.2218
-4.4170 PERFECTLY -0.2218
-4.4170 PERFORM -0.2218
-4.4170 PERFORMANCE -0.2218
-4.4170 PERFORMER -0.2218
-4.4170 PERHAPS -0.2218
-4.4170 PERIOD -0.2218
-4.4170 PERMANENT -0.2218
-4.4170 PERMISSION -0.2218
-4.4170 PERMIT -0.2218
-4.4170 PERSIAN -0.2218
-4.4170 PERSIST -0.2218
-4.4170 PERSON -0.2218
-4.4170 PERSONAL -0.2218
-4.4170 PERSONALITY -0.2218
-4.4170 PERSONALLY -0.2218
-4.4170 PERSONNEL -0.2218
-4.4170 PERSPECTIVE -0.2218
-4.4170 PERSUADE -0.2218
-4.4170 PET -0.2218
-4.4170 PHASE -0.2218
-4.4170 PHENOMENON -0.2218
-4.4170 PHILOSOPHICAL -0.2218
-4.4170 PHILOSOPHY -0.2218
-4.4170 PHONE -0.2218
-4.4170 PHOTO -0.2218
-4.4170 PHOTOGRAPH -0.2218
-4.4170 PHOTOGRAPHER -0.2218
-4.4170 PHOTOGRAPHY -0.2218
-4.4170 PHRASE -0.2218
-4.4170 PHYSICAL -0.2218
-4.4170 PHYSICALLY -0.2218
-4.4170 PHYSICIAN -0.2218
-4.4170 PHYSICS -0.2218
-4.4170 PIANO -0.2218
-4.4170 PICK -0.2218
-4.4170 PICKUP -0.2218
-4.4170 PICTURE -0.2218
-4.4170 PIE -0.2218
-4.4170 PIECE -0.2218
-4.4170 PIG -0.2218
-4.4170 PILE -0.2218
-4.4170 PILL -0.2218
-4.4170 PILLOW -0.2218
-4.4170 PILOT -0.2218
-4.4170 PIN -0.2218
-4.4170 PINE -0.2218
-4.4170 PINK -0.2218
-4.4170 PIONEER -0.2218
-4.4170 PIPE -0.2218
-4.4170 PISTOL -0.2218
-4.4170 PIT -0.2218
-4.4170 PITCH -0.2218
-4.4170 PITCHER -0.2218
-4.4170 PIZZA -0.2218
-4.4170 PLACE -0.2218
-4.4170 PLACEMENT -0.2218
-4.4170 PLAIN -0.2218
-4.4170 PLAINTIFF -0.2218
-4.4170 PLAN -0.2218
-4.4170 PLANE -0.2218
-4.4170 PLANET -0.2218
-4.4170 PLANNER -0.2218
-4.4170 PLANNING -0.2218
-4.4170 PLANT -0.2218
-4.4170 PLASTIC -0.2218
-4.4170 PLATE -0.2218
-4.4170 PLATFORM -0.2218
-4.4170 PLAY -0.2218
-4.4170 PLAYER -0.2218
-4.4170 PLAYOFF -0.2218
-4.4170 PLEA -0.2218
-4.4170 PLEAD -0.2218
-4.4170 PLEASANT -0.2218
-4.4170 PLEASE -0.2218
-4.4170 PLEASED -0.2218
-4.4170 PLEASURE -0.2218
-4.4170 PLENTY -0.2218
-4.4170 PLOT -0.2218
-4.4170 PLUNGE -0.2218
-4.4170 PLUS -0.2218
-4.4170 PM -0.2218
-4.4170 POCKET -0.2218
-4.4170 POEM -0.2218
-4.4170 POET -0.2218
-4.4170 POETRY -0.2218
-4.4170 POINT -0.2218
-4.4170 POKE -0.2218
-4.4170 POLE -0.2218
-4.4170 POLICE -0.2218
-4.4170 POLICEMAN -0.2218
-4.4170 POLICY -0.2218
-4.4170 POLITICAL -0.2218
-4.4170 POLITICALLY -0.2218
-4.4170 POLITICIAN -0.2218
-4.4170 POLITICS -0.2218
-4.4170 POLL -0.2218
-4.4170 POLLUTION -0.2218
-4.4170 POND -0.2218
-4.4170 POOL -0.2218
-4.4170 POOR -0.2218
-4.4170 POP -0.2218
-4.4170 POPULAR -0.2218
-4.4170 POPULARITY -0.2218
-4.4170 POPULATION -0.2218
-4.4170 PORCH -0.2218
-4.4170 PORK -0.2218
-4.4170 PORT -0.2218
-4.4170 PORTFOLIO -0.2218
-4.4170 PORTION -0.2218
-4.4170 PORTRAIT -0.2218
-4.4170 PORTRAY -0.2218
-4.4170 POSE -0.2218
-4.4170 POSITION -0.2218
-4.4170 POSITIVE -0.2218
-4.4170 POSSESS -0.2218
-4.4170 POSSESSION -0.2218
-4.4170 POSSIBILITY -0.2218
-4.4170 POSSIBLE -0.2218
-4.4170 POSSIBLY -0.2218
-4.4170 POST -0.2218
-4.4170 POSTER -0.2218
-4.4170 POT -0.2218
-4.4170 POTATO -0.2218
-4.4170 POTENTIAL -0.2218
-4.4170 POTENTIALLY -0.2218
-4.4170 POUND -0.2218
-4.4170 POUR -0.2218
-4.4170 POVERTY -0.2218
-4.4170 POWDER -0.2218
-4.4170 POWER -0.2218
-4.4170 POWERFUL -0.2218
-4.4170 PRACTICAL -0.2218
-4.4170 PRACTICALLY -0.2218
-4.4170 PRACTICE -0.2218
-4.4170 PRACTITIONER -0.2218
-4.4170 PRAISE -0.2218
-4.4170 PRAY -0.2218
-4.4170 PRAYER -0.2218
-4.4170 PREACH -0.2218
-4.4170 PRECIOUS -0.2218
-4.4170 PRECISE -0.2218
-4.4170 PRECISELY -0.2218
-4.4170 PREDATOR -0.2218
-4.4170 PREDICT -0.2218
-4.4170 PREDICTION -0.2218
-4.4170 PREFER -0.2218
-4.4170 PREFERENCE -0.2218
-4.4170 PREGNANCY -0.2218
-4.4170 PREGNANT -0.2218
-4.4170 PRELIMINARY -0.2218
-4.4170 PREMISE -0.2218
-4.4170 PREMIUM -0.2218
-4.4170 PREPARATION -0.2218
-4.4170 PREPARE -0.2218
-4.4170 PRESCRIPTION -0.2218
-4.4170 PRESENCE -0.2218
-4.4170 PRESENT -0.2218
-4.4170 PRESENTATION -0.2218
-4.4170 PRESERVE -0.2218
-4.4170 PRESIDENCY -0.2218
-4.4170 PRESIDENT -0.2218
-4.4170 PRESIDENTIAL -0.2218
-4.4170 PRESS -0.2218
-4.4170 PRESSURE -0.2218
-4.4170 PRESUMABLY -0.2218
-4.4170 PRETEND -0.2218
-4.4170 PRETTY -0.2218
-4.4170 PREVAIL -0.2218
-4.4170 PREVENT -0.2218
-4.4170 PREVENTION -0.2218
-4.4170 PREVIOUS -0.2218
-4.4170 PREVIOUSLY -0.2218
-4.4170 PRICE -0.2218
-4.4170 PRIDE -0.2218
-4.4170 PRIEST -0.2218
-4.4170 PRIMARILY -0.2218
-4.4170 PRIMARY -0.2218
-4.4170 PRIME -0.2218
-4.4170 PRINCIPAL -0.2218
-4.4170 PRINCIPLE -0.2218
-4.4170 PRINT -0.2218
-4.4170 PRIOR -0.2218
-4.4170 PRIORITY -0.2218
-4.4170 PRISON -0.2218
-4.4170 PRISONER -0.2218
-4.4170 PRIVACY -0.2218
-4.4170 PRIVATE -0.2218
-4.4170 PRIVATELY -0.2218
-4.4170 PRIVILEGE -0.2218
-4.4170 PRIZE -0.2218
-4.4170 PRO -0.2218
-4.4170 PROBABLY -0.2218
-4.4170 PROBLEM -0.2218
-4.4170 PROCEDURE -0.2218
-4.4170 PROCEED -0.2218
-4.4170 PROCESS -0.2218
-4.4170 PROCESSING -0.2218
-4.4170 PROCESSOR -0.2218
-4.4170 PROCLAIM -0.2218
-4.4170 PRODUCE -0.2218
-4.4170 PRODUCER -0.2218
-4.4170 PRODUCT -0.2218
-4.4170 PRODUCTION -0.2218
-4.4170 PRODUCTIVE -0.2218
-4.4170 PRODUCTIVITY -0.2218
-4.4170 PROFESSION -0.2218
-4.4170 PROFESSIONAL -0.2218
-4.4170 PROFESSOR -0.2218
-4.4170 PROFILE -0.2218
-4.4170 PROFIT -0.2218
-4.4170 PROFOUND -0.2218
-4.4170 PROGRAM -0.2218
-4.4170 PROGRAMMING -0.2218
-4.4170 PROGRESS -0.2218
-4.4170 PROGRESSIVE -0.2218
-4.4170 PROHIBIT -0.2218
-4.4170 PROJECT -0.2218
-4.4170 PROJECTION -0.2218
-4.4170 PROMINENT -0.2218
-4.4170 PROMISE -0.2218
-4.4170 PROMISING -0.2218
-4.4170 PROMOTE -0.2218
-4.4170 PROMOTION -0.2218
-4.4170 PROMPT -0.2218
-4.4170 PROOF -0.2218
-4.4170 PROPER -0.2218
-4.4170 PROPERLY -0.2218
-4.4170 PROPERTY -0.2218
-4.4170 PROPORTION -0.2218
-4.4170 PROPOSAL -0.2218
-4.4170 PROPOSE -0.2218
-4.4170 PROPOSED -0.2218
-4.4170 PROSECUTION -0.2218
-4.4170 PROSECUTOR -0.2218
-4.4170 PROSPECT -0.2218
-4.4170 PROTECT -0.2218
-4.4170 PROTECTION -0.2218
-4.4170 PROTECTIVE -0.2218
-4.4170 PROTEIN -0.2218
-4.4170 PROTEST -0.2218
-4.4170 PROTOCOL -0.2218
-4.4170 PROUD -0.2218
-4.4170 PROVE -0.2218
-4.4170 PROVIDE -0.2218
-4.4170 PROVIDED -0.2218
-4.4170 PROVIDER -0.2218
-4.4170 PROVINCE -0.2218
-4.4170 PROVISION -0.2218
-4.4170 PROVOKE -0.2218
-4.4170 PSYCHOLOGICAL -0.2218
-4.4170 PSYCHOLOGIST -0.2218
-4.4170 PSYCHOLOGY -0.2218
-4.4170 PUBLIC -0.2218
-4.4170 PUBLICATION -0.2218
-4.4170 PUBLICITY -0.2218
-4.4170 PUBLICLY -0.2218
-4.4170 PUBLISH -0.2218
-4.4170 PUBLISHER -0.2218
-4.4170 PULL -0.2218
-4.4170 PULSE -0.2218
-4.4170 PUMP -0.2218
-4.4170 PUNCH -0.2218
-4.4170 PUNISH -0.2218
-4.4170 PUNISHMENT -0.2218
-4.4170 PURCHASE -0.2218
-4.4170 PURE -0.2218
-4.4170 PURPLE -0.2218
-4.4170 PURPOSE -0.2218
-4.4170 PURSE -0.2218
-4.4170 PURSUE -0.2218
-4.4170 PURSUIT -0.2218
-4.4170 PUSH -0.2218
-4.4170 PUT -0.2218
-4.4170 PUZZLE -0.2218
-4.4170 QUALIFY -0.2218
-4.4170 QUALITY -0.2218
-4.4170 QUANTITY -0.2218
-4.4170 QUARTER -0.2218
-4.4170 QUARTERBACK -0.2218
-4.4170 QUEEN -0.2218
-4.4170 QUEST -0.2218
-4.4170 QUESTION -0.2218
-4.4170 QUESTIONNAIRE -0.2218
-4.4170 QUICK -0.2218
-4.4170 QUICKLY -0.2218
-4.4170 QUIET -0.2218
-4.4170 QUIETLY -0.2218
-4.4170 QUIT -0.2218
-4.4170 QUITE -0.2218
-4.4170 QUOTE -0.2218
-4.4170 RABBIT -0.2218
-4.4170 RACE -0.2218
-4.4170 RACIAL -0.2218
-4.4170 RACISM -0.2218
-4.4170 RACK -0.2218
-4.4170 RADAR -0.2218
-4.4170 RADIATION -0.2218
-4.4170 RADICAL -0.2218
-4.4170 RADIO -0.2218
-4.4170 RAGE -0.2218
-4.4170 RAIL -0.2218
-4.4170 RAILROAD -0.2218
-4.4170 RAIN -0.2218
-4.4170 RAISE -0.2218
-4.4170 RALLY -0.2218
-4.4170 RANCH -0.2218
-4.4170 RANDOM -0.2218
-4.4170 RANGE -0.2218
-4.4170 RANK -0.2218
-4.4170 RAPE -0.2218
-4.4170 RAPID -0.2218
-4.4170 RAPIDLY -0.2218
-4.4170 RARE -0.2218
-4.4170 RARELY -0.2218
-4.4170 RAT -0.2218
-4.4170 RATE -0.2218
-4.4170 RATHER -0.2218
-4.4170 RATING -0.2218
-4.4170 RATIO -0.2218
-4.4170 RATIONAL -0.2218
-4.4170 RAW -0.2218
-4.4170 RE -0.2218
-4.4170 REACH -0.2218
-4.4170 REACT -0.2218
-4.4170 REACTION -0.2218
-4.4170 READ -0.2218
-4.4170 READER -0.2218
-4.4170 READILY -0.2218
-4.4170 READING -0.2218
-4.4170 READY -0.2218
-4.4170 REAL -0.2218
-4.4170 REALISTIC -0.2218
-4.4170 REALITY -0.2218
-4.4170 REALIZE -0.2218
-4.4170 REALLY -0.2218
-4.4170 REALM -0.2218
-4.4170 REAR -0.2218
-4.4170 REASON -0.2218
-4.4170 REASONABLE -0.2218
-4.4170 REBEL -0.2218
-4.4170 REBUILD -0.2218
-4.4170 RECALL -0.2218
-4.4170 RECEIVE -0.2218
-4.4170 RECEIVER -0.2218
-4.4170 RECENT -0.2218
-4.4170 RECENTLY -0.2218
-4.4170 RECEPTION -0.2218
-4.4170 RECESSION -0.2218
-4.4170 RECIPE -0.2218
-4.4170 RECIPIENT -0.2218
-4.4170 RECOGNITION -0.2218
-4.4170 RECOGNIZE -0.2218
-4.4170 RECOMMEND -0.2218
-4.4170 RECOMMENDATION -0.2218
-4.4170 RECORD -0.2218
-4.4170 RECORDING -0.2218
-4.4170 RECOVER -0.2218
-4.4170 RECOVERY -0.2218
-4.4170 RECRUIT -0.2218
-4.4170 RED -0.2218
-4.4170 REDUCE -0.2218
-4.4170 REDUCTION -0.2218
-4.4170 REFER -0.2218
-4.4170 REFERENCE -0.2218
-4.4170 REFLECT -0.2218
-4.4170 REFLECTION -0.2218
-4.4170 REFORM -0.2218
-4.4170 REFRIGERATOR -0.2218
-4.4170 REFUGE -0.2218
-4.4170 REFUGEE -0.2218
-4.4170 REFUSE -0.2218
-4.4170 REGAIN -0.2218
-4.4170 REGARD -0.2218
-4.4170 REGARDING -0.2218
-4.4170 REGARDLESS -0.2218
-4.4170 REGIME -0.2218
-4.4170 REGION -0.2218
-4.4170 REGIONAL -0.2218
-4.4170 REGISTER -0.2218
-4.4170 REGRET -0.2218
-4.4170 REGULAR -0.2218
-4.4170 REGULARLY -0.2218
-4.4170 REGULATE -0.2218
-4.4170 REGULATION -0.2218
-4.4170 REGULATOR -0.2218
-4.4170 REGULATORY -0.2218
-4.4170 REHABILITATION -0.2218
-4.4170 REINFORCE -0.2218
-4.4170 REJECT -0.2218
-4.4170 RELATE -0.2218
-4.4170 RELATED -0.2218
-4.4170 RELATION -0.2218
-4.4170 RELATIONSHIP -0.2218
-4.4170 RELATIVE -0.2218
-4.4170 RELATIVELY -0.2218
-4.4170 RELAX -0.2218
-4.4170 RELEASE -0.2218
-4.4170 RELEVANT -0.2218
-4.4170 RELIABILITY -0.2218
-4.4170 RELIABLE -0.2218
-4.4170 RELIEF -0.2218
-4.4170 RELIEVE -0.2218
-4.4170 RELIGION -0.2218
-4.4170 RELIGIOUS -0.2218
-4.4170 RELUCTANT -0.2218
-4.4170 RELY -0.2218
-4.4170 REMAIN -0.2218
-4.4170 REMAINING -0.2218
-4.4170 REMARK -0.2218
-4.4170 REMARKABLE -0.2218
-4.4170 REMEMBER -0.2218
-4.4170 REMIND -0.2218
-4.4170 REMINDER -0.2218
-4.4170 REMOTE -0.2218
-4.4170 REMOVAL -0.2218
-4.4170 REMOVE -0.2218
-4.4170 RENDER -0.2218
-4.4170 RENT -0.2218
-4.4170 RENTAL -0.2218
-4.4170 REPAIR -0.2218
-4.4170 REPEAT -0.2218
-4.4170 REPEATEDLY -0.2218
-4.4170 REPLACE -0.2218
-4.4170 REPLACEMENT -0.2218
-4.4170 REPLY -0.2218
-4.4170 REPORT -0.2218
-4.4170 REPORTEDLY -0.2218
-4.4170 REPORTER -0.2218
-4.4170 REPORTING -0.2218
-4.4170 REPRESENT -0.2218
-4.4170 REPRESENTATION -0.2218
-4.4170 REPRESENTATIVE -0.2218
-4.4170 REPUBLIC -0.2218
-4.1160 REPUBLICAN -0.2218
-4.4170 REPUTATION -0.2218
-4.4170 REQUEST -0.2218
-4.4170 REQUIRE -0.2218
-4.4170 REQUIRED -0.2218
-4.4170 REQUIREMENT -0.2218
-4.4170 RESCUE -0.2218
-4.4170 RESEARCH -0.2218
-4.4170 RESEARCHER -0.2218
-4.4170 RESEMBLE -0.2218
-4.4170 RESERVATION -0.2218
-4.4170 RESERVE -0.2218
-4.4170 RESIDENCE -0.2218
-4.4170 RESIDENT -0.2218
-4.4170 RESIDENTIAL -0.2218
-4.4170 RESIGN -0.2218
-4.4170 RESIST -0.2218
-4.4170 RESISTANCE -0.2218
-4.4170 RESOLUTION -0.2218
-4.4170 RESOLVE -0.2218
-4.4170 RESORT -0.2218
-4.4170 RESOURCE -0.2218
-4.4170 RESPECT -0.2218
-4.4170 RESPECTIVELY -0.2218
-4.4170 RESPOND -0.2218
-4.4170 RESPONDENT -0.2218
-4.4170 RESPONSE -0.2218
-4.4170 RESPONSIBILITY -0.2218
-4.4170 RESPONSIBLE -0.2218
-4.4170 REST -0.2218
-4.4170 RESTAURANT -0.2218
-4.4170 RESTORE -0.2218
-4.4170 RESTRICT -0.2218
-4.4170 RESTRICTION -0.2218
-4.4170 RESULT -0.2218
-4.4170 RESUME -0.2218
-4.4170 RETAIL -0.2218
-4.4170 RETAILER -0.2218
-4.4170 RETAIN -0.2218
-4.4170 RETIRE -0.2218
-4.4170 RETIRED -0.2218
-4.4170 RETIREMENT -0.2218
-4.4170 RETREAT -0.2218
-4.4170 RETURN -0.2218
-4.4170 REVEAL -0.2218
-4.4170 REVELATION -0.2218
-4.4170 REVENUE -0.2218
-4.4170 REVERSE -0.2218
-4.4170 REVIEW -0.2218
-4.4170 REVOLUTION -0.2218
-4.4170 REVOLUTIONARY -0.2218
-4.4170 REWARD -0.2218
-4.4170 RHETORIC -0.2218
-4.4170 RHYTHM -0.2218
-4.4170 RIB -0.2218
-4.4170 RIBBON -0.2218
-4.4170 RICE -0.2218
-4.4170 RICH -0.2218
-4.4170 RID -0.2218
-4.4170 RIDE -0.2218
-4.4170 RIDER -0.2218
-4.4170 RIDGE -0.2218
-4.4170 RIDICULOUS -0.2218
-4.4170 RIFLE -0.2218
-4.4170 RIGHT -0.2218
-4.4170 RIM -0.2218
-4.4170 RING -0.2218
-4.4170 RIOT -0.2218
-4.4170 RIP -0.2218
-4.4170 RISE -0.2218
-4.4170 RISK -0.2218
-4.4170 RISKY -0.2218
-4.4170 RITUAL -0.2218
-4.4170 RIVAL -0.2218
-4.4170 RIVER -0.2218
-4.4170 ROAD -0.2218
-4.4170 ROBOT -0.2218
-4.4170 ROCK -0.2218
-4.4170 ROCKET -0.2218
-4.4170 ROD -0.2218
-4.4170 ROLE -0.2218
-4.4170 ROLL -0.2218
-4.4170 ROLLING -0.2218
-4.4170 ROMAN -0.2218
-4.4170 ROMANCE -0.2218
-4.4170 ROMANTIC -0.2218
-4.4170 ROOF -0.2218
-4.4170 ROOM -0.2218
-4.4170 ROOT -0.2218
-4.4170 ROPE -0.2218
-4.4170 ROSE -0.2218
-4.4170 ROUGH -0.2218
-4.4170 ROUGHLY -0.2218
-4.4170 ROUND -0.2218
-4.4170 ROUTE -0.2218
-4.4170 ROUTINE -0.2218
-4.4170 ROUTINELY -0.2218
-4.4170 ROW -0.2218
-4.4170 ROYAL -0.2218
-4.4170 RUB -0.2218
-4.4170 RUBBER -0.2218
-4.4170 RUIN -0.2218
-4.4170 RULE -0.2218
-4.4170 RULING -0.2218
-4.4170 RUMOR -0.2218
-4.4170 RUN -0.2218
-4.4170 RUNNER -0.2218
-4.4170 RUNNING -0.2218
-4.4170 RURAL -0.2218
-4.4170 RUSH -0.2218
-4.4170 RUSSIAN -0.2218
-4.4170 SACK -0.2218
-4.4170 SACRED -0.2218
-4.4170 SACRIFICE -0.2218
-4.4170 SAD -0.2218
-4.4170 SAFE -0.2218
-4.4170 SAFELY -0.2218
-4.4170 SAFETY -0.2218
-4.4170 SAIL -0.2218
-4.4170 SAKE -0.2218
-4.4170 SALAD -0.2218
-4.4170 SALARY -0.2218
-4.4170 SALE -0.2218
-4.4170 SALES -0.2218
-4.4170 SALMON -0.2218
-4.4170 SALT -0.2218
-4.4170 SAME -0.2218
-4.4170 SAMPLE -0.2218
-4.4170 SANCTION -0.2218
-4.4170 SAND -0.2218
-4.4170 SANDWICH -0.2218
-4.4170 SATELLITE -0.2218
-4.4170 SATISFACTION -0.2218
-4.4170 SATISFY -0.2218
-4.4170 SAUCE -0.2218
-4.4170 SAVE -0.2218
-4.4170 SAVING -0.2218
-4.4170 SAY -0.2218
-4.4170 SCALE -0.2218
-4.4170 SCAN -0.2218
-4.4170 SCANDAL -0.2218
-4.4170 SCARE -0.2218
-4.4170 SCARED -0.2218
-4.4170 SCARY -0.2218
-4.4170 SCATTER -0.2218
-4.4170 SCENARIO -0.2218
-4.4170 SCENE -0.2218
-4.4170 SCENT -0.2218
-4.4170 SCHEDULE -0.2218
-4.4170 SCHEME -0.2218
-4.4170 SCHOLAR -0.2218
-4.4170 SCHOLARSHIP -0.2218
-4.4170 SCHOOL -0.2218
-4.4170 SCIENCE -0.2218
-4.4170 SCIENTIFIC -0.2218
-4.4170 SCIENTIST -0.2218
-4.4170 SCOPE -0.2218
-4.4170 SCORE -0.2218
-4.4170 SCRAMBLE -0.2218
-4.4170 SCRATCH -0.2218
-4.4170 SCREAM -0.2218
-4.4170 SCREEN -0.2218
-4.4170 SCREENING -0.2218
-4.4170 SCREW -0.2218
-4.4170 SCRIPT -0.2218
-4.4170 SCULPTURE -0.2218
-4.4170 SEA -0.2218
-4.4170 SEAL -0.2218
-4.4170 SEARCH -0.2218
-4.4170 SEASON -0.2218
-4.4170 SEAT -0.2218
-4.4170 SECOND -0.2218
-4.4170 SECONDARY -0.2218
-4.4170 SECRET -0.2218
-4.4170 SECRETARY -0.2218
-4.4170 SECTION -0.2218
-4.4170 SECTOR -0.2218
-4.4170 SECULAR -0.2218
-4.4170 SECURE -0.2218
-4.4170 SECURITY -0.2218
-4.4170 SEE -0.2218
-4.4170 SEED -0.2218
-4.4170 SEEK -0.2218
-4.4170 SEEM -0.2218
-4.4170 SEEMINGLY -0.2218
-4.4170 SEGMENT -0.2218
-4.4170 SEIZE -0.2218
-4.4170 SELDOM -0.2218
-4.4170 SELECT -0.2218
-4.4170 SELECTED -0.2218
-4.4170 SELECTION -0.2218
-4.4170 SELF -0.2218
-4.4170 SELF-ESTEEM -0.2218
-4.4170 SELL -0.2218
-4.4170 SELLER -0.2218
-4.4170 SEMINAR -0.2218
-4.4170 SENATE -0.2218
-4.4170 SENATOR -0.2218
-4.4170 SEND -0.2218
-4.4170 SENIOR -0.2218
-4.4170 SENSATION -0.2218
-4.4170 SENSE -0.2218
-4.4170 SENSITIVE -0.2218
-4.4170 SENSITIVITY -0.2218
-4.4170 SENSOR -0.2218
-4.4170 SENTENCE -0.2218
-4.4170 SENTIMENT -0.2218
-4.4170 SEPARATE -0.2218
-4.4170 SEPARATION -0.2218
-4.4170 SEQUENCE -0.2218
-4.4170 SERIES -0.2218
-4.4170 SERIOUS -0.2218
-4.4170 SERIOUSLY -0.2218
-4.4170 SERVANT -0.2218
-4.4170 SERVE -0.2218
-4.4170 SERVICE -0.2218
-4.4170 SERVING -0.2218
-4.4170 SESSION -0.2218
-4.4170 SET -0.2218
-4.4170 SETTING -0.2218
-4.4170 SETTLE -0.2218
-4.4170 SETTLEMENT -0.2218
-4.4170 SEVEN -0.2218
-4.4170 SEVENTH -0.2218
-4.4170 SEVERAL -0.2218
-4.4170 SEVERE -0.2218
-4.4170 SEVERELY -0.2218
-4.4170 SEX -0.2218
-4.4170 SEXUAL -0.2218
-4.4170 SEXUALITY -0.2218
-4.4170 SEXUALLY -0.2218
-4.4170 SEXY -0.2218
-4.4170 SHADE -0.2218
-4.4170 SHADOW -0.2218
-4.4170 SHAKE -0.2218
-4.4170 SHALL -0.2218
-4.4170 SHALLOW -0.2218
-4.4170 SHAME -0.2218
-4.4170 SHAPE -0.2218
-4.4170 SHARE -0.2218
-4.4170 SHARED -0.2218
-4.4170 SHAREHOLDER -0.2218
-4.4170 SHARK -0.2218
-4.4170 SHARP -0.2218
-4.4170 SHARPLY -0.2218
-4.4170 SHE -0.2218
-4.4170 SHED -0.2218
-4.4170 SHEEP -0.2218
-4.4170 SHEER -0.2218
-4.4170 SHEET -0.2218
-4.4170 SHELF -0.2218
-4.4170 SHELL -0.2218
-4.4170 SHELTER -0.2218
-4.4170 SHIFT -0.2218
-4.4170 SHINE -0.2218
-4.4170 SHIP -0.2218
-4.4170 SHIRT -0.2218
-4.4170 SHIT -0.2218
-4.4170 SHOCK -0.2218
-4.4170 SHOE -0.2218
-4.4170 SHOOT -0.2218
-4.4170 SHOOTING -0.2218
-4.4170 SHOP -0.2218
-4.4170 SHOPPING -0.2218
-4.4170 SHORE -0.2218
-4.4170 SHORT -0.2218
-4.4170 SHORT-TERM -0.2218
-4.4170 SHORTAGE -0.2218
-4.4170 SHORTLY -0.2218
-4.4170 SHORTS -0.2218
-4.4170 SHOT -0.2218
-4.4170 SHOULD -0.2218
-4.4170 SHOULDER -0.2218
-4.4170 SHOUT -0.2218
-4.4170 SHOVE -0.2218
-4.4170 SHOW -0.2218
-4.4170 SHOWER -0.2218
-4.4170 SHRIMP -0.2218
-4.4170 SHRINK -0.2218
-4.4170 SHRUG -0.2218
-4.4170 SHUT -0.2218
-4.4170 SHUTTLE -0.2218
-4.4170 SHY -0.2218
-4.4170 SIBLING -0.2218
-4.4170 SICK -0.2218
-4.4170 SIDE -0.2218
-4.4170 SIDEWALK -0.2218
-4.4170 SIGH -0.2218
-4.4170 SIGHT -0.2218
-4.4170 SIGN -0.2218
-4.4170 SIGNAL -0.2218
-4.4170 SIGNATURE -0.2218
-4.4170 SIGNIFICANCE -0.2218
-4.4170 SIGNIFICANT -0.2218
-4.4170 SIGNIFICANTLY -0.2218
-4.4170 SILENCE -0.2218
-4.4170 SILENT -0.2218
-4.4170 SILK -0.2218
-4.4170 SILLY -0.2218
-4.4170 SILVER -0.2218
-4.4170 SIMILAR -0.2218
-4.4170 SIMILARITY -0.2218
-4.4170 SIMILARLY -0.2218
-4.4170 SIMPLE -0.2218
-4.4170 SIMPLY -0.2218
-4.4170 SIMULTANEOUSLY -0.2218
-4.4170 SIN -0.2218
-4.4170 SINCE -0.2218
-4.4170 SING -0.2218
-4.4170 SINGER -0.2218
-4.4170 SINGLE -0.2218
-4.4170 SINK -0.2218
-4.4170 SIR -0.2218
-4.4170 SISTER -0.2218
-4.4170 SIT -0.2218
-4.4170 SITE -0.2218
-4.4170 SITUATION -0.2218
-4.4170 SIX -0.2218
-4.4170 SIXTH -0.2218
-4.4170 SIZE -0.2218
-4.4170 SKI -0.2218
-4.4170 SKILL -0.2218
-4.4170 SKILLED -0.2218
-4.4170 SKIN -0.2218
-4.4170 SKIP -0.2218
-4.4170 SKIRT -0.2218
-4.4170 SKULL -0.2218
-4.4170 SKY -0.2218
-4.4170 SLAM -0.2218
-4.4170 SLAP -0.2218
-4.4170 SLAVE -0.2218
-4.4170 SLAVERY -0.2218
-4.4170 SLEEP -0.2218
-4.4170 SLEEVE -0.2218
-4.4170 SLICE -0.2218
-4.4170 SLIDE -0.2218
-4.4170 SLIGHT -0.2218
-4.4170 SLIGHTLY -0.2218
-4.4170 SLIP -0.2218
-4.4170 SLOPE -0.2218
-4.4170 SLOT -0.2218
-4.4170 SLOW -0.2218
-4.4170 SLOWLY -0.2218
-4.4170 SMALL -0.2218
-4.4170 SMART -0.2218
-4.4170 SMELL -0.2218
-4.4170 SMILE -0.2218
-4.4170 SMOKE -0.2218
-4.4170 SMOOTH -0.2218
-4.4170 SNAKE -0.2218
-4.4170 SNAP -0.2218
-4.4170 SNEAK -0.2218
-4.4170 SNOW -0.2218
-4.4170 SO -0.2218
-4.4170 SO-CALLED -0.2218
-4.4170 SOAK -0.2218
-4.4170 SOAP -0.2218
-4.4170 SOAR -0.2218
-4.4170 SOCCER -0.2218
-4.4170 SOCIAL -0.2218
-4.4170 SOCIALLY -0.2218
-4.4170 SOCIETY -0.2218
-4.4170 SOCK -0.2218
-4.4170 SODIUM -0.2218
-4.4170 SOFA -0.2218
-4.4170 SOFT -0.2218
-4.4170 SOFTEN -0.2218
-4.4170 SOFTLY -0.2218
-4.4170 SOFTWARE -0.2218
-4.4170 SOIL -0.2218
-4.4170 SOLAR -0.2218
-4.4170 SOLDIER -0.2218
-4.4170 SOLE -0.2218
-4.4170 SOLELY -0.2218
-4.4170 SOLID -0.2218
-4.4170 SOLUTION -0.2218
-4.4170 SOLVE -0.2218
-4.4170 SOME -0.2218
-4.4170 SOMEBODY -0.2218
-4.4170 SOMEDAY -0.2218
-4.4170 SOMEHOW -0.2218
-4.4170 SOMEONE -0.2218
-4.4170 SOMETHING -0.2218
-4.4170 SOMETIME -0.2218
-4.4170 SOMETIMES -0.2218
-4.4170 SOMEWHAT -0.2218
-4.4170 SOMEWHERE -0.2218
-4.4170 SON -0.2218
-4.4170 SONG -0.2218
-4.4170 SOON -0.2218
-4.4170 SOPHISTICATED -0.2218
-4.4170 SORRY -0.2218
-4.4170 SORT -0.2218
-4.4170 SOUL -0.2218
-4.4170 SOUND -0.2218
-4.4170 SOUP -0.2218
-4.4170 SOURCE -0.2218
-4.4170 SOUTH -0.2218
-4.4170 SOUTHEAST -0.2218
-4.4170 SOUTHERN -0.2218
-4.4170 SOUTHWEST -0.2218
-4.4170 SOVEREIGNTY -0.2218
-4.4170 SOVIET -0.2218
-4.4170 SPACE -0.2218
-4.4170 SPANISH -0.2218
-4.4170 SPARE -0.2218
-4.4170 SPARK -0.2218
-4.4170 SPEAK -0.2218
-4.4170 SPEAKER -0.2218
-4.4170 SPECIAL -0.2218
-4.4170 SPECIALIST -0.2218
-4.4170 SPECIALIZE -0.2218
-4.4170 SPECIALTY -0.2218
-4.4170 SPECIES -0.2218
-4.4170 SPECIFIC -0.2218
-4.4170 SPECIFICALLY -0.2218
-4.4170 SPECIFY -0.2218
-4.4170 SPECTACULAR -0.2218
-4.4170 SPECTRUM -0.2218
-4.4170 SPECULATE -0.2218
-4.4170 SPECULATION -0.2218
-4.4170 SPEECH -0.2218
-4.4170 SPEED -0.2218
-4.4170 SPELL -0.2218
-4.4170 SPEND -0.2218
-4.4170 SPENDING -0.2218
-4.4170 SPHERE -0.2218
-4.4170 SPILL -0.2218
-4.4170 SPIN -0.2218
-4.4170 SPINE -0.2218
-4.4170 SPIRIT -0.2218
-4.4170 SPIRITUAL -0.2218
-4.4170 SPIT -0.2218
-4.4170 SPITE -0.2218
-4.4170 SPLIT -0.2218
-4.4170 SPOKESMAN -0.2218
-4.4170 SPONSOR -0.2218
-4.4170 SPOON -0.2218
-4.4170 SPORT -0.2218
-4.4170 SPOT -0.2218
-4.4170 SPOUSE -0.2218
-4.4170 SPRAY -0.2218
-4.4170 SPREAD -0.2218
-4.4170 SPRING -0.2218
-4.4170 SPRINKLE -0.2218
-4.4170 SPY -0.2218
-4.4170 SQUAD -0.2218
-4.4170 SQUARE -0.2218
-4.4170 SQUEEZE -0.2218
-4.4170 STABILITY -0.2218
-4.4170 STABLE -0.2218
-4.4170 STACK -0.2218
-4.4170 STADIUM -0.2218
-4.4170 STAFF -0.2218
-4.4170 STAGE -0.2218
-4.4170 STAIR -0.2218
-4.4170 STAKE -0.2218
-4.4170 STANCE -0.2218
-4.4170 STAND -0.2218
-4.4170 STANDARD -0.2218
-4.4170 STANDING -0.2218
-4.4170 STAR -0.2218
-4.4170 STARE -0.2218
-4.4170 START -0.2218
-4.4170 STARTER -0.2218
-4.4170 STARTING -0.2218
-4.4170 STATE -0.2218
-4.4170 STATEMENT -0.2218
-4.4170 STATION -0.2218
-4.4170 STATISTICAL -0.2218
-4.4170 STATISTICS -0.2218
-4.4170 STATUE -0.2218
-4.4170 STATUS -0.2218
-4.4170 STATUTE -0.2218
-4.4170 STAY -0.2218
-4.4170 STEADILY -0.2218
-4.4170 STEADY -0.2218
-4.4170 STEAK -0.2218
-4.4170 STEAL -0.2218
-4.4170 STEAM -0.2218
-4.4170 STEEL -0.2218
-4.4170 STEEP -0.2218
-4.4170 STEER -0.2218
-4.4170 STEM -0.2218
-4.4170 STEP -0.2218
-4.4170 STEREOTYPE -0.2218
-4.4170 STICK -0.2218
-4.4170 STIFF -0.2218
-4.4170 STILL -0.2218
-4.4170 STIMULATE -0.2218
-4.4170 STIMULUS -0.2218
-4.4170 STIR -0.2218
-4.4170 STOCK -0.2218
-4.4170 STOMACH -0.2218
-4.4170 STONE -0.2218
-4.4170 STOP -0.2218
-4.4170 STORAGE -0.2218
-4.4170 STORE -0.2218
-4.4170 STORM -0.2218
-4.4170 STORY -0.2218
-4.4170 STOVE -0.2218
-4.4170 STRAIGHT -0.2218
-4.4170 STRAIGHTEN -0.2218
-4.4170 STRAIN -0.2218
-4.4170 STRANGE -0.2218
-4.4170 STRANGER -0.2218
-4.4170 STRATEGIC -0.2218
-4.4170 STRATEGY -0.2218
-4.4170 STRAW -0.2218
-4.4170 STREAK -0.2218
-4.4170 STREAM -0.2218
-4.4170 STREET -0.2218
-4.4170 STRENGTH -0.2218
-4.4170 STRENGTHEN -0.2218
-4.4170 STRESS -0.2218
-4.4170 STRETCH -0.2218
-4.4170 STRICT -0.2218
-4.4170 STRICTLY -0.2218
-4.4170 STRIKE -0.2218
-4.4170 STRIKING -0.2218
-4.4170 STRING -0.2218
-4.4170 STRIP -0.2218
-4.4170 STROKE -0.2218
-4.4170 STRONG -0.2218
-4.4170 STRONGLY -0.2218
-4.4170 STRUCTURAL -0.2218
-4.4170 STRUCTURE -0.2218
-4.4170 STRUGGLE -0.2218
-4.4170 STUDENT -0.2218
-4.4170 STUDIO -0.2218
-4.4170 STUDY -0.2218
-4.4170 STUFF -0.2218
-4.4170 STUMBLE -0.2218
-4.4170 STUPID -0.2218
-4.4170 STYLE -0.2218
-4.4170 SUBJECT -0.2218
-4.4170 SUBMIT -0.2218
-4.4170 SUBSEQUENT -0.2218
-4.4170 SUBSIDY -0.2218
-4.4170 SUBSTANCE -0.2218
-4.4170 SUBSTANTIAL -0.2218
-4.4170 SUBSTANTIALLY -0.2218
-4.4170 SUBTLE -0.2218
-4.4170 SUBURB -0.2218
-4.4170 SUBURBAN -0.2218
-4.4170 SUCCEED -0.2218
-4.4170 SUCCESS -0.2218
-4.4170 SUCCESSFUL -0.2218
-4.4170 SUCCESSFULLY -0.2218
-4.4170 SUCH -0.2218
-4.4170 SUCK -0.2218
-4.4170 SUDDEN -0.2218
-4.4170 SUDDENLY -0.2218
-4.4170 SUE -0.2218
-4.4170 SUFFER -0.2218
-4.4170 SUFFERING -0.2218
-4.4170 SUFFICIENT -0.2218
-4.4170 SUGAR -0.2218
-4.4170 SUGGEST -0.2218
-4.4170 SUGGESTION -0.2218
-4.4170 SUICIDE -0.2218
-4.4170 SUIT -0.2218
-4.4170 SUITABLE -0.2218
-4.4170 SUITE -0.2218
-4.4170 SUM -0.2218
-4.4170 SUMMARY -0.2218
-4.4170 SUMMER -0.2218
-4.4170 SUMMIT -0.2218
-4.4170 SUN -0.2218
-4.4170 SUNLIGHT -0.2218
-4.4170 SUNNY -0.2218
-4.4170 SUPER -0.2218
-4.4170 SUPERIOR -0.2218
-4.4170 SUPERMARKET -0.2218
-4.4170 SUPERVISOR -0.2218
-4.4170 SUPPLIER -0.2218
-4.4170 SUPPLY -0.2218
-4.4170 SUPPORT -0.2218
-4.4170 SUPPORTER -0.2218
-4.4170 SUPPORTIVE -0.2218
-4.4170 SUPPOSE -0.2218
-4.4170 SUPPOSED -0.2218
-4.4170 SUPPOSEDLY -0.2218
-4.4170 SUPREME -0.2218
-4.4170 SURE -0.2218
-4.4170 SURELY -0.2218
-4.4170 SURFACE -0.2218
-4.4170 SURGEON -0.2218
-4.4170 SURGERY -0.2218
-4.4170 SURPRISE -0.2218
-4.4170 SURPRISED -0.2218
-4.4170 SURPRISING -0.2218
-4.4170 SURPRISINGLY -0.2218
-4.4170 SURROUND -0.2218
-4.4170 SURROUNDING -0.2218
-4.4170 SURVEILLANCE -0.2218
-4.4170 SURVEY -0.2218
-4.4170 SURVIVAL -0.2218
-4.4170 SURVIVE -0.2218
-4.4170 SURVIVOR -0.2218
-4.4170 SUSPECT -0.2218
-4.4170 SUSPEND -0.2218
-4.4170 SUSPICION -0.2218
-4.4170 SUSPICIOUS -0.2218
-4.4170 SUSTAIN -0.2218
-4.4170 SUSTAINABLE -0.2218
-4.4170 SWALLOW -0.2218
-4.4170 SWEAR -0.2218
-4.4170 SWEAT -0.2218
-4.4170 SWEATER -0.2218
-4.4170 SWEEP -0.2218
-4.4170 SWEET -0.2218
-4.4170 SWELL -0.2218
-4.4170 SWIM -0.2218
-4.4170 SWIMMING -0.2218
-4.4170 SWING -0.2218
-4.4170 SWITCH -0.2218
-4.4170 SWORD -0.2218
-4.4170 SYMBOL -0.2218
-4.4170 SYMBOLIC -0.2218
-4.4170 SYMPATHY -0.2218
-4.4170 SYMPTOM -0.2218
-4.4170 SYNDROME -0.2218
-4.4170 SYSTEM -0.2218
-4.4170 T-SHIRT -0.2218
-4.4170 TABLE -0.2218
-4.4170 TABLESPOON -0.2218
-4.4170 TACKLE -0.2218
-4.4170 TACTIC -0.2218
-4.4170 TAG -0.2218
-4.4170 TAIL -0.2218
-4.4170 TAKE -0.2218
-4.4170 TALE -0.2218
-4.4170 TALENT -0.2218
-4.4170 TALENTED -0.2218
-4.4170 TALK -0.2218
-4.4170 TALL -0.2218
-4.4170 TANK -0.2218
-4.4170 TAP -0.2218
-4.4170 TAPE -0.2218
-4.4170 TARGET -0.2218
-4.4170 TASK -0.2218
-4.4170 TASTE -0.2218
-4.4170 TAX -0.2218
-4.4170 TAXPAYER -0.2218
-4.4170 TEA -0.2218
-4.4170 TEACH -0.2218
-4.4170 TEACHER -0.2218
-4.4170 TEACHING -0.2218
-4.4170 TEAM -0.2218
-4.4170 TEAMMATE -0.2218
-4.4170 TEAR -0.2218
-4.4170 TEASPOON -0.2218
-4.4170 TECHNICAL -0.2218
-4.4170 TECHNICIAN -0.2218
-4.4170 TECHNIQUE -0.2218
-4.4170 TECHNOLOGICAL -0.2218
-4.4170 TECHNOLOGY -0.2218
-4.4170 TEEN -0.2218
-4.4170 TEENAGE -0.2218
-4.4170 TEENAGER -0.2218
-4.4170 TELEPHONE -0.2218
-4.4170 TELESCOPE -0.2218
-4.4170 TELEVISION -0.2218
-4.4170 TELL -0.2218
-4.4170 TEMPERATURE -0.2218
-4.4170 TEMPLE -0.2218
-4.4170 TEMPORARY -0.2218
-4.4170 TEN -0.2218
-4.4170 TEND -0.2218
-4.4170 TENDENCY -0.2218
-4.4170 TENDER -0.2218
-4.4170 TENNIS -0.2218
-4.4170 TENSION -0.2218
-4.4170 TENT -0.2218
-4.4170 TERM -0.2218
-4.4170 TERMS -0.2218
-4.4170 TERRAIN -0.2218
-4.4170 TERRIBLE -0.2218
-4.4170 TERRIBLY -0.2218
-4.4170 TERRIFIC -0.2218
-4.4170 TERRITORY -0.2218
-4.4170 TERROR -0.2218
-4.4170 TERRORISM -0.2218
-4.4170 TERRORIST -0.2218
-4.4170 TEST -0.2218
-4.4170 TESTIFY -0.2218
-4.4170 TESTIMONY -0.2218
-4.4170 TESTING -0.2218
-4.4170 TEXT -0.2218
-4.4170 TEXTBOOK -0.2218
-4.4170 TEXTURE -0.2218
-4.4170 THAN -0.2218
-4.4170 THANK -0.2218
-4.4170 THANKS -0.2218
-4.4170 THANKSGIVING -0.2218
-4.4170 THAT -0.2218
-4.4170 THE -0.2218
-4.4170 THEATER -0.2218
-4.4170 THEIR -0.2218
-4.4170 THEM -0.2218
-4.4170 THEME -0.2218
-4.4170 THEMSELVES -0.2218
-4.4170 THEN -0.2218
-4.4170 THEOLOGICAL -0.2218
-4.4170 THEOLOGY -0.2218
-4.4170 THEORETICAL -0.2218
-4.4170 THEORY -0.2218
-4.4170 THERAPIST -0.2218
-4.4170 THERAPY -0.2218
-4.4170 THERE -0.2218
-4.4170 THEREBY -0.2218
-4.4170 THEREFORE -0.2218
-4.4170 THESE -0.2218
-4.4170 THEY -0.2218
-4.4170 THICK -0.2218
-4.4170 THIGH -0.2218
-4.4170 THIN -0.2218
-4.4170 THING -0.2218
-4.4170 THINK -0.2218
-4.4170 THINKING -0.2218
-4.4170 THIRD -0.2218
-4.4170 THIRTY -0.2218
-4.4170 THIS -0.2218
-4.4170 THOROUGHLY -0.2218
-4.4170 THOSE -0.2218
-4.4170 THOUGH -0.2218
-4.4170 THOUGHT -0.2218
-4.4170 THOUSAND -0.2218
-4.4170 THREAD -0.2218
-4.4170 THREAT -0.2218
-4.4170 THREATEN -0.2218
-4.4170 THREE -0.2218
-4.4170 THRESHOLD -0.2218
-4.4170 THRIVE -0.2218
-4.4170 THROAT -0.2218
-4.4170 THROUGH -0.2218
-4.4170 THROUGHOUT -0.2218
-4.4170 THROW -0.2218
-4.4170 THUMB -0.2218
-4.4170 THUS -0.2218
-4.4170 TICKET -0.2218
-4.4170 TIDE -0.2218
-4.4170 TIE -0.2218
-4.4170 TIGHT -0.2218
-4.4170 TIGHTEN -0.2218
-4.4170 TIGHTLY -0.2218
-4.4170 TILE -0.2218
-4.4170 TILL -0.2218
-4.4170 TIMBER -0.2218
-4.4170 TIME -0.2218
-4.4170 TIMING -0.2218
-4.4170 TINY -0.2218
-4.4170 TIP -0.2218
-4.4170 TIRE -0.2218
-4.4170 TIRED -0.2218
-4.4170 TISSUE -0.2218
-4.4170 TITLE -0.2218
-4.4170 TO -0.2218
-4.4170 TOBACCO -0.2218
-4.4170 TODAY -0.2218
-4.4170 TOE -0.2218
-4.4170 TOGETHER -0.2218
-4.4170 TOILET -0.2218
-4.4170 TOLERANCE -0.2218
-4.4170 TOLERATE -0.2218
-4.4170 TOLL -0.2218
-4.4170 TOMATO -0.2218
-4.4170 TOMORROW -0.2218
-4.4170 TONE -0.2218
-4.4170 TONGUE -0.2218
-4.4170 TONIGHT -0.2218
-4.4170 TOO -0.2218
-4.4170 TOOL -0.2218
-4.4170 TOOTH -0.2218
-4.4170 TOP -0.2218
-4.4170 TOPIC -0.2218
-4.4170 TOSS -0.2218
-4.4170 TOTAL -0.2218
-4.4170 TOTALLY -0.2218
-4.4170 TOUCH -0.2218
-4.4170 TOUCHDOWN -0.2218
-4.4170 TOUGH -0.2218
-4.4170 TOUR -0.2218
-4.4170 TOURISM -0.2218
-4.4170 TOURIST -0.2218
-4.4170 TOURNAMENT -0.2218
-4.4170 TOWARD -0.2218
-4.4170 TOWARDS -0.2218
-4.4170 TOWEL -0.2218
-4.4170 TOWER -0.2218
-4.4170 TOWN -0.2218
-4.4170 TOXIC -0.2218
-4.4170 TOY -0.2218
-4.4170 TRACE -0.2218
-4.4170 TRACK -0.2218
-4.4170 TRADE -0.2218
-4.4170 TRADING -0.2218
-4.4170 TRADITION -0.2218
-4.4170 TRADITIONAL -0.2218
-4.4170 TRADITIONALLY -0.2218
-4.4170 TRAFFIC -0.2218
-4.4170 TRAGEDY -0.2218
-4.4170 TRAGIC -0.2218
-4.4170 TRAIL -0.2218
-4.4170 TRAILER -0.2218
-4.4170 TRAIN -0.2218
-4.4170 TRAINER -0.2218
-4.4170 TRAINING -0.2218
-4.4170 TRAIT -0.2218
-4.4170 TRANSACTION -0.2218
-4.4170 TRANSFER -0.2218
-4.4170 TRANSFORM -0.2218
-4.4170 TRANSFORMATION -0.2218
-4.4170 TRANSIT -0.2218
-4.4170 TRANSITION -0.2218
-4.4170 TRANSLATE -0.2218
-4.4170 TRANSLATION -0.2218
-4.4170 TRANSMISSION -0.2218
-4.4170 TRANSMIT -0.2218
-4.4170 TRANSPORT -0.2218
-4.4170 TRANSPORTATION -0.2218
-4.4170 TRAP -0.2218
-4.4170 TRASH -0.2218
-4.4170 TRAUMA -0.2218
-4.4170 TRAVEL -0.2218
-4.4170 TRAVELER -0.2218
-4.4170 TRAY -0.2218
-4.4170 TREASURE -0.2218
-4.4170 TREAT -0.2218
-4.4170 TREATMENT -0.2218
-4.4170 TREATY -0.2218
-4.4170 TREE -0.2218
-4.4170 TREMENDOUS -0.2218
-4.4170 TREND -0.2218
-4.4170 TRIAL -0.2218
-4.4170 TRIBAL -0.2218
-4.4170 TRIBE -0.2218
-4.4170 TRICK -0.2218
-4.4170 TRIGGER -0.2218
-4.4170 TRIM -0.2218
-4.4170 TRIP -0.2218
-4.4170 TRIUMPH -0.2218
-4.4170 TROOP -0.2218
-4.4170 TROPICAL -0.2218
-4.4170 TROUBLE -0.2218
-4.4170 TROUBLED -0.2218
-4.4170 TRUCK -0.2218
-4.4170 TRUE -0.2218
-4.4170 TRULY -0.2218
-4.4170 TRUNK -0.2218
-4.4170 TRUST -0.2218
-4.4170 TRUTH -0.2218
-4.4170 TRY -0.2218
-4.4170 TUBE -0.2218
-4.4170 TUCK -0.2218
-4.4170 TUMOR -0.2218
-4.4170 TUNE -0.2218
-4.4170 TUNNEL -0.2218
-4.4170 TURKEY -0.2218
-4.4170 TURN -0.2218
-4.4170 TV -0.2218
-4.4170 TWELVE -0.2218
-4.4170 TWENTIETH -0.2218
-4.4170 TWENTY -0.2218
-4.4170 TWICE -0.2218
-4.4170 TWIN -0.2218
-4.4170 TWIST -0.2218
-4.4170 TWO -0.2218
-4.4170 TWO-THIRDS -0.2218
-4.4170 TYPE -0.2218
-4.4170 TYPICAL -0.2218
-4.4170 TYPICALLY -0.2218
-4.4170 UGLY -0.2218
-4.4170 UH -0.2218
-4.4170 ULTIMATE -0.2218
-4.4170 ULTIMATELY -0.2218
-4.4170 UNABLE -0.2218
-4.4170 UNCERTAIN -0.2218
-4.4170 UNCERTAINTY -0.2218
-4.4170 UNCLE -0.2218
-4.4170 UNCOMFORTABLE -0.2218
-4.4170 UNCOVER -0.2218
-4.4170 UNDER -0.2218
-4.4170 UNDERGO -0.2218
-4.4170 UNDERGRADUATE -0.2218
-4.4170 UNDERLYING -0.2218
-4.4170 UNDERMINE -0.2218
-4.4170 UNDERSTAND -0.2218
-4.4170 UNDERSTANDING -0.2218
-4.4170 UNDERTAKE -0.2218
-4.4170 UNEMPLOYMENT -0.2218
-4.4170 UNEXPECTED -0.2218
-4.4170 UNFAIR -0.2218
-4.4170 UNFOLD -0.2218
-4.4170 UNFORTUNATELY -0.2218
-4.4170 UNHAPPY -0.2218
-4.4170 UNIFORM -0.2218
-4.4170 UNION -0.2218
-4.4170 UNIQUE -0.2218
-4.4170 UNIT -0.2218
-4.4170 UNITE -0.2218
-4.4170 UNITED -0.2218
-4.4170 UNITY -0.2218
-4.4170 UNIVERSAL -0.2218
-4.4170 UNIVERSE -0.2218
-4.4170 UNIVERSITY -0.2218
-4.4170 UNKNOWN -0.2218
-4.4170 UNLESS -0.2218
-4.4170 UNLIKE -0.2218
-4.4170 UNLIKELY -0.2218
-4.4170 UNPRECEDENTED -0.2218
-4.4170 UNTIL -0.2218
-4.4170 UNUSUAL -0.2218
-4.4170 UP -0.2218
-4.4170 UPDATE -0.2218
-4.4170 UPON -0.2218
-4.4170 UPPER -0.2218
-4.4170 UPSET -0.2218
-4.4170 UPSTAIRS -0.2218
-4.4170 URBAN -0.2218
-4.4170 URGE -0.2218
-4.4170 US -0.2218
-4.4170 USE -0.2218
-4.4170 USED -0.2218
-4.4170 USEFUL -0.2218
-4.4170 USER -0.2218
-4.4170 USUAL -0.2218
-4.4170 USUALLY -0.2218
-4.4170 UTILITY -0.2218
-4.4170 UTILIZE -0.2218
-4.4170 VACATION -0.2218
-4.4170 VACCINE -0.2218
-4.4170 VACUUM -0.2218
-4.4170 VALID -0.2218
-4.4170 VALIDITY -0.2218
-4.4170 VALLEY -0.2218
-4.4170 VALUABLE -0.2218
-4.4170 VALUE -0.2218
-4.4170 VAN -0.2218
-4.4170 VANISH -0.2218
-4.4170 VARIABLE -0.2218
-4.4170 VARIATION -0.2218
-4.4170 VARIETY -0.2218
-4.4170 VARIOUS -0.2218
-4.4170 VARY -0.2218
-4.4170 VAST -0.2218
-4.4170 VEGETABLE -0.2218
-4.4170 VEHICLE -0.2218
-4.4170 VENDOR -0.2218
-4.4170 VENTURE -0.2218
-4.4170 VERBAL -0.2218
-4.4170 VERDICT -0.2218
-4.4170 VERSION -0.2218
-4.4170 VERSUS -0.2218
-4.4170 VERTICAL -0.2218
-4.4170 VERY -0.2218
-4.4170 VESSEL -0.2218
-4.4170 VETERAN -0.2218
-4.4170 VIA -0.2218
-4.4170 VICTIM -0.2218
-4.4170 VICTORY -0.2218
-4.4170 VIDEO -0.2218
-4.4170 VIEW -0.2218
-4.4170 VIEWER -0.2218
-4.4170 VILLAGE -0.2218
-4.4170 VIOLATE -0.2218
-4.4170 VIOLATION -0.2218
-4.4170 VIOLENCE -0.2218
-4.4170 VIOLENT -0.2218
-4.4170 VIRTUAL -0.2218
-4.4170 VIRTUALLY -0.2218
-4.4170 VIRTUE -0.2218
-4.4170 VIRUS -0.2218
-4.4170 VISIBLE -0.2218
-4.4170 VISION -0.2218
-4.4170 VISIT -0.2218
-4.4170 VISITOR -0.2218
-4.4170 VISUAL -0.2218
-4.4170 VITAL -0.2218
-4.4170 VITAMIN -0.2218
-4.4170 VOCAL -0.2218
-4.4170 VOICE -0.2218
-4.4170 VOLUME -0.2218
