#############################################################################
## Copyright (c) 1996, Carnegie Mellon University, Cambridge University,
## Ronald Rosenfeld and Philip Clarkson
## Version 3, Copyright (c) 2006, Carnegie Mellon University 
## Contributors includes Wen Xu, Ananlada Chotimongkol, 
## David Huggins-Daines, Arthur Chan and Alan Black 
#############################################################################
=============================================================================
===============  This file was produced by the CMU-Cambridge  ===============
===============     Statistical Language Modeling Toolkit     ===============
=============================================================================
This is a 3-gram language model, based on a vocabulary of 4356 words,
  which begins "</s>", "<s>", "AIDS"...
This is a CLOSED-vocabulary model
  (OOVs eliminated from training data and are forbidden in test data)
Good-Turing discounting was applied.
1-gram frequency of frequency : 4353 
2-gram frequency of frequency : 8706 0 0 0 0 0 0 
3-gram frequency of frequency : 13059 0 0 0 0 0 0 
1-gram discounting ratios : 1.00 
2-gram discounting ratios : 
3-gram discounting ratios : 
This file is in the ARPA-standard format introduced by Doug Paul.

p(wd3|wd1,wd2)= if(trigram exists)           p_3(wd1,wd2,wd3)
                else if(bigram w1,w2 exists) bo_wt_2(w1,w2)*p(wd3|wd2)
                else                         p(wd3|w2)

p(wd2|wd1)= if(bigram exists) p_2(wd1,wd2)
            else              bo_wt_1(wd1)*p_1(wd2)

All probs and back-off weights (bo_wt) are given in log10 form.

Data formats:

Beginning of data mark: \data\
ngram 1=nr            # number of 1-grams
ngram 2=nr            # number of 2-grams
ngram 3=nr            # number of 3-grams

\1-grams:
p_1     wd_1 bo_wt_1
\2-grams:
p_2     wd_1 wd_2 bo_wt_2
\3-grams:
p_3     wd_1 wd_2 wd_3 

end of data mark: \end\

\data\
ngram 1=4356
ngram 2=8707
ngram 3=13059

\1-grams:
-0.4771 </s>	-3.4629
-0.4771 <s>	-3.7638
-4.1160 AIDS	-0.3010
-4.1160 AM	-0.3010
-4.1160 African	-0.3010
-4.1160 African-American	-0.3010
-4.1160 American	-0.3010
-4.1160 Arab	-0.3010
-4.1160 Asian	-0.3010
-4.1160 Bible	-0.3010
-4.1160 British	-0.3010
-4.1160 CEO	-0.3010
-4.1160 Canadian	-0.3010
-4.1160 Catholic	-0.3010
-4.1160 Chinese	-0.3010
-4.1160 Christian	-0.3010
-4.1160 Christianity	-0.3010
-4.1160 Christmas	-0.3010
-4.1160 Congress	-0.3010
-4.1160 Cuban	-0.3010
-4.1160 DNA	-0.3010
-4.1160 Democrat	-0.3010
-4.1160 Dutch	-0.3010
-4.1160 English	-0.3010
-4.1160 European	-0.3010
-4.1160 French	-0.3010
-4.1160 German	-0.3010
-4.1160 God	-0.3010
-4.1160 Greek	-0.3010
-4.1160 Hispanic	-0.3010
-4.1160 I	-0.3010
-4.1160 Indian	-0.3010
-4.1160 Internet	-0.3010
-4.1160 Iraqi	-0.3010
-4.1160 Irish	-0.3010
-4.1160 Islam	-0.3010
-4.1160 Islamic	-0.3010
-4.1160 Israeli	-0.3010
-4.1160 Italian	-0.3010
-4.1160 Japanese	-0.3010
-4.1160 Jew	-0.3010
-4.1160 Jewish	-0.3010
-4.1160 Korean	-0.3010
-4.1160 Latin	-0.3010
-4.1160 Mexican	-0.3010
-4.1160 Mr	-0.3010
-4.1160 Mrs	-0.3010
-4.1160 Ms	-0.3010
-4.1160 Muslim	-0.3010
-4.1160 OK	-0.3010
-4.1160 Olympic	-0.3010
-4.1160 Olympics	-0.3010
-4.1160 PC	-0.3010
-4.1160 PM	-0.3010
-4.1160 Palestinian	-0.3010
-4.1160 Persian	-0.3010
-4.1160 Republican	-0.3010
-4.1160 Roman	-0.3010
-4.1160 Russian	-0.3010
-4.1160 Senate	-0.3010
-4.1160 Soviet	-0.3010
-4.1160 Spanish	-0.3010
-4.1160 Supreme	-0.3010
-4.1160 T-shirt	-0.3010
-4.1160 TV	-0.3010
-4.1160 Thanksgiving	-0.3010
-4.1160 United	-0.3010
-4.1160 a	-0.3010
-4.1160 abandon	-0.3010
-4.1160 ability	-0.3010
-4.1160 able	-0.3010
-4.1160 abortion	-0.3010
-4.1160 about	-0.3010
-4.1160 above	-0.3010
-4.1160 abroad	-0.3010
-4.1160 absence	-0.3010
-4.1160 absolute	-0.3010
-4.1160 absolutely	-0.3010
-4.1160 absorb	-0.3010
-4.1160 abstract	-0.3010
-4.1160 abuse	-0.3010
-4.1160 academic	-0.3010
-4.1160 accelerate	-0.3010
-4.1160 accent	-0.3010
-4.1160 accept	-0.3010
-4.1160 acceptable	-0.3010
-4.1160 acceptance	-0.3010
-4.1160 access	-0.3010
-4.1160 accessible	-0.3010
-4.1160 accident	-0.3010
-4.1160 accommodate	-0.3010
-4.1160 accompany	-0.3010
-4.1160 accomplish	-0.3010
-4.1160 accomplishment	-0.3010
-4.1160 according	-0.3010
-4.1160 account	-0.3010
-4.1160 accountability	-0.3010
-4.1160 accounting	-0.3010
-4.1160 accuracy	-0.3010
-4.1160 accurate	-0.3010
-4.1160 accurately	-0.3010
-4.1160 accusation	-0.3010
-4.1160 accuse	-0.3010
-4.1160 achieve	-0.3010
-4.1160 achievement	-0.3010
-4.1160 acid	-0.3010
-4.1160 acknowledge	-0.3010
-4.1160 acquire	-0.3010
-4.1160 acquisition	-0.3010
-4.1160 across	-0.3010
-4.1160 act	-0.3010
-4.1160 action	-0.3010
-4.1160 active	-0.3010
-4.1160 actively	-0.3010
-4.1160 activist	-0.3010
-4.1160 activity	-0.3010
-4.1160 actor	-0.3010
-4.1160 actress	-0.3010
-4.1160 actual	-0.3010
-4.1160 actually	-0.3010
-4.1160 ad	-0.3010
-4.1160 adapt	-0.3010
-4.1160 add	-0.3010
-4.1160 added	-0.3010
-4.1160 addition	-0.3010
-4.1160 additional	-0.3010
-4.1160 address	-0.3010
-4.1160 adequate	-0.3010
-4.1160 adjust	-0.3010
-4.1160 adjustment	-0.3010
-4.1160 administer	-0.3010
-4.1160 administration	-0.3010
-4.1160 administrative	-0.3010
-4.1160 administrator	-0.3010
-4.1160 admire	-0.3010
-4.1160 admission	-0.3010
-4.1160 admit	-0.3010
-4.1160 adolescent	-0.3010
-4.1160 adopt	-0.3010
-4.1160 adoption	-0.3010
-4.1160 adult	-0.3010
-4.1160 advance	-0.3010
-4.1160 advanced	-0.3010
-4.1160 advantage	-0.3010
-4.1160 adventure	-0.3010
-4.1160 advertising	-0.3010
-4.1160 advice	-0.3010
-4.1160 advise	-0.3010
-4.1160 adviser	-0.3010
-4.1160 advocate	-0.3010
-4.1160 aesthetic	-0.3010
-4.1160 affair	-0.3010
-4.1160 affect	-0.3010
-4.1160 afford	-0.3010
-4.1160 afraid	-0.3010
-4.1160 after	-0.3010
-4.1160 afternoon	-0.3010
-4.1160 afterward	-0.3010
-4.1160 again	-0.3010
-4.1160 against	-0.3010
-4.1160 age	-0.3010
-4.1160 agency	-0.3010
-4.1160 agenda	-0.3010
-4.1160 agent	-0.3010
-4.1160 aggression	-0.3010
-4.1160 aggressive	-0.3010
-4.1160 ago	-0.3010
-4.1160 agree	-0.3010
-4.1160 agreement	-0.3010
-4.1160 agricultural	-0.3010
-4.1160 agriculture	-0.3010
-4.1160 ah	-0.3010
-4.1160 ahead	-0.3010
-4.1160 aid	-0.3010
-4.1160 aide	-0.3010
-4.1160 aim	-0.3010
-4.1160 air	-0.3010
-4.1160 aircraft	-0.3010
-4.1160 airline	-0.3010
-4.1160 airplane	-0.3010
-4.1160 airport	-0.3010
-4.1160 aisle	-0.3010
-4.1160 alarm	-0.3010
-4.1160 album	-0.3010
-4.1160 alcohol	-0.3010
-4.1160 alien	-0.3010
-4.1160 alike	-0.3010
-4.1160 alive	-0.3010
-4.1160 all	-0.3010
-4.1160 allegation	-0.3010
-4.1160 alleged	-0.3010
-4.1160 allegedly	-0.3010
-4.1160 alley	-0.3010
-4.1160 alliance	-0.3010
-4.1160 allow	-0.3010
-4.1160 ally	-0.3010
-4.1160 almost	-0.3010
-4.1160 alone	-0.3010
-4.1160 along	-0.3010
-4.1160 alongside	-0.3010
-4.1160 already	-0.3010
-4.1160 also	-0.3010
-4.1160 alter	-0.3010
-4.1160 alternative	-0.3010
-4.1160 although	-0.3010
-4.1160 altogether	-0.3010
-4.1160 aluminum	-0.3010
-4.1160 always	-0.3010
-4.1160 amazing	-0.3010
-4.1160 ambassador	-0.3010
-4.1160 ambition	-0.3010
-4.1160 ambitious	-0.3010
-4.1160 amendment	-0.3010
-4.1160 amid	-0.3010
-4.1160 among	-0.3010
-4.1160 amount	-0.3010
-4.1160 analysis	-0.3010
-4.1160 analyst	-0.3010
-4.1160 analyze	-0.3010
-4.1160 ancestor	-0.3010
-4.1160 ancient	-0.3010
-4.1160 and	-0.3010
-4.1160 and/or	-0.3010
-4.1160 angel	-0.3010
-4.1160 anger	-0.3010
-4.1160 angle	-0.3010
-4.1160 angry	-0.3010
-4.1160 animal	-0.3010
-4.1160 ankle	-0.3010
-4.1160 anniversary	-0.3010
-4.1160 announce	-0.3010
-4.1160 announcement	-0.3010
-4.1160 annual	-0.3010
-4.1160 annually	-0.3010
-4.1160 anonymous	-0.3010
-4.1160 another	-0.3010
-4.1160 answer	-0.3010
-4.1160 anticipate	-0.3010
-4.1160 anxiety	-0.3010
-4.1160 anxious	-0.3010
-4.1160 any	-0.3010
-4.1160 anybody	-0.3010
-4.1160 anymore	-0.3010
-4.1160 anyone	-0.3010
-4.1160 anything	-0.3010
-4.1160 anyway	-0.3010
-4.1160 anywhere	-0.3010
-4.1160 apart	-0.3010
-4.1160 apartment	-0.3010
-4.1160 apologize	-0.3010
-4.1160 apology	-0.3010
-4.1160 apparent	-0.3010
-4.1160 apparently	-0.3010
-4.1160 appeal	-0.3010
-4.1160 appear	-0.3010
-4.1160 appearance	-0.3010
-4.1160 apple	-0.3010
-4.1160 application	-0.3010
-4.1160 apply	-0.3010
-4.1160 appoint	-0.3010
-4.1160 appointment	-0.3010
-4.1160 appreciate	-0.3010
-4.1160 appreciation	-0.3010
-4.1160 approach	-0.3010
-4.1160 appropriate	-0.3010
-4.1160 approval	-0.3010
-4.1160 approve	-0.3010
-4.1160 approximately	-0.3010
-4.1160 architect	-0.3010
-4.1160 architecture	-0.3010
-4.1160 area	-0.3010
-4.1160 arena	-0.3010
-4.1160 argue	-0.3010
-4.1160 argument	-0.3010
-4.1160 arise	-0.3010
-4.1160 arm	-0.3010
-4.1160 armed	-0.3010
-4.1160 army	-0.3010
-4.1160 around	-0.3010
-4.1160 arrange	-0.3010
-4.1160 arrangement	-0.3010
-4.1160 array	-0.3010
-4.1160 arrest	-0.3010
-4.1160 arrival	-0.3010
-4.1160 arrive	-0.3010
-4.1160 arrow	-0.3010
-4.1160 art	-0.3010
-4.1160 article	-0.3010
-4.1160 articulate	-0.3010
-4.1160 artifact	-0.3010
-4.1160 artificial	-0.3010
-4.1160 artist	-0.3010
-4.1160 artistic	-0.3010
-4.1160 as	-0.3010
-4.1160 ash	-0.3010
-4.1160 aside	-0.3010
-4.1160 ask	-0.3010
-4.1160 asleep	-0.3010
-4.1160 aspect	-0.3010
-4.1160 ass	-0.3010
-4.1160 assault	-0.3010
-4.1160 assemble	-0.3010
-4.1160 assembly	-0.3010
-4.1160 assert	-0.3010
-4.1160 assess	-0.3010
-4.1160 assessment	-0.3010
-4.1160 asset	-0.3010
-4.1160 assign	-0.3010
-4.1160 assignment	-0.3010
-4.1160 assist	-0.3010
-4.1160 assistance	-0.3010
-4.1160 assistant	-0.3010
-4.1160 associate	-0.3010
-4.1160 associated	-0.3010
-4.1160 association	-0.3010
-4.1160 assume	-0.3010
-4.1160 assumption	-0.3010
-4.1160 assure	-0.3010
-4.1160 astronomer	-0.3010
-4.1160 at	-0.3010
-4.1160 athlete	-0.3010
-4.1160 athletic	-0.3010
-4.1160 atmosphere	-0.3010
-4.1160 atop	-0.3010
-4.1160 attach	-0.3010
-4.1160 attack	-0.3010
-4.1160 attempt	-0.3010
-4.1160 attend	-0.3010
-4.1160 attendance	-0.3010
-4.1160 attention	-0.3010
-4.1160 attitude	-0.3010
-4.1160 attorney	-0.3010
-4.1160 attract	-0.3010
-4.1160 attraction	-0.3010
-4.1160 attractive	-0.3010
-4.1160 attribute	-0.3010
-4.1160 auction	-0.3010
-4.1160 audience	-0.3010
-4.1160 aunt	-0.3010
-4.1160 author	-0.3010
-4.1160 authority	-0.3010
-4.1160 authorize	-0.3010
-4.1160 auto	-0.3010
-4.1160 automatic	-0.3010
-4.1160 automatically	-0.3010
-4.1160 automobile	-0.3010
-4.1160 autonomy	-0.3010
-4.1160 availability	-0.3010
-4.1160 available	-0.3010
-4.1160 average	-0.3010
-4.1160 avoid	-0.3010
-4.1160 await	-0.3010
-4.1160 awake	-0.3010
-4.1160 award	-0.3010
-4.1160 aware	-0.3010
-4.1160 awareness	-0.3010
-4.1160 away	-0.3010
-4.1160 awful	-0.3010
-4.1160 baby	-0.3010
-4.1160 back	-0.3010
-4.1160 background	-0.3010
-4.1160 backyard	-0.3010
-4.1160 bacteria	-0.3010
-4.1160 bad	-0.3010
-4.1160 badly	-0.3010
-4.1160 bag	-0.3010
-4.1160 bake	-0.3010
-4.1160 balance	-0.3010
-4.1160 balanced	-0.3010
-4.1160 ball	-0.3010
-4.1160 balloon	-0.3010
-4.1160 ballot	-0.3010
-4.1160 ban	-0.3010
-4.1160 banana	-0.3010
-4.1160 band	-0.3010
-4.1160 bank	-0.3010
-4.1160 banker	-0.3010
-4.1160 banking	-0.3010
-4.1160 bankruptcy	-0.3010
-4.1160 bar	-0.3010
-4.1160 bare	-0.3010
-4.1160 barely	-0.3010
-4.1160 barn	-0.3010
-4.1160 barrel	-0.3010
-4.1160 barrier	-0.3010
-4.1160 base	-0.3010
-4.1160 baseball	-0.3010
-4.1160 basement	-0.3010
-4.1160 basic	-0.3010
-4.1160 basically	-0.3010
-4.1160 basis	-0.3010
-4.1160 basket	-0.3010
-4.1160 basketball	-0.3010
-4.1160 bat	-0.3010
-4.1160 bath	-0.3010
-4.1160 bathroom	-0.3010
-4.1160 battery	-0.3010
-4.1160 battle	-0.3010
-4.1160 bay	-0.3010
-4.1160 be	-0.3010
-4.1160 beach	-0.3010
-4.1160 beam	-0.3010
-4.1160 bean	-0.3010
-4.1160 bear	-0.3010
-4.1160 beard	-0.3010
-4.1160 beast	-0.3010
-4.1160 beat	-0.3010
-4.1160 beautiful	-0.3010
-4.1160 beauty	-0.3010
-4.1160 because	-0.3010
-4.1160 become	-0.3010
-4.1160 bed	-0.3010
-4.1160 bedroom	-0.3010
-4.1160 bee	-0.3010
-4.1160 beef	-0.3010
-4.1160 beer	-0.3010
-4.1160 before	-0.3010
-4.1160 beg	-0.3010
-4.1160 begin	-0.3010
-4.1160 beginning	-0.3010
-4.1160 behalf	-0.3010
-4.1160 behave	-0.3010
-4.1160 behavior	-0.3010
-4.1160 behavioral	-0.3010
-4.1160 behind	-0.3010
-4.1160 being	-0.3010
-4.1160 belief	-0.3010
-4.1160 believe	-0.3010
-4.1160 bell	-0.3010
-4.1160 belly	-0.3010
-4.1160 belong	-0.3010
-4.1160 below	-0.3010
-4.1160 belt	-0.3010
-4.1160 bench	-0.3010
-4.1160 bend	-0.3010
-4.1160 beneath	-0.3010
-4.1160 benefit	-0.3010
-4.1160 beside	-0.3010
-4.1160 besides	-0.3010
-4.1160 best	-0.3010
-4.1160 bet	-0.3010
-4.1160 better	-0.3010
-4.1160 between	-0.3010
-4.1160 beyond	-0.3010
-4.1160 bias	-0.3010
-4.1160 bicycle	-0.3010
-4.1160 bid	-0.3010
-4.1160 big	-0.3010
-4.1160 bike	-0.3010
-4.1160 bill	-0.3010
-4.1160 billion	-0.3010
-4.1160 bind	-0.3010
-4.1160 biography	-0.3010
-4.1160 biological	-0.3010
-4.1160 biology	-0.3010
-4.1160 bird	-0.3010
-4.1160 birth	-0.3010
-4.1160 birthday	-0.3010
-4.1160 bishop	-0.3010
-4.1160 bit	-0.3010
-4.1160 bite	-0.3010
-4.1160 bitter	-0.3010
-4.1160 black	-0.3010
-4.1160 blade	-0.3010
-4.1160 blame	-0.3010
-4.1160 blank	-0.3010
-4.1160 blanket	-0.3010
-4.1160 blast	-0.3010
-4.1160 blend	-0.3010
-4.1160 bless	-0.3010
-4.1160 blessing	-0.3010
-4.1160 blind	-0.3010
-4.1160 blink	-0.3010
-4.1160 block	-0.3010
-4.1160 blond	-0.3010
-4.1160 blood	-0.3010
-4.1160 bloody	-0.3010
-4.1160 blow	-0.3010
-4.1160 blue	-0.3010
-4.1160 board	-0.3010
-4.1160 boast	-0.3010
-4.1160 boat	-0.3010
-4.1160 body	-0.3010
-4.1160 boil	-0.3010
-4.1160 bold	-0.3010
-4.1160 bolt	-0.3010
-4.1160 bomb	-0.3010
-4.1160 bombing	-0.3010
-4.1160 bond	-0.3010
-4.1160 bone	-0.3010
-4.1160 bonus	-0.3010
-4.1160 book	-0.3010
-4.1160 boom	-0.3010
-4.1160 boost	-0.3010
-4.1160 boot	-0.3010
-4.1160 booth	-0.3010
-4.1160 border	-0.3010
-4.1160 boring	-0.3010
-4.1160 born	-0.3010
-4.1160 borrow	-0.3010
-4.1160 boss	-0.3010
-4.1160 both	-0.3010
-4.1160 bother	-0.3010
-4.1160 bottle	-0.3010
-4.1160 bottom	-0.3010
-4.1160 bounce	-0.3010
-4.1160 boundary	-0.3010
-4.1160 bow	-0.3010
-4.1160 bowl	-0.3010
-4.1160 box	-0.3010
-4.1160 boy	-0.3010
-4.1160 boyfriend	-0.3010
-4.1160 brain	-0.3010
-4.1160 brake	-0.3010
-4.1160 branch	-0.3010
-4.1160 brand	-0.3010
-4.1160 brave	-0.3010
-4.1160 bread	-0.3010
-4.1160 break	-0.3010
-4.1160 breakfast	-0.3010
-4.1160 breast	-0.3010
-4.1160 breath	-0.3010
-4.1160 breathe	-0.3010
-4.1160 breathing	-0.3010
-4.1160 breeze	-0.3010
-4.1160 brick	-0.3010
-4.1160 bride	-0.3010
-4.1160 bridge	-0.3010
-4.1160 brief	-0.3010
-4.1160 briefly	-0.3010
-4.1160 bright	-0.3010
-4.1160 brilliant	-0.3010
-4.1160 bring	-0.3010
-4.1160 broad	-0.3010
-4.1160 broadcast	-0.3010
-4.1160 broken	-0.3010
-4.1160 broker	-0.3010
-4.1160 bronze	-0.3010
-4.1160 brother	-0.3010
-4.1160 brown	-0.3010
-4.1160 brush	-0.3010
-4.1160 brutal	-0.3010
-4.1160 bubble	-0.3010
-4.1160 buck	-0.3010
-4.1160 bucket	-0.3010
-4.1160 buddy	-0.3010
-4.1160 budget	-0.3010
-4.1160 bug	-0.3010
-4.1160 build	-0.3010
-4.1160 builder	-0.3010
-4.1160 building	-0.3010
-4.1160 bulb	-0.3010
-4.1160 bulk	-0.3010
-4.1160 bull	-0.3010
-4.1160 bullet	-0.3010
-4.1160 bunch	-0.3010
-4.1160 burden	-0.3010
-4.1160 bureau	-0.3010
-4.1160 burn	-0.3010
-4.1160 burning	-0.3010
-4.1160 burst	-0.3010
-4.1160 bury	-0.3010
-4.1160 bus	-0.3010
-4.1160 bush	-0.3010
-4.1160 business	-0.3010
-4.1160 businessman	-0.3010
-4.1160 busy	-0.3010
-4.1160 but	-0.3010
-4.1160 butt	-0.3010
-4.1160 butter	-0.3010
-4.1160 butterfly	-0.3010
-4.1160 button	-0.3010
-4.1160 buy	-0.3010
-4.1160 buyer	-0.3010
-4.1160 by	-0.3010
-4.1160 cab	-0.3010
-4.1160 cabin	-0.3010
-4.1160 cabinet	-0.3010
-4.1160 cable	-0.3010
-4.1160 cage	-0.3010
-4.1160 cake	-0.3010
-4.1160 calculate	-0.3010
-4.1160 calculation	-0.3010
-4.1160 calendar	-0.3010
-4.1160 call	-0.3010
-4.1160 calm	-0.3010
-4.1160 camera	-0.3010
-4.1160 camp	-0.3010
-4.1160 campaign	-0.3010
-4.1160 campus	-0.3010
-4.1160 can	-0.3010
-4.1160 cancel	-0.3010
-4.1160 cancer	-0.3010
-4.1160 candidate	-0.3010
-4.1160 candle	-0.3010
-4.1160 candy	-0.3010
-4.1160 canvas	-0.3010
-4.1160 cap	-0.3010
-4.1160 capability	-0.3010
-4.1160 capable	-0.3010
-4.1160 capacity	-0.3010
-4.1160 capital	-0.3010
-4.1160 captain	-0.3010
-4.1160 capture	-0.3010
-4.1160 car	-0.3010
-4.1160 carbohydrate	-0.3010
-4.1160 carbon	-0.3010
-4.1160 card	-0.3010
-4.1160 care	-0.3010
-4.1160 career	-0.3010
-4.1160 careful	-0.3010
-4.1160 carefully	-0.3010
-4.1160 cargo	-0.3010
-4.1160 carpet	-0.3010
-4.1160 carrier	-0.3010
-4.1160 carrot	-0.3010
-4.1160 carry	-0.3010
-4.1160 cart	-0.3010
-4.1160 cartoon	-0.3010
-4.1160 carve	-0.3010
-4.1160 case	-0.3010
-4.1160 cash	-0.3010
-4.1160 casino	-0.3010
-4.1160 cast	-0.3010
-4.1160 casual	-0.3010
-4.1160 casualty	-0.3010
-4.1160 cat	-0.3010
-4.1160 catalog	-0.3010
-4.1160 catch	-0.3010
-4.1160 category	-0.3010
-4.1160 cattle	-0.3010
-4.1160 cause	-0.3010
-4.1160 cave	-0.3010
-4.1160 cease	-0.3010
-4.1160 ceiling	-0.3010
-4.1160 celebrate	-0.3010
-4.1160 celebration	-0.3010
-4.1160 celebrity	-0.3010
-4.1160 cell	-0.3010
-4.1160 cemetery	-0.3010
-4.1160 center	-0.3010
-4.1160 central	-0.3010
-4.1160 century	-0.3010
-4.1160 ceremony	-0.3010
-4.1160 certain	-0.3010
-4.1160 certainly	-0.3010
-4.1160 chain	-0.3010
-4.1160 chair	-0.3010
-4.1160 chairman	-0.3010
-4.1160 challenge	-0.3010
-4.1160 chamber	-0.3010
-4.1160 champion	-0.3010
-4.1160 championship	-0.3010
-4.1160 chance	-0.3010
-4.1160 change	-0.3010
-4.1160 changing	-0.3010
-4.1160 channel	-0.3010
-4.1160 chaos	-0.3010
-4.1160 chapter	-0.3010
-4.1160 character	-0.3010
-4.1160 characteristic	-0.3010
-4.1160 characterize	-0.3010
-4.1160 charge	-0.3010
-4.1160 charity	-0.3010
-4.1160 charm	-0.3010
-4.1160 chart	-0.3010
-4.1160 charter	-0.3010
-4.1160 chase	-0.3010
-4.1160 cheap	-0.3010
-4.1160 cheat	-0.3010
-4.1160 check	-0.3010
-4.1160 cheek	-0.3010
-4.1160 cheer	-0.3010
-4.1160 cheese	-0.3010
-4.1160 chef	-0.3010
-4.1160 chemical	-0.3010
-4.1160 chemistry	-0.3010
-4.1160 chest	-0.3010
-4.1160 chew	-0.3010
-4.1160 chicken	-0.3010
-4.1160 chief	-0.3010
-4.1160 child	-0.3010
-4.1160 childhood	-0.3010
-4.1160 chill	-0.3010
-4.1160 chin	-0.3010
-4.1160 chip	-0.3010
-4.1160 chocolate	-0.3010
-4.1160 choice	-0.3010
-4.1160 cholesterol	-0.3010
-4.1160 choose	-0.3010
-4.1160 chop	-0.3010
-4.1160 chronic	-0.3010
-4.1160 chunk	-0.3010
-4.1160 church	-0.3010
-4.1160 cigarette	-0.3010
-4.1160 circle	-0.3010
-4.1160 circuit	-0.3010
-4.1160 circumstance	-0.3010
-4.1160 cite	-0.3010
-4.1160 citizen	-0.3010
-4.1160 citizenship	-0.3010
-4.1160 city	-0.3010
-4.1160 civic	-0.3010
-4.1160 civil	-0.3010
-4.1160 civilian	-0.3010
-4.1160 civilization	-0.3010
-4.1160 claim	-0.3010
-4.1160 class	-0.3010
-4.1160 classic	-0.3010
-4.1160 classical	-0.3010
-4.1160 classify	-0.3010
-4.1160 classroom	-0.3010
-4.1160 clay	-0.3010
-4.1160 clean	-0.3010
-4.1160 clear	-0.3010
-4.1160 clearly	-0.3010
-4.1160 clerk	-0.3010
-4.1160 click	-0.3010
-4.1160 client	-0.3010
-4.1160 cliff	-0.3010
-4.1160 climate	-0.3010
-4.1160 climb	-0.3010
-4.1160 cling	-0.3010
-4.1160 clinic	-0.3010
-4.1160 clinical	-0.3010
-4.1160 clip	-0.3010
-4.1160 clock	-0.3010
-4.1160 close	-0.3010
-4.1160 closed	-0.3010
-4.1160 closely	-0.3010
-4.1160 closer	-0.3010
-4.1160 closest	-0.3010
-4.1160 closet	-0.3010
-4.1160 cloth	-0.3010
-4.1160 clothes	-0.3010
-4.1160 clothing	-0.3010
-4.1160 cloud	-0.3010
-4.1160 club	-0.3010
-4.1160 clue	-0.3010
-4.1160 cluster	-0.3010
-4.1160 coach	-0.3010
-4.1160 coal	-0.3010
-4.1160 coalition	-0.3010
-4.1160 coast	-0.3010
-4.1160 coastal	-0.3010
-4.1160 coat	-0.3010
-4.1160 cocaine	-0.3010
-4.1160 code	-0.3010
-4.1160 coffee	-0.3010
-4.1160 cognitive	-0.3010
-4.1160 coin	-0.3010
-4.1160 cold	-0.3010
-4.1160 collaboration	-0.3010
-4.1160 collapse	-0.3010
-4.1160 collar	-0.3010
-4.1160 colleague	-0.3010
-4.1160 collect	-0.3010
-4.1160 collection	-0.3010
-4.1160 collective	-0.3010
-4.1160 collector	-0.3010
-4.1160 college	-0.3010
-4.1160 colonial	-0.3010
-4.1160 colony	-0.3010
-4.1160 color	-0.3010
-4.1160 colorful	-0.3010
-4.1160 column	-0.3010
-4.1160 columnist	-0.3010
-4.1160 combat	-0.3010
-4.1160 combination	-0.3010
-4.1160 combine	-0.3010
-4.1160 combined	-0.3010
-4.1160 come	-0.3010
-4.1160 comedy	-0.3010
-4.1160 comfort	-0.3010
-4.1160 comfortable	-0.3010
-4.1160 coming	-0.3010
-4.1160 command	-0.3010
-4.1160 commander	-0.3010
-4.1160 comment	-0.3010
-4.1160 commercial	-0.3010
-4.1160 commission	-0.3010
-4.1160 commissioner	-0.3010
-4.1160 commit	-0.3010
-4.1160 commitment	-0.3010
-4.1160 committee	-0.3010
-4.1160 commodity	-0.3010
-4.1160 common	-0.3010
-4.1160 commonly	-0.3010
-4.1160 communicate	-0.3010
-4.1160 communication	-0.3010
-4.1160 community	-0.3010
-4.1160 companion	-0.3010
-4.1160 company	-0.3010
-4.1160 comparable	-0.3010
-4.1160 compare	-0.3010
-4.1160 comparison	-0.3010
-4.1160 compel	-0.3010
-4.1160 compelling	-0.3010
-4.1160 compensation	-0.3010
-4.1160 compete	-0.3010
-4.1160 competition	-0.3010
-4.1160 competitive	-0.3010
-4.1160 competitor	-0.3010
-4.1160 complain	-0.3010
-4.1160 complaint	-0.3010
-4.1160 complete	-0.3010
-4.1160 completely	-0.3010
-4.1160 complex	-0.3010
-4.1160 complexity	-0.3010
-4.1160 compliance	-0.3010
-4.1160 complicated	-0.3010
-4.1160 comply	-0.3010
-4.1160 component	-0.3010
-4.1160 compose	-0.3010
-4.1160 composition	-0.3010
-4.1160 compound	-0.3010
-4.1160 comprehensive	-0.3010
-4.1160 comprise	-0.3010
-4.1160 compromise	-0.3010
-4.1160 computer	-0.3010
-4.1160 concede	-0.3010
-4.1160 conceive	-0.3010
-4.1160 concentrate	-0.3010
-4.1160 concentration	-0.3010
-4.1160 concept	-0.3010
-4.1160 conception	-0.3010
-4.1160 concern	-0.3010
-4.1160 concerned	-0.3010
-4.1160 concerning	-0.3010
-4.1160 concert	-0.3010
-4.1160 conclude	-0.3010
-4.1160 conclusion	-0.3010
-4.1160 concrete	-0.3010
-4.1160 condemn	-0.3010
-4.1160 condition	-0.3010
-4.1160 conduct	-0.3010
-4.1160 conference	-0.3010
-4.1160 confess	-0.3010
-4.1160 confession	-0.3010
-4.1160 confidence	-0.3010
-4.1160 confident	-0.3010
-4.1160 confirm	-0.3010
-4.1160 conflict	-0.3010
-4.1160 confront	-0.3010
-4.1160 confrontation	-0.3010
-4.1160 confuse	-0.3010
-4.1160 confusion	-0.3010
-4.1160 congressional	-0.3010
-4.1160 connect	-0.3010
-4.1160 connection	-0.3010
-4.1160 conscience	-0.3010
-4.1160 conscious	-0.3010
-4.1160 consciousness	-0.3010
-4.1160 consecutive	-0.3010
-4.1160 consensus	-0.3010
-4.1160 consent	-0.3010
-4.1160 consequence	-0.3010
-4.1160 consequently	-0.3010
-4.1160 conservation	-0.3010
-4.1160 conservative	-0.3010
-4.1160 consider	-0.3010
-4.1160 considerable	-0.3010
-4.1160 considerably	-0.3010
-4.1160 consideration	-0.3010
-4.1160 consist	-0.3010
-4.1160 consistent	-0.3010
-4.1160 consistently	-0.3010
-4.1160 conspiracy	-0.3010
-4.1160 constant	-0.3010
-4.1160 constantly	-0.3010
-4.1160 constitute	-0.3010
-4.1160 constitution	-0.3010
-4.1160 constitutional	-0.3010
-4.1160 constraint	-0.3010
-4.1160 construct	-0.3010
-4.1160 construction	-0.3010
-4.1160 consult	-0.3010
-4.1160 consultant	-0.3010
-4.1160 consume	-0.3010
-4.1160 consumer	-0.3010
-4.1160 consumption	-0.3010
-4.1160 contact	-0.3010
-4.1160 contain	-0.3010
-4.1160 container	-0.3010
-4.1160 contemplate	-0.3010
-4.1160 contemporary	-0.3010
-4.1160 contend	-0.3010
-4.1160 content	-0.3010
-4.1160 contest	-0.3010
-4.1160 context	-0.3010
-4.1160 continent	-0.3010
-4.1160 continue	-0.3010
-4.1160 continued	-0.3010
-4.1160 continuing	-0.3010
-4.1160 continuous	-0.3010
-4.1160 contract	-0.3010
-4.1160 contractor	-0.3010
-4.1160 contrast	-0.3010
-4.1160 contribute	-0.3010
-4.1160 contribution	-0.3010
-4.1160 contributor	-0.3010
-4.1160 control	-0.3010
-4.1160 controversial	-0.3010
-4.1160 controversy	-0.3010
-4.1160 convenience	-0.3010
-4.1160 convention	-0.3010
-4.1160 conventional	-0.3010
-4.1160 conversation	-0.3010
-4.1160 conversion	-0.3010
-4.1160 convert	-0.3010
-4.1160 convey	-0.3010
-4.1160 convict	-0.3010
-4.1160 conviction	-0.3010
-4.1160 convince	-0.3010
-4.1160 convinced	-0.3010
-4.1160 cook	-0.3010
-4.1160 cookie	-0.3010
-4.1160 cooking	-0.3010
-4.1160 cool	-0.3010
-4.1160 cooperate	-0.3010
-4.1160 cooperation	-0.3010
-4.1160 cooperative	-0.3010
-4.1160 coordinate	-0.3010
-4.1160 coordinator	-0.3010
-4.1160 cop	-0.3010
-4.1160 cope	-0.3010
-4.1160 copy	-0.3010
-4.1160 cord	-0.3010
-4.1160 core	-0.3010
-4.1160 corn	-0.3010
-4.1160 corner	-0.3010
-4.1160 corporate	-0.3010
-4.1160 corporation	-0.3010
-4.1160 correct	-0.3010
-4.1160 correctly	-0.3010
-4.1160 correlation	-0.3010
-4.1160 correspondent	-0.3010
-4.1160 corridor	-0.3010
-4.1160 corruption	-0.3010
-4.1160 cost	-0.3010
-4.1160 costly	-0.3010
-4.1160 costume	-0.3010
-4.1160 cottage	-0.3010
-4.1160 cotton	-0.3010
-4.1160 couch	-0.3010
-4.1160 could	-0.3010
-4.1160 council	-0.3010
-4.1160 counsel	-0.3010
-4.1160 counseling	-0.3010
-4.1160 counselor	-0.3010
-4.1160 count	-0.3010
-4.1160 counter	-0.3010
-4.1160 counterpart	-0.3010
-4.1160 country	-0.3010
-4.1160 county	-0.3010
-4.1160 coup	-0.3010
-4.1160 couple	-0.3010
-4.1160 courage	-0.3010
-4.1160 course	-0.3010
-4.1160 court	-0.3010
-4.1160 courtroom	-0.3010
-4.1160 cousin	-0.3010
-4.1160 cover	-0.3010
-4.1160 coverage	-0.3010
-4.1160 cow	-0.3010
-4.1160 crack	-0.3010
-4.1160 craft	-0.3010
-4.1160 crash	-0.3010
-4.1160 crawl	-0.3010
-4.1160 crazy	-0.3010
-4.1160 cream	-0.3010
-4.1160 create	-0.3010
-4.1160 creation	-0.3010
-4.1160 creative	-0.3010
-4.1160 creativity	-0.3010
-4.1160 creature	-0.3010
-4.1160 credibility	-0.3010
-4.1160 credit	-0.3010
-4.1160 crew	-0.3010
-4.1160 crime	-0.3010
-4.1160 criminal	-0.3010
-4.1160 crisis	-0.3010
-4.1160 criteria	-0.3010
-4.1160 critic	-0.3010
-4.1160 critical	-0.3010
-4.1160 criticism	-0.3010
-4.1160 criticize	-0.3010
-4.1160 crop	-0.3010
-4.1160 cross	-0.3010
-4.1160 crowd	-0.3010
-4.1160 crowded	-0.3010
-4.1160 crucial	-0.3010
-4.1160 cruel	-0.3010
-4.1160 cruise	-0.3010
-4.1160 crush	-0.3010
-4.1160 cry	-0.3010
-4.1160 crystal	-0.3010
-4.1160 cue	-0.3010
-4.1160 cultural	-0.3010
-4.1160 culture	-0.3010
-4.1160 cup	-0.3010
-4.1160 cure	-0.3010
-4.1160 curiosity	-0.3010
-4.1160 curious	-0.3010
-4.1160 currency	-0.3010
-4.1160 current	-0.3010
-4.1160 currently	-0.3010
-4.1160 curriculum	-0.3010
-4.1160 curtain	-0.3010
-4.1160 curve	-0.3010
-4.1160 custody	-0.3010
-4.1160 custom	-0.3010
-4.1160 customer	-0.3010
-4.1160 cut	-0.3010
-4.1160 cute	-0.3010
-4.1160 cycle	-0.3010
-4.1160 dad	-0.3010
-4.1160 daily	-0.3010
-4.1160 dam	-0.3010
-4.1160 damage	-0.3010
-4.1160 damn	-0.3010
-4.1160 dance	-0.3010
-4.1160 dancer	-0.3010
-4.1160 dancing	-0.3010
-4.1160 danger	-0.3010
-4.1160 dangerous	-0.3010
-4.1160 dare	-0.3010
-4.1160 dark	-0.3010
-4.1160 darkness	-0.3010
-4.1160 data	-0.3010
-4.1160 database	-0.3010
-4.1160 date	-0.3010
-4.1160 daughter	-0.3010
-4.1160 dawn	-0.3010
-4.1160 day	-0.3010
-4.1160 dead	-0.3010
-4.1160 deadline	-0.3010
-4.1160 deadly	-0.3010
-4.1160 deal	-0.3010
-4.1160 dealer	-0.3010
-4.1160 dear	-0.3010
-4.1160 death	-0.3010
-4.1160 debate	-0.3010
-4.1160 debris	-0.3010
-4.1160 debt	-0.3010
-4.1160 debut	-0.3010
-4.1160 decade	-0.3010
-4.1160 decent	-0.3010
-4.1160 decide	-0.3010
-4.1160 decision	-0.3010
-4.1160 deck	-0.3010
-4.1160 declare	-0.3010
-4.1160 decline	-0.3010
-4.1160 decorate	-0.3010
-4.1160 decrease	-0.3010
-4.1160 dedicate	-0.3010
-4.1160 deem	-0.3010
-4.1160 deep	-0.3010
-4.1160 deeply	-0.3010
-4.1160 deer	-0.3010
-4.1160 defeat	-0.3010
-4.1160 defend	-0.3010
-4.1160 defendant	-0.3010
-4.1160 defender	-0.3010
-4.1160 defense	-0.3010
-4.1160 defensive	-0.3010
-4.1160 deficit	-0.3010
-4.1160 define	-0.3010
-4.1160 definitely	-0.3010
-4.1160 definition	-0.3010
-4.1160 degree	-0.3010
-4.1160 delay	-0.3010
-4.1160 deliberately	-0.3010
-4.1160 delicate	-0.3010
-4.1160 delight	-0.3010
-4.1160 deliver	-0.3010
-4.1160 delivery	-0.3010
-4.1160 demand	-0.3010
-4.1160 democracy	-0.3010
-4.1160 democratic	-0.3010
-4.1160 demographic	-0.3010
-4.1160 demonstrate	-0.3010
-4.1160 demonstration	-0.3010
-4.1160 denial	-0.3010
-4.1160 dense	-0.3010
-4.1160 density	-0.3010
-4.1160 deny	-0.3010
-4.1160 depart	-0.3010
-4.1160 department	-0.3010
-4.1160 departure	-0.3010
-4.1160 depend	-0.3010
-4.1160 dependent	-0.3010
-4.1160 depending	-0.3010
-4.1160 depict	-0.3010
-4.1160 deploy	-0.3010
-4.1160 deposit	-0.3010
-4.1160 depressed	-0.3010
-4.1160 depression	-0.3010
-4.1160 depth	-0.3010
-4.1160 deputy	-0.3010
-4.1160 derive	-0.3010
-4.1160 descend	-0.3010
-4.1160 describe	-0.3010
-4.1160 description	-0.3010
-4.1160 desert	-0.3010
-4.1160 deserve	-0.3010
-4.1160 design	-0.3010
-4.1160 designer	-0.3010
-4.1160 desire	-0.3010
-4.1160 desk	-0.3010
-4.1160 desperate	-0.3010
-4.1160 desperately	-0.3010
-4.1160 despite	-0.3010
-4.1160 dessert	-0.3010
-4.1160 destination	-0.3010
-4.1160 destroy	-0.3010
-4.1160 destruction	-0.3010
-4.1160 detail	-0.3010
-4.1160 detailed	-0.3010
-4.1160 detect	-0.3010
-4.1160 detective	-0.3010
-4.1160 determination	-0.3010
-4.1160 determine	-0.3010
-4.1160 devastating	-0.3010
-4.1160 develop	-0.3010
-4.1160 developer	-0.3010
-4.1160 developing	-0.3010
-4.1160 development	-0.3010
-4.1160 developmental	-0.3010
-4.1160 device	-0.3010
-4.1160 devil	-0.3010
-4.1160 devote	-0.3010
-4.1160 diabetes	-0.3010
-4.1160 diagnose	-0.3010
-4.1160 diagnosis	-0.3010
-4.1160 dialogue	-0.3010
-4.1160 diamond	-0.3010
-4.1160 diary	-0.3010
-4.1160 dictate	-0.3010
-4.1160 die	-0.3010
-4.1160 diet	-0.3010
-4.1160 differ	-0.3010
-4.1160 difference	-0.3010
-4.1160 different	-0.3010
-4.1160 differently	-0.3010
-4.1160 difficult	-0.3010
-4.1160 difficulty	-0.3010
-4.1160 dig	-0.3010
-4.1160 digital	-0.3010
-4.1160 dignity	-0.3010
-4.1160 dilemma	-0.3010
-4.1160 dimension	-0.3010
-4.1160 diminish	-0.3010
-4.1160 dining	-0.3010
-4.1160 dinner	-0.3010
-4.1160 dip	-0.3010
-4.1160 diplomat	-0.3010
-4.1160 diplomatic	-0.3010
-4.1160 direct	-0.3010
-4.1160 direction	-0.3010
-4.1160 directly	-0.3010
-4.1160 director	-0.3010
-4.1160 dirt	-0.3010
-4.1160 dirty	-0.3010
-4.1160 disability	-0.3010
-4.1160 disabled	-0.3010
-4.1160 disagree	-0.3010
-4.1160 disappear	-0.3010
-4.1160 disappointed	-0.3010
-4.1160 disappointment	-0.3010
-4.1160 disaster	-0.3010
-4.1160 disc	-0.3010
-4.1160 discipline	-0.3010
-4.1160 disclose	-0.3010
-4.1160 discount	-0.3010
-4.1160 discourage	-0.3010
-4.1160 discourse	-0.3010
-4.1160 discover	-0.3010
-4.1160 discovery	-0.3010
-4.1160 discrimination	-0.3010
-4.1160 discuss	-0.3010
-4.1160 discussion	-0.3010
-4.1160 disease	-0.3010
-4.1160 dish	-0.3010
-4.1160 disk	-0.3010
-4.1160 dismiss	-0.3010
-4.1160 disorder	-0.3010
-4.1160 display	-0.3010
-4.1160 dispute	-0.3010
-4.1160 dissolve	-0.3010
-4.1160 distance	-0.3010
-4.1160 distant	-0.3010
-4.1160 distinct	-0.3010
-4.1160 distinction	-0.3010
-4.1160 distinctive	-0.3010
-4.1160 distinguish	-0.3010
-4.1160 distract	-0.3010
-4.1160 distribute	-0.3010
-4.1160 distribution	-0.3010
-4.1160 district	-0.3010
-4.1160 disturb	-0.3010
-4.1160 disturbing	-0.3010
-4.1160 diverse	-0.3010
-4.1160 diversity	-0.3010
-4.1160 divide	-0.3010
-4.1160 divine	-0.3010
-4.1160 division	-0.3010
-4.1160 divorce	-0.3010
-4.1160 do	-0.3010
-4.1160 dock	-0.3010
-4.1160 doctor	-0.3010
-4.1160 doctrine	-0.3010
-4.1160 document	-0.3010
-4.1160 documentary	-0.3010
-4.1160 dog	-0.3010
-4.1160 doll	-0.3010
-4.1160 domain	-0.3010
-4.1160 domestic	-0.3010
-4.1160 dominant	-0.3010
-4.1160 dominate	-0.3010
-4.1160 donate	-0.3010
-4.1160 donation	-0.3010
-4.1160 donor	-0.3010
-4.1160 door	-0.3010
-4.1160 doorway	-0.3010
-4.1160 dose	-0.3010
-4.1160 dot	-0.3010
-4.1160 double	-0.3010
-4.1160 doubt	-0.3010
-4.1160 dough	-0.3010
-4.1160 down	-0.3010
-4.1160 downtown	-0.3010
-4.1160 dozen	-0.3010
-4.1160 draft	-0.3010
-4.1160 drag	-0.3010
-4.1160 drain	-0.3010
-4.1160 drama	-0.3010
-4.1160 dramatic	-0.3010
-4.1160 dramatically	-0.3010
-4.1160 draw	-0.3010
-4.1160 drawer	-0.3010
-4.1160 drawing	-0.3010
-4.1160 dream	-0.3010
-4.1160 dress	-0.3010
-4.1160 dried	-0.3010
-4.1160 drift	-0.3010
-4.1160 drill	-0.3010
-4.1160 drink	-0.3010
-4.1160 drinking	-0.3010
-4.1160 drive	-0.3010
-4.1160 driver	-0.3010
-4.1160 driveway	-0.3010
-4.1160 driving	-0.3010
-4.1160 drop	-0.3010
-4.1160 drown	-0.3010
-4.1160 drug	-0.3010
-4.1160 drum	-0.3010
-4.1160 drunk	-0.3010
-4.1160 dry	-0.3010
-4.1160 duck	-0.3010
-4.1160 due	-0.3010
-4.1160 dumb	-0.3010
-4.1160 dump	-0.3010
-4.1160 during	-0.3010
-4.1160 dust	-0.3010
-4.1160 duty	-0.3010
-4.1160 dying	-0.3010
-4.1160 dynamic	-0.3010
-4.1160 dynamics	-0.3010
-4.1160 e-mail	-0.3010
-4.1160 each	-0.3010
-4.1160 eager	-0.3010
-4.1160 ear	-0.3010
-4.1160 early	-0.3010
-4.1160 earn	-0.3010
-4.1160 earnings	-0.3010
-4.1160 earth	-0.3010
-4.1160 earthquake	-0.3010
-4.1160 ease	-0.3010
-4.1160 easily	-0.3010
-4.1160 east	-0.3010
-4.1160 eastern	-0.3010
-4.1160 easy	-0.3010
-4.1160 eat	-0.3010
-4.1160 eating	-0.3010
-4.1160 echo	-0.3010
-4.1160 ecological	-0.3010
-4.1160 economic	-0.3010
-4.1160 economically	-0.3010
-4.1160 economics	-0.3010
-4.1160 economist	-0.3010
-4.1160 economy	-0.3010
-4.1160 ecosystem	-0.3010
-4.1160 edge	-0.3010
-4.1160 edit	-0.3010
-4.1160 edition	-0.3010
-4.1160 editor	-0.3010
-4.1160 educate	-0.3010
-4.1160 education	-0.3010
-4.1160 educational	-0.3010
-4.1160 educator	-0.3010
-4.1160 effect	-0.3010
-4.1160 effective	-0.3010
-4.1160 effectively	-0.3010
-4.1160 effectiveness	-0.3010
-4.1160 efficiency	-0.3010
-4.1160 efficient	-0.3010
-4.1160 effort	-0.3010
-4.1160 egg	-0.3010
-4.1160 ego	-0.3010
-4.1160 eight	-0.3010
-4.1160 eighth	-0.3010
-4.1160 either	-0.3010
-4.1160 elaborate	-0.3010
-4.1160 elbow	-0.3010
-4.1160 elder	-0.3010
-4.1160 elderly	-0.3010
-4.1160 elect	-0.3010
-4.1160 election	-0.3010
-4.1160 electric	-0.3010
-4.1160 electrical	-0.3010
-4.1160 electricity	-0.3010
-4.1160 electronic	-0.3010
-4.1160 electronics	-0.3010
-4.1160 elegant	-0.3010
-4.1160 element	-0.3010
-4.1160 elementary	-0.3010
-4.1160 elephant	-0.3010
-4.1160 elevator	-0.3010
-4.1160 eleven	-0.3010
-4.1160 eligible	-0.3010
-4.1160 eliminate	-0.3010
-4.1160 elite	-0.3010
-4.1160 else	-0.3010
-4.1160 elsewhere	-0.3010
-4.1160 embarrassed	-0.3010
-4.1160 embrace	-0.3010
-4.1160 emerge	-0.3010
-4.1160 emergency	-0.3010
-4.1160 emerging	-0.3010
-4.1160 emission	-0.3010
-4.1160 emotion	-0.3010
-4.1160 emotional	-0.3010
-4.1160 emotionally	-0.3010
-4.1160 emphasis	-0.3010
-4.1160 emphasize	-0.3010
-4.1160 empire	-0.3010
-4.1160 employ	-0.3010
-4.1160 employee	-0.3010
-4.1160 employer	-0.3010
-4.1160 employment	-0.3010
-4.1160 empty	-0.3010
-4.1160 enable	-0.3010
-4.1160 enact	-0.3010
-4.1160 encounter	-0.3010
-4.1160 encourage	-0.3010
-4.1160 encouraging	-0.3010
-4.1160 end	-0.3010
-4.1160 endless	-0.3010
-4.1160 endorse	-0.3010
-4.1160 endure	-0.3010
-4.1160 enemy	-0.3010
-4.1160 energy	-0.3010
-4.1160 enforce	-0.3010
-4.1160 enforcement	-0.3010
-4.1160 engage	-0.3010
-4.1160 engagement	-0.3010
-4.1160 engine	-0.3010
-4.1160 engineer	-0.3010
-4.1160 engineering	-0.3010
-4.1160 enhance	-0.3010
-4.1160 enjoy	-0.3010
-4.1160 enormous	-0.3010
-4.1160 enough	-0.3010
-4.1160 enroll	-0.3010
-4.1160 ensure	-0.3010
-4.1160 enter	-0.3010
-4.1160 enterprise	-0.3010
-4.1160 entertainment	-0.3010
-4.1160 enthusiasm	-0.3010
-4.1160 entire	-0.3010
-4.1160 entirely	-0.3010
-4.1160 entitle	-0.3010
-4.1160 entity	-0.3010
-4.1160 entrance	-0.3010
-4.1160 entrepreneur	-0.3010
-4.1160 entry	-0.3010
-4.1160 envelope	-0.3010
-4.1160 environment	-0.3010
-4.1160 environmental	-0.3010
-4.1160 envision	-0.3010
-4.1160 epidemic	-0.3010
-4.1160 episode	-0.3010
-4.1160 equal	-0.3010
-4.1160 equality	-0.3010
-4.1160 equally	-0.3010
-4.1160 equation	-0.3010
-4.1160 equip	-0.3010
-4.1160 equipment	-0.3010
-4.1160 equity	-0.3010
-4.1160 equivalent	-0.3010
-4.1160 era	-0.3010
-4.1160 error	-0.3010
-4.1160 escape	-0.3010
-4.1160 especially	-0.3010
-4.1160 essay	-0.3010
-4.1160 essence	-0.3010
-4.1160 essential	-0.3010
-4.1160 essentially	-0.3010
-4.1160 establish	-0.3010
-4.1160 establishment	-0.3010
-4.1160 estate	-0.3010
-4.1160 estimate	-0.3010
-4.1160 estimated	-0.3010
-4.1160 etc	-0.3010
-4.1160 ethical	-0.3010
-4.1160 ethics	-0.3010
-4.1160 ethnic	-0.3010
-4.1160 evaluate	-0.3010
-4.1160 evaluation	-0.3010
-4.1160 even	-0.3010
-4.1160 evening	-0.3010
-4.1160 event	-0.3010
-4.1160 eventually	-0.3010
-4.1160 ever	-0.3010
-4.1160 every	-0.3010
-4.1160 everybody	-0.3010
-4.1160 everyday	-0.3010
-4.1160 everyone	-0.3010
-4.1160 everything	-0.3010
-4.1160 everywhere	-0.3010
-4.1160 evidence	-0.3010
-4.1160 evident	-0.3010
-4.1160 evil	-0.3010
-4.1160 evolution	-0.3010
-4.1160 evolve	-0.3010
-4.1160 exact	-0.3010
-4.1160 exactly	-0.3010
-4.1160 exam	-0.3010
-4.1160 examination	-0.3010
-4.1160 examine	-0.3010
-4.1160 example	-0.3010
-4.1160 exceed	-0.3010
-4.1160 excellent	-0.3010
-4.1160 except	-0.3010
-4.1160 exception	-0.3010
-4.1160 excessive	-0.3010
-4.1160 exchange	-0.3010
-4.1160 excited	-0.3010
-4.1160 excitement	-0.3010
-4.1160 exciting	-0.3010
-4.1160 exclude	-0.3010
-4.1160 exclusive	-0.3010
-4.1160 exclusively	-0.3010
-4.1160 excuse	-0.3010
-4.1160 execute	-0.3010
-4.1160 execution	-0.3010
-4.1160 executive	-0.3010
-4.1160 exercise	-0.3010
-4.1160 exhaust	-0.3010
-4.1160 exhibit	-0.3010
-4.1160 exhibition	-0.3010
-4.1160 exist	-0.3010
-4.1160 existence	-0.3010
-4.1160 existing	-0.3010
-4.1160 exit	-0.3010
-4.1160 exotic	-0.3010
-4.1160 expand	-0.3010
-4.1160 expansion	-0.3010
-4.1160 expect	-0.3010
-4.1160 expectation	-0.3010
-4.1160 expected	-0.3010
-4.1160 expedition	-0.3010
-4.1160 expense	-0.3010
-4.1160 expensive	-0.3010
-4.1160 experience	-0.3010
-4.1160 experienced	-0.3010
-4.1160 experiment	-0.3010
-4.1160 experimental	-0.3010
-4.1160 expert	-0.3010
-4.1160 expertise	-0.3010
-4.1160 explain	-0.3010
-4.1160 explanation	-0.3010
-4.1160 explicit	-0.3010
-4.1160 explode	-0.3010
-4.1160 exploit	-0.3010
-4.1160 exploration	-0.3010
-4.1160 explore	-0.3010
-4.1160 explosion	-0.3010
-4.1160 export	-0.3010
-4.1160 expose	-0.3010
-4.1160 exposure	-0.3010
-4.1160 express	-0.3010
-4.1160 expression	-0.3010
-4.1160 extend	-0.3010
-4.1160 extended	-0.3010
-4.1160 extension	-0.3010
-4.1160 extensive	-0.3010
-4.1160 extent	-0.3010
-4.1160 external	-0.3010
-4.1160 extra	-0.3010
-4.1160 extraordinary	-0.3010
-4.1160 extreme	-0.3010
-4.1160 extremely	-0.3010
-4.1160 eye	-0.3010
-4.1160 eyebrow	-0.3010
-4.1160 fabric	-0.3010
-4.1160 face	-0.3010
-4.1160 facilitate	-0.3010
-4.1160 facility	-0.3010
-4.1160 fact	-0.3010
-4.1160 factor	-0.3010
-4.1160 factory	-0.3010
-4.1160 faculty	-0.3010
-4.1160 fade	-0.3010
-4.1160 fail	-0.3010
-4.1160 failure	-0.3010
-4.1160 faint	-0.3010
-4.1160 fair	-0.3010
-4.1160 fairly	-0.3010
-4.1160 faith	-0.3010
-4.1160 fall	-0.3010
-4.1160 false	-0.3010
-4.1160 fame	-0.3010
-4.1160 familiar	-0.3010
-4.1160 family	-0.3010
-4.1160 famous	-0.3010
-4.1160 fan	-0.3010
-4.1160 fantastic	-0.3010
-4.1160 fantasy	-0.3010
-4.1160 far	-0.3010
-4.1160 fare	-0.3010
-4.1160 farm	-0.3010
-4.1160 farmer	-0.3010
-4.1160 fascinating	-0.3010
-4.1160 fashion	-0.3010
-4.1160 fast	-0.3010
-4.1160 faster	-0.3010
-4.1160 fat	-0.3010
-4.1160 fatal	-0.3010
-4.1160 fate	-0.3010
-4.1160 father	-0.3010
-4.1160 fatigue	-0.3010
-4.1160 fault	-0.3010
-4.1160 favor	-0.3010
-4.1160 favorable	-0.3010
-4.1160 favorite	-0.3010
-4.1160 fear	-0.3010
-4.1160 feather	-0.3010
-4.1160 feature	-0.3010
-4.1160 federal	-0.3010
-4.1160 fee	-0.3010
-4.1160 feed	-0.3010
-4.1160 feedback	-0.3010
-4.1160 feel	-0.3010
-4.1160 feeling	-0.3010
-4.1160 fellow	-0.3010
-4.1160 female	-0.3010
-4.1160 feminist	-0.3010
-4.1160 fence	-0.3010
-4.1160 festival	-0.3010
-4.1160 fever	-0.3010
-4.1160 few	-0.3010
-4.1160 fewer	-0.3010
-4.1160 fiber	-0.3010
-4.1160 fiction	-0.3010
-4.1160 field	-0.3010
-4.1160 fierce	-0.3010
-4.1160 fifteen	-0.3010
-4.1160 fifth	-0.3010
-4.1160 fifty	-0.3010
-4.1160 fight	-0.3010
-4.1160 fighter	-0.3010
-4.1160 fighting	-0.3010
-4.1160 figure	-0.3010
-4.1160 file	-0.3010
-4.1160 fill	-0.3010
-4.1160 film	-0.3010
-4.1160 filter	-0.3010
-4.1160 final	-0.3010
-4.1160 finally	-0.3010
-4.1160 finance	-0.3010
-4.1160 financial	-0.3010
-4.1160 find	-0.3010
-4.1160 finding	-0.3010
-4.1160 fine	-0.3010
-4.1160 finger	-0.3010
-4.1160 finish	-0.3010
-4.1160 fire	-0.3010
-4.1160 firm	-0.3010
-4.1160 firmly	-0.3010
-4.1160 first	-0.3010
-4.1160 fiscal	-0.3010
-4.1160 fish	-0.3010
-4.1160 fisherman	-0.3010
-4.1160 fishing	-0.3010
-4.1160 fist	-0.3010
-4.1160 fit	-0.3010
-4.1160 fitness	-0.3010
-4.1160 five	-0.3010
-4.1160 fix	-0.3010
-4.1160 fixed	-0.3010
-4.1160 flag	-0.3010
-4.1160 flame	-0.3010
-4.1160 flash	-0.3010
-4.1160 flat	-0.3010
-4.1160 flavor	-0.3010
-4.1160 flee	-0.3010
-4.1160 fleet	-0.3010
-4.1160 flesh	-0.3010
-4.1160 flexibility	-0.3010
-4.1160 flexible	-0.3010
-4.1160 flight	-0.3010
-4.1160 flip	-0.3010
-4.1160 float	-0.3010
-4.1160 flood	-0.3010
-4.1160 floor	-0.3010
-4.1160 flour	-0.3010
-4.1160 flow	-0.3010
-4.1160 flower	-0.3010
-4.1160 fluid	-0.3010
-4.1160 fly	-0.3010
-4.1160 flying	-0.3010
-4.1160 focus	-0.3010
-4.1160 fog	-0.3010
-4.1160 fold	-0.3010
-4.1160 folk	-0.3010
-4.1160 follow	-0.3010
-4.1160 following	-0.3010
-4.1160 food	-0.3010
-4.1160 fool	-0.3010
-4.1160 foot	-0.3010
-4.1160 football	-0.3010
-4.1160 for	-0.3010
-4.1160 forbid	-0.3010
-4.1160 force	-0.3010
-4.1160 forehead	-0.3010
-4.1160 foreign	-0.3010
-4.1160 foreigner	-0.3010
-4.1160 forest	-0.3010
-4.1160 forever	-0.3010
-4.1160 forget	-0.3010
-4.1160 forgive	-0.3010
-4.1160 fork	-0.3010
-4.1160 form	-0.3010
-4.1160 formal	-0.3010
-4.1160 format	-0.3010
-4.1160 formation	-0.3010
-4.1160 former	-0.3010
-4.1160 formerly	-0.3010
-4.1160 formula	-0.3010
-4.1160 forth	-0.3010
-4.1160 fortunately	-0.3010
-4.1160 fortune	-0.3010
-4.1160 forty	-0.3010
-4.1160 forum	-0.3010
-4.1160 forward	-0.3010
-4.1160 foster	-0.3010
-4.1160 found	-0.3010
-4.1160 foundation	-0.3010
-4.1160 founder	-0.3010
-4.1160 four	-0.3010
-4.1160 fourth	-0.3010
-4.1160 fraction	-0.3010
-4.1160 fragile	-0.3010
-4.1160 fragment	-0.3010
-4.1160 frame	-0.3010
-4.1160 framework	-0.3010
-4.1160 franchise	-0.3010
-4.1160 frankly	-0.3010
-4.1160 fraud	-0.3010
-4.1160 free	-0.3010
-4.1160 freedom	-0.3010
-4.1160 freely	-0.3010
-4.1160 freeze	-0.3010
-4.1160 frequency	-0.3010
-4.1160 frequent	-0.3010
-4.1160 frequently	-0.3010
-4.1160 fresh	-0.3010
-4.1160 freshman	-0.3010
-4.1160 friend	-0.3010
-4.1160 friendly	-0.3010
-4.1160 friendship	-0.3010
-4.1160 from	-0.3010
-4.1160 front	-0.3010
-4.1160 frontier	-0.3010
-4.1160 frown	-0.3010
-4.1160 frozen	-0.3010
-4.1160 fruit	-0.3010
-4.1160 frustrate	-0.3010
-4.1160 frustration	-0.3010
-4.1160 fucking	-0.3010
-4.1160 fuel	-0.3010
-4.1160 full	-0.3010
-4.1160 full-time	-0.3010
-4.1160 fully	-0.3010
-4.1160 fun	-0.3010
-4.1160 function	-0.3010
-4.1160 functional	-0.3010
-4.1160 fund	-0.3010
-4.1160 fundamental	-0.3010
-4.1160 funding	-0.3010
-4.1160 funeral	-0.3010
-4.1160 funny	-0.3010
-4.1160 fur	-0.3010
-4.1160 furniture	-0.3010
-4.1160 furthermore	-0.3010
-4.1160 future	-0.3010
-4.1160 gain	-0.3010
-4.1160 galaxy	-0.3010
-4.1160 gallery	-0.3010
-4.1160 game	-0.3010
-4.1160 gang	-0.3010
-4.1160 gap	-0.3010
-4.1160 garage	-0.3010
-4.1160 garbage	-0.3010
-4.1160 garden	-0.3010
-4.1160 garlic	-0.3010
-4.1160 gas	-0.3010
-4.1160 gasoline	-0.3010
-4.1160 gate	-0.3010
-4.1160 gather	-0.3010
-4.1160 gathering	-0.3010
-4.1160 gay	-0.3010
-4.1160 gaze	-0.3010
-4.1160 gear	-0.3010
-4.1160 gender	-0.3010
-4.1160 gene	-0.3010
-4.1160 general	-0.3010
-4.1160 generally	-0.3010
-4.1160 generate	-0.3010
-4.1160 generation	-0.3010
-4.1160 generous	-0.3010
-4.1160 genetic	-0.3010
-4.1160 genius	-0.3010
-4.1160 genre	-0.3010
-4.1160 gentle	-0.3010
-4.1160 gentleman	-0.3010
-4.1160 gently	-0.3010
-4.1160 genuine	-0.3010
-4.1160 gesture	-0.3010
-4.1160 get	-0.3010
-4.1160 ghost	-0.3010
-4.1160 giant	-0.3010
-4.1160 gift	-0.3010
-4.1160 gifted	-0.3010
-4.1160 girl	-0.3010
-4.1160 girlfriend	-0.3010
-4.1160 give	-0.3010
-4.1160 given	-0.3010
-4.1160 glad	-0.3010
-4.1160 glance	-0.3010
-4.1160 glass	-0.3010
-4.1160 glimpse	-0.3010
-4.1160 global	-0.3010
-4.1160 globe	-0.3010
-4.1160 glory	-0.3010
-4.1160 glove	-0.3010
-4.1160 go	-0.3010
-4.1160 goal	-0.3010
-4.1160 goat	-0.3010
-4.1160 gold	-0.3010
-4.1160 golden	-0.3010
-4.1160 golf	-0.3010
-4.1160 good	-0.3010
-4.1160 govern	-0.3010
-4.1160 government	-0.3010
-4.1160 governor	-0.3010
-4.1160 grab	-0.3010
-4.1160 grace	-0.3010
-4.1160 grade	-0.3010
-4.1160 gradually	-0.3010
-4.1160 graduate	-0.3010
-4.1160 graduation	-0.3010
-4.1160 grain	-0.3010
-4.1160 grand	-0.3010
-4.1160 grandchild	-0.3010
-4.1160 grandfather	-0.3010
-4.1160 grandmother	-0.3010
-4.1160 grandparent	-0.3010
-4.1160 grant	-0.3010
-4.1160 grape	-0.3010
-4.1160 grasp	-0.3010
-4.1160 grass	-0.3010
-4.1160 grateful	-0.3010
-4.1160 grave	-0.3010
-4.1160 gravity	-0.3010
-4.1160 gray	-0.3010
-4.1160 great	-0.3010
-4.1160 greatest	-0.3010
-4.1160 greatly	-0.3010
-4.1160 green	-0.3010
-4.1160 greet	-0.3010
-4.1160 grief	-0.3010
-4.1160 grin	-0.3010
-4.1160 grip	-0.3010
-4.1160 grocery	-0.3010
-4.1160 gross	-0.3010
-4.1160 ground	-0.3010
-4.1160 group	-0.3010
-4.1160 grow	-0.3010
-4.1160 growing	-0.3010
-4.1160 growth	-0.3010
-4.1160 guarantee	-0.3010
-4.1160 guard	-0.3010
-4.1160 guess	-0.3010
-4.1160 guest	-0.3010
-4.1160 guidance	-0.3010
-4.1160 guide	-0.3010
-4.1160 guideline	-0.3010
-4.1160 guilt	-0.3010
-4.1160 guilty	-0.3010
-4.1160 guitar	-0.3010
-4.1160 gun	-0.3010
-4.1160 gut	-0.3010
-4.1160 guy	-0.3010
-4.1160 gym	-0.3010
-4.1160 ha	-0.3010
-4.1160 habit	-0.3010
-4.1160 habitat	-0.3010
-4.1160 hair	-0.3010
-4.1160 half	-0.3010
-4.1160 halfway	-0.3010
-4.1160 hall	-0.3010
-4.1160 hallway	-0.3010
-4.1160 hand	-0.3010
-4.1160 handful	-0.3010
-4.1160 handle	-0.3010
-4.1160 handsome	-0.3010
-4.1160 hang	-0.3010
-4.1160 happen	-0.3010
-4.1160 happily	-0.3010
-4.1160 happiness	-0.3010
-4.1160 happy	-0.3010
-4.1160 harassment	-0.3010
-4.1160 hard	-0.3010
-4.1160 hardly	-0.3010
-4.1160 hardware	-0.3010
-4.1160 harm	-0.3010
-4.1160 harmony	-0.3010
-4.1160 harsh	-0.3010
-4.1160 harvest	-0.3010
-4.1160 hat	-0.3010
-4.1160 hate	-0.3010
-4.1160 haul	-0.3010
-4.1160 have	-0.3010
-4.1160 hay	-0.3010
-4.1160 hazard	-0.3010
-4.1160 he	-0.3010
-4.1160 head	-0.3010
-4.1160 headache	-0.3010
-4.1160 headline	-0.3010
-4.1160 headquarters	-0.3010
-4.1160 heal	-0.3010
-4.1160 health	-0.3010
-4.1160 health-care	-0.3010
-4.1160 healthy	-0.3010
-4.1160 hear	-0.3010
-4.1160 hearing	-0.3010
-4.1160 heart	-0.3010
-4.1160 heat	-0.3010
-4.1160 heaven	-0.3010
-4.1160 heavily	-0.3010
-4.1160 heavy	-0.3010
-4.1160 heel	-0.3010
-4.1160 height	-0.3010
-4.1160 helicopter	-0.3010
-4.1160 hell	-0.3010
-4.1160 hello	-0.3010
-4.1160 helmet	-0.3010
-4.1160 help	-0.3010
-4.1160 helpful	-0.3010
-4.1160 hence	-0.3010
-4.1160 her	-0.3010
-4.1160 herb	-0.3010
-4.1160 here	-0.3010
-4.1160 heritage	-0.3010
-4.1160 hero	-0.3010
-4.1160 hers	-0.3010
-4.1160 herself	-0.3010
-4.1160 hesitate	-0.3010
-4.1160 hey	-0.3010
-4.1160 hi	-0.3010
-4.1160 hidden	-0.3010
-4.1160 hide	-0.3010
-4.1160 high	-0.3010
-4.1160 high-tech	-0.3010
-4.1160 highlight	-0.3010
-4.1160 highly	-0.3010
-4.1160 highway	-0.3010
-4.1160 hike	-0.3010
-4.1160 hill	-0.3010
-4.1160 him	-0.3010
-4.1160 himself	-0.3010
-4.1160 hint	-0.3010
-4.1160 hip	-0.3010
-4.1160 hire	-0.3010
-4.1160 his	-0.3010
-4.1160 historian	-0.3010
-4.1160 historic	-0.3010
-4.1160 historical	-0.3010
-4.1160 historically	-0.3010
-4.1160 history	-0.3010
-4.1160 hit	-0.3010
-4.1160 hockey	-0.3010
-4.1160 hold	-0.3010
-4.1160 hole	-0.3010
-4.1160 holiday	-0.3010
-4.1160 holy	-0.3010
-4.1160 home	-0.3010
-4.1160 homeland	-0.3010
-4.1160 homeless	-0.3010
-4.1160 homework	-0.3010
-4.1160 honest	-0.3010
-4.1160 honestly	-0.3010
-4.1160 honey	-0.3010
-4.1160 honor	-0.3010
-4.1160 hook	-0.3010
-4.1160 hope	-0.3010
-4.1160 hopefully	-0.3010
-4.1160 horizon	-0.3010
-4.1160 hormone	-0.3010
-4.1160 horn	-0.3010
-4.1160 horrible	-0.3010
-4.1160 horror	-0.3010
-4.1160 horse	-0.3010
-4.1160 hospital	-0.3010
-4.1160 host	-0.3010
-4.1160 hostage	-0.3010
-4.1160 hostile	-0.3010
-4.1160 hot	-0.3010
-4.1160 hotel	-0.3010
-4.1160 hour	-0.3010
-4.1160 house	-0.3010
-4.1160 household	-0.3010
-4.1160 housing	-0.3010
-4.1160 how	-0.3010
-4.1160 however	-0.3010
-4.1160 hug	-0.3010
-4.1160 huge	-0.3010
-4.1160 huh	-0.3010
-4.1160 human	-0.3010
-4.1160 humanity	-0.3010
-4.1160 humor	-0.3010
-4.1160 hundred	-0.3010
-4.1160 hunger	-0.3010
-4.1160 hungry	-0.3010
-4.1160 hunt	-0.3010
-4.1160 hunter	-0.3010
-4.1160 hunting	-0.3010
-4.1160 hurricane	-0.3010
-4.1160 hurry	-0.3010
-4.1160 hurt	-0.3010
-4.1160 husband	-0.3010
-4.1160 hypothesis	-0.3010
-4.1160 ice	-0.3010
-4.1160 icon	-0.3010
-4.1160 idea	-0.3010
-4.1160 ideal	-0.3010
-4.1160 identical	-0.3010
-4.1160 identification	-0.3010
-4.1160 identify	-0.3010
-4.1160 identity	-0.3010
-4.1160 ideological	-0.3010
-4.1160 ideology	-0.3010
-4.1160 ie	-0.3010
-4.1160 if	-0.3010
-4.1160 ignore	-0.3010
-4.1160 ill	-0.3010
-4.1160 illegal	-0.3010
-4.1160 illness	-0.3010
-4.1160 illusion	-0.3010
-4.1160 illustrate	-0.3010
-4.1160 image	-0.3010
-4.1160 imagination	-0.3010
-4.1160 imagine	-0.3010
-4.1160 immediate	-0.3010
-4.1160 immediately	-0.3010
-4.1160 immigrant	-0.3010
-4.1160 immigration	-0.3010
-4.1160 immune	-0.3010
-4.1160 impact	-0.3010
-4.1160 implement	-0.3010
-4.1160 implementation	-0.3010
-4.1160 implication	-0.3010
-4.1160 imply	-0.3010
-4.1160 import	-0.3010
-4.1160 importance	-0.3010
-4.1160 important	-0.3010
-4.1160 importantly	-0.3010
-4.1160 impose	-0.3010
-4.1160 impossible	-0.3010
-4.1160 impress	-0.3010
-4.1160 impression	-0.3010
-4.1160 impressive	-0.3010
-4.1160 improve	-0.3010
-4.1160 improved	-0.3010
-4.1160 improvement	-0.3010
-4.1160 impulse	-0.3010
-4.1160 in	-0.3010
-4.1160 incentive	-0.3010
-4.1160 incident	-0.3010
-4.1160 include	-0.3010
-4.1160 including	-0.3010
-4.1160 income	-0.3010
-4.1160 incorporate	-0.3010
-4.1160 increase	-0.3010
-4.1160 increased	-0.3010
-4.1160 increasing	-0.3010
-4.1160 increasingly	-0.3010
-4.1160 incredible	-0.3010
-4.1160 incredibly	-0.3010
-4.1160 indeed	-0.3010
-4.1160 independence	-0.3010
-4.1160 independent	-0.3010
-4.1160 index	-0.3010
-4.1160 indicate	-0.3010
-4.1160 indication	-0.3010
-4.1160 indicator	-0.3010
-4.1160 indigenous	-0.3010
-4.1160 individual	-0.3010
-4.1160 industrial	-0.3010
-4.1160 industry	-0.3010
-4.1160 inevitable	-0.3010
-4.1160 inevitably	-0.3010
-4.1160 infant	-0.3010
-4.1160 infection	-0.3010
-4.1160 inflation	-0.3010
-4.1160 influence	-0.3010
-4.1160 influential	-0.3010
-4.1160 inform	-0.3010
-4.1160 informal	-0.3010
-4.1160 information	-0.3010
-4.1160 infrastructure	-0.3010
-4.1160 ingredient	-0.3010
-4.1160 inherent	-0.3010
-4.1160 inherit	-0.3010
-4.1160 initial	-0.3010
-4.1160 initially	-0.3010
-4.1160 initiate	-0.3010
-4.1160 initiative	-0.3010
-4.1160 injure	-0.3010
-4.1160 injury	-0.3010
-4.1160 inmate	-0.3010
-4.1160 inner	-0.3010
-4.1160 innocent	-0.3010
-4.1160 innovation	-0.3010
-4.1160 innovative	-0.3010
-4.1160 input	-0.3010
-4.1160 inquiry	-0.3010
-4.1160 insect	-0.3010
-4.1160 insert	-0.3010
-4.1160 inside	-0.3010
-4.1160 insight	-0.3010
-4.1160 insist	-0.3010
-4.1160 inspection	-0.3010
-4.1160 inspector	-0.3010
-4.1160 inspiration	-0.3010
-4.1160 inspire	-0.3010
-4.1160 install	-0.3010
-4.1160 installation	-0.3010
-4.1160 instance	-0.3010
-4.1160 instant	-0.3010
-4.1160 instantly	-0.3010
-4.1160 instead	-0.3010
-4.1160 instinct	-0.3010
-4.1160 institution	-0.3010
-4.1160 institutional	-0.3010
-4.1160 instruct	-0.3010
-4.1160 instruction	-0.3010
-4.1160 instructional	-0.3010
-4.1160 instructor	-0.3010
-4.1160 instrument	-0.3010
-4.1160 insurance	-0.3010
-4.1160 intact	-0.3010
-4.1160 integrate	-0.3010
-4.1160 integrated	-0.3010
-4.1160 integration	-0.3010
-4.1160 integrity	-0.3010
-4.1160 intellectual	-0.3010
-4.1160 intelligence	-0.3010
-4.1160 intelligent	-0.3010
-4.1160 intend	-0.3010
-4.1160 intense	-0.3010
-4.1160 intensity	-0.3010
-4.1160 intent	-0.3010
-4.1160 intention	-0.3010
-4.1160 interact	-0.3010
-4.1160 interaction	-0.3010
-4.1160 interest	-0.3010
-4.1160 interested	-0.3010
-4.1160 interesting	-0.3010
-4.1160 interfere	-0.3010
-4.1160 interior	-0.3010
-4.1160 internal	-0.3010
-4.1160 international	-0.3010
-4.1160 interpret	-0.3010
-4.1160 interpretation	-0.3010
-4.1160 interrupt	-0.3010
-4.1160 interval	-0.3010
-4.1160 intervention	-0.3010
-4.1160 interview	-0.3010
-4.1160 intimate	-0.3010
-4.1160 into	-0.3010
-4.1160 introduce	-0.3010
-4.1160 introduction	-0.3010
-4.1160 invade	-0.3010
-4.1160 invasion	-0.3010
-4.1160 invent	-0.3010
-4.1160 invention	-0.3010
-4.1160 inventory	-0.3010
-4.1160 invest	-0.3010
-4.1160 investigate	-0.3010
-4.1160 investigation	-0.3010
-4.1160 investigator	-0.3010
-4.1160 investment	-0.3010
-4.1160 investor	-0.3010
-4.1160 invisible	-0.3010
-4.1160 invitation	-0.3010
-4.1160 invite	-0.3010
-4.1160 involve	-0.3010
-4.1160 involved	-0.3010
-4.1160 involvement	-0.3010
-4.1160 iron	-0.3010
-4.1160 ironically	-0.3010
-4.1160 irony	-0.3010
-4.1160 island	-0.3010
-4.1160 isolate	-0.3010
-4.1160 isolated	-0.3010
-4.1160 isolation	-0.3010
-4.1160 issue	-0.3010
-4.1160 it	-0.3010
-4.1160 item	-0.3010
-4.1160 its	-0.3010
-4.1160 itself	-0.3010
-4.1160 jacket	-0.3010
-4.1160 jail	-0.3010
-4.1160 jar	-0.3010
-4.1160 jaw	-0.3010
-4.1160 jazz	-0.3010
-4.1160 jeans	-0.3010
-4.1160 jet	-0.3010
-4.1160 jewelry	-0.3010
-4.1160 job	-0.3010
-4.1160 join	-0.3010
-4.1160 joint	-0.3010
-4.1160 joke	-0.3010
-4.1160 journal	-0.3010
-4.1160 journalism	-0.3010
-4.1160 journalist	-0.3010
-4.1160 journey	-0.3010
-4.1160 joy	-0.3010
-4.1160 judge	-0.3010
-4.1160 judgment	-0.3010
-4.1160 judicial	-0.3010
-4.1160 juice	-0.3010
-4.1160 jump	-0.3010
-4.1160 jungle	-0.3010
-4.1160 junior	-0.3010
-4.1160 jurisdiction	-0.3010
-4.1160 juror	-0.3010
-4.1160 jury	-0.3010
-4.1160 just	-0.3010
-4.1160 justice	-0.3010
-4.1160 justify	-0.3010
-4.1160 keep	-0.3010
-4.1160 key	-0.3010
-4.1160 kick	-0.3010
-4.1160 kid	-0.3010
-4.1160 kill	-0.3010
-4.1160 killer	-0.3010
-4.1160 killing	-0.3010
-4.1160 kind	-0.3010
-4.1160 king	-0.3010
-4.1160 kingdom	-0.3010
-4.1160 kiss	-0.3010
-4.1160 kit	-0.3010
-4.1160 kitchen	-0.3010
-4.1160 knee	-0.3010
-4.1160 kneel	-0.3010
-4.1160 knife	-0.3010
-4.1160 knock	-0.3010
-4.1160 know	-0.3010
-4.1160 knowledge	-0.3010
-4.1160 known	-0.3010
-4.1160 lab	-0.3010
-4.1160 label	-0.3010
-4.1160 labor	-0.3010
-4.1160 laboratory	-0.3010
-4.1160 lack	-0.3010
-4.1160 ladder	-0.3010
-4.1160 lady	-0.3010
-4.1160 lake	-0.3010
-4.1160 lamp	-0.3010
-4.1160 land	-0.3010
-4.1160 landing	-0.3010
-4.1160 landmark	-0.3010
-4.1160 landscape	-0.3010
-4.1160 lane	-0.3010
-4.1160 language	-0.3010
-4.1160 lap	-0.3010
-4.1160 large	-0.3010
-4.1160 largely	-0.3010
-4.1160 laser	-0.3010
-4.1160 last	-0.3010
-4.1160 late	-0.3010
-4.1160 lately	-0.3010
-4.1160 later	-0.3010
-4.1160 latter	-0.3010
-4.1160 laugh	-0.3010
-4.1160 laughter	-0.3010
-4.1160 launch	-0.3010
-4.1160 laundry	-0.3010
-4.1160 law	-0.3010
-4.1160 lawmaker	-0.3010
-4.1160 lawn	-0.3010
-4.1160 lawsuit	-0.3010
-4.1160 lawyer	-0.3010
-4.1160 lay	-0.3010
-4.1160 layer	-0.3010
-4.1160 lead	-0.3010
-4.1160 leader	-0.3010
-4.1160 leadership	-0.3010
-4.1160 leading	-0.3010
-4.1160 leaf	-0.3010
-4.1160 league	-0.3010
-4.1160 lean	-0.3010
-4.1160 leap	-0.3010
-4.1160 learn	-0.3010
-4.1160 learning	-0.3010
-4.1160 least	-0.3010
-4.1160 leather	-0.3010
-4.1160 leave	-0.3010
-4.1160 lecture	-0.3010
-4.1160 left	-0.3010
-4.1160 leg	-0.3010
-4.1160 legacy	-0.3010
-4.1160 legal	-0.3010
-4.1160 legally	-0.3010
-4.1160 legend	-0.3010
-4.1160 legislation	-0.3010
-4.1160 legislative	-0.3010
-4.1160 legislator	-0.3010
-4.1160 legislature	-0.3010
-4.1160 legitimate	-0.3010
-4.1160 lemon	-0.3010
-4.1160 lend	-0.3010
-4.1160 length	-0.3010
-4.1160 lens	-0.3010
-4.1160 less	-0.3010
-4.1160 lesson	-0.3010
-4.1160 let	-0.3010
-4.1160 letter	-0.3010
-4.1160 level	-0.3010
-4.1160 liability	-0.3010
-4.1160 liberal	-0.3010
-4.1160 liberty	-0.3010
-4.1160 library	-0.3010
-4.1160 license	-0.3010
-4.1160 lid	-0.3010
-4.1160 lie	-0.3010
-4.1160 life	-0.3010
-4.1160 lifestyle	-0.3010
-4.1160 lifetime	-0.3010
-4.1160 lift	-0.3010
-4.1160 light	-0.3010
-4.1160 lighting	-0.3010
-4.1160 lightly	-0.3010
-4.1160 lightning	-0.3010
-4.1160 like	-0.3010
-4.1160 likelihood	-0.3010
-4.1160 likely	-0.3010
-4.1160 likewise	-0.3010
-4.1160 limb	-0.3010
-4.1160 limit	-0.3010
-4.1160 limitation	-0.3010
-4.1160 limited	-0.3010
-4.1160 line	-0.3010
-4.1160 link	-0.3010
-4.1160 lion	-0.3010
-4.1160 lip	-0.3010
-4.1160 liquid	-0.3010
-4.1160 list	-0.3010
-4.1160 listen	-0.3010
-4.1160 listener	-0.3010
-4.1160 literally	-0.3010
-4.1160 literary	-0.3010
-4.1160 literature	-0.3010
-4.1160 little	-0.3010
-4.1160 live	-0.3010
-4.1160 liver	-0.3010
-4.1160 living	-0.3010
-4.1160 load	-0.3010
-4.1160 loan	-0.3010
-4.1160 lobby	-0.3010
-4.1160 local	-0.3010
-4.1160 locate	-0.3010
-4.1160 location	-0.3010
-4.1160 lock	-0.3010
-4.1160 log	-0.3010
-4.1160 logic	-0.3010
-4.1160 logical	-0.3010
-4.1160 lonely	-0.3010
-4.1160 long	-0.3010
-4.1160 long-term	-0.3010
-4.1160 longtime	-0.3010
-4.1160 look	-0.3010
-4.1160 loop	-0.3010
-4.1160 loose	-0.3010
-4.1160 lose	-0.3010
-4.1160 loss	-0.3010
-4.1160 lost	-0.3010
-4.1160 lot	-0.3010
-4.1160 lots	-0.3010
-4.1160 loud	-0.3010
-4.1160 love	-0.3010
-4.1160 lovely	-0.3010
-4.1160 lover	-0.3010
-4.1160 low	-0.3010
-4.1160 lower	-0.3010
-4.1160 loyal	-0.3010
-4.1160 loyalty	-0.3010
-4.1160 luck	-0.3010
-4.1160 lucky	-0.3010
-4.1160 lunch	-0.3010
-4.1160 lung	-0.3010
-4.1160 machine	-0.3010
-4.1160 mad	-0.3010
-4.1160 magazine	-0.3010
-4.1160 magic	-0.3010
-4.1160 magnetic	-0.3010
-4.1160 magnitude	-0.3010
-4.1160 mail	-0.3010
-4.1160 main	-0.3010
-4.1160 mainly	-0.3010
-4.1160 mainstream	-0.3010
-4.1160 maintain	-0.3010
-4.1160 maintenance	-0.3010
-4.1160 major	-0.3010
-4.1160 majority	-0.3010
-4.1160 make	-0.3010
-4.1160 maker	-0.3010
-4.1160 makeup	-0.3010
-4.1160 male	-0.3010
-4.1160 mall	-0.3010
-4.1160 man	-0.3010
-4.1160 manage	-0.3010
-4.1160 management	-0.3010
-4.1160 manager	-0.3010
-4.1160 managing	-0.3010
-4.1160 mandate	-0.3010
-4.1160 manipulate	-0.3010
-4.1160 manner	-0.3010
-4.1160 mansion	-0.3010
-4.1160 manual	-0.3010
-4.1160 manufacturer	-0.3010
-4.1160 manufacturing	-0.3010
-4.1160 many	-0.3010
-4.1160 map	-0.3010
-4.1160 marble	-0.3010
-4.1160 march	-0.3010
-4.1160 margin	-0.3010
-4.1160 marine	-0.3010
-4.1160 mark	-0.3010
-4.1160 marker	-0.3010
-4.1160 market	-0.3010
-4.1160 marketing	-0.3010
-4.1160 marketplace	-0.3010
-4.1160 marriage	-0.3010
-4.1160 married	-0.3010
-4.1160 marry	-0.3010
-4.1160 mask	-0.3010
-4.1160 mass	-0.3010
-4.1160 massive	-0.3010
-4.1160 master	-0.3010
-4.1160 match	-0.3010
-4.1160 mate	-0.3010
-4.1160 material	-0.3010
-4.1160 math	-0.3010
-4.1160 mathematics	-0.3010
-4.1160 matter	-0.3010
-4.1160 maximum	-0.3010
-4.1160 may	-0.3010
-4.1160 maybe	-0.3010
-4.1160 mayor	-0.3010
-4.1160 me	-0.3010
-4.1160 meal	-0.3010
-4.1160 mean	-0.3010
-4.1160 meaning	-0.3010
-4.1160 meaningful	-0.3010
-4.1160 meantime	-0.3010
-4.1160 meanwhile	-0.3010
-4.1160 measure	-0.3010
-4.1160 measurement	-0.3010
-4.1160 meat	-0.3010
-4.1160 mechanic	-0.3010
-4.1160 mechanical	-0.3010
-4.1160 mechanism	-0.3010
-4.1160 medal	-0.3010
-4.1160 media	-0.3010
-4.1160 medical	-0.3010
-4.1160 medication	-0.3010
-4.1160 medicine	-0.3010
-4.1160 medium	-0.3010
-4.1160 meet	-0.3010
-4.1160 meeting	-0.3010
-4.1160 melt	-0.3010
-4.1160 member	-0.3010
-4.1160 membership	-0.3010
-4.1160 memory	-0.3010
-4.1160 mental	-0.3010
-4.1160 mentally	-0.3010
-4.1160 mention	-0.3010
-4.1160 mentor	-0.3010
-4.1160 menu	-0.3010
-4.1160 merchant	-0.3010
-4.1160 mere	-0.3010
-4.1160 merely	-0.3010
-4.1160 merit	-0.3010
-4.1160 mess	-0.3010
-4.1160 message	-0.3010
-4.1160 metal	-0.3010
-4.1160 metaphor	-0.3010
-4.1160 meter	-0.3010
-4.1160 method	-0.3010
-4.1160 metropolitan	-0.3010
-4.1160 middle	-0.3010
-4.1160 middle-class	-0.3010
-4.1160 midnight	-0.3010
-4.1160 midst	-0.3010
-4.1160 might	-0.3010
-4.1160 migration	-0.3010
-4.1160 mild	-0.3010
-4.1160 military	-0.3010
-4.1160 milk	-0.3010
-4.1160 mill	-0.3010
-4.1160 million	-0.3010
-4.1160 mind	-0.3010
-4.1160 mine	-0.3010
-4.1160 mineral	-0.3010
-4.1160 minimal	-0.3010
-4.1160 minimize	-0.3010
-4.1160 minimum	-0.3010
-4.1160 minister	-0.3010
-4.1160 ministry	-0.3010
-4.1160 minor	-0.3010
-4.1160 minority	-0.3010
-4.1160 minute	-0.3010
-4.1160 miracle	-0.3010
-4.1160 mirror	-0.3010
-4.1160 miss	-0.3010
-4.1160 missile	-0.3010
-4.1160 missing	-0.3010
-4.1160 mission	-0.3010
-4.1160 missionary	-0.3010
-4.1160 mistake	-0.3010
-4.1160 mix	-0.3010
-4.1160 mixed	-0.3010
-4.1160 mixture	-0.3010
-4.1160 mm-hmm	-0.3010
-4.1160 mobile	-0.3010
-4.1160 mode	-0.3010
-4.1160 model	-0.3010
-4.1160 moderate	-0.3010
-4.1160 modern	-0.3010
-4.1160 modest	-0.3010
-4.1160 modify	-0.3010
-4.1160 molecule	-0.3010
-4.1160 mom	-0.3010
-4.1160 moment	-0.3010
-4.1160 momentum	-0.3010
-4.1160 money	-0.3010
-4.1160 monitor	-0.3010
-4.1160 monkey	-0.3010
-4.1160 monster	-0.3010
-4.1160 month	-0.3010
-4.1160 monthly	-0.3010
-4.1160 monument	-0.3010
-4.1160 mood	-0.3010
-4.1160 moon	-0.3010
-4.1160 moral	-0.3010
-4.1160 more	-0.3010
-4.1160 moreover	-0.3010
-4.1160 morning	-0.3010
-4.1160 mortality	-0.3010
-4.1160 mortgage	-0.3010
-4.1160 most	-0.3010
-4.1160 mostly	-0.3010
-4.1160 mother	-0.3010
-4.1160 motion	-0.3010
-4.1160 motivate	-0.3010
-4.1160 motivation	-0.3010
-4.1160 motive	-0.3010
-4.1160 motor	-0.3010
-4.1160 mount	-0.3010
-4.1160 mountain	-0.3010
-4.1160 mouse	-0.3010
-4.1160 mouth	-0.3010
-4.1160 move	-0.3010
-4.1160 movement	-0.3010
-4.1160 movie	-0.3010
-4.1160 much	-0.3010
-4.1160 mud	-0.3010
-4.1160 multiple	-0.3010
-4.1160 municipal	-0.3010
-4.1160 murder	-0.3010
-4.1160 muscle	-0.3010
-4.1160 museum	-0.3010
-4.1160 mushroom	-0.3010
-4.1160 music	-0.3010
-4.1160 musical	-0.3010
-4.1160 musician	-0.3010
-4.1160 must	-0.3010
-4.1160 mutter	-0.3010
-4.1160 mutual	-0.3010
-4.1160 my	-0.3010
-4.1160 myself	-0.3010
-4.1160 mysterious	-0.3010
-4.1160 mystery	-0.3010
-4.1160 myth	-0.3010
-4.1160 n't	-0.3010
-4.1160 nail	-0.3010
-4.1160 naked	-0.3010
-4.1160 name	-0.3010
-4.1160 narrative	-0.3010
-4.1160 narrow	-0.3010
-4.1160 nasty	-0.3010
-4.1160 nation	-0.3010
-4.1160 national	-0.3010
-4.1160 nationwide	-0.3010
-4.1160 native	-0.3010
-4.1160 natural	-0.3010
-4.1160 naturally	-0.3010
-4.1160 nature	-0.3010
-4.1160 naval	-0.3010
-4.1160 near	-0.3010
-4.1160 nearby	-0.3010
-4.1160 nearly	-0.3010
-4.1160 neat	-0.3010
-4.1160 necessarily	-0.3010
-4.1160 necessary	-0.3010
-4.1160 necessity	-0.3010
-4.1160 neck	-0.3010
-4.1160 need	-0.3010
-4.1160 needle	-0.3010
-4.1160 negative	-0.3010
-4.1160 negotiate	-0.3010
-4.1160 negotiation	-0.3010
-4.1160 neighbor	-0.3010
-4.1160 neighborhood	-0.3010
-4.1160 neighboring	-0.3010
-4.1160 neither	-0.3010
-4.1160 nerve	-0.3010
-4.1160 nervous	-0.3010
-4.1160 nest	-0.3010
-4.1160 net	-0.3010
-4.1160 network	-0.3010
-4.1160 neutral	-0.3010
-4.1160 never	-0.3010
-4.1160 nevertheless	-0.3010
-4.1160 new	-0.3010
-4.1160 newly	-0.3010
-4.1160 news	-0.3010
-4.1160 newspaper	-0.3010
-4.1160 next	-0.3010
-4.1160 nice	-0.3010
-4.1160 night	-0.3010
-4.1160 nightmare	-0.3010
-4.1160 nine	-0.3010
-4.1160 no	-0.3010
-4.1160 nobody	-0.3010
-4.1160 nod	-0.3010
-4.1160 noise	-0.3010
-4.1160 nomination	-0.3010
-4.1160 nominee	-0.3010
-4.1160 none	-0.3010
-4.1160 nonetheless	-0.3010
-4.1160 nonprofit	-0.3010
-4.1160 noon	-0.3010
-4.1160 nor	-0.3010
-4.1160 norm	-0.3010
-4.1160 normal	-0.3010
-4.1160 normally	-0.3010
-4.1160 north	-0.3010
-4.1160 northeast	-0.3010
-4.1160 northern	-0.3010
-4.1160 northwest	-0.3010
-4.1160 nose	-0.3010
-4.1160 not	-0.3010
-4.1160 note	-0.3010
-4.1160 notebook	-0.3010
-4.1160 nothing	-0.3010
-4.1160 notice	-0.3010
-4.1160 notion	-0.3010
-4.1160 novel	-0.3010
-4.1160 now	-0.3010
-4.1160 nowhere	-0.3010
-4.1160 nuclear	-0.3010
-4.1160 number	-0.3010
-4.1160 numerous	-0.3010
-4.1160 nurse	-0.3010
-4.1160 nut	-0.3010
-4.1160 nutrient	-0.3010
-4.1160 o'clock	-0.3010
-4.1160 oak	-0.3010
-4.1160 object	-0.3010
-4.1160 objection	-0.3010
-4.1160 objective	-0.3010
-4.1160 obligation	-0.3010
-4.1160 observation	-0.3010
-4.1160 observe	-0.3010
-4.1160 observer	-0.3010
-4.1160 obstacle	-0.3010
-4.1160 obtain	-0.3010
-4.1160 obvious	-0.3010
-4.1160 obviously	-0.3010
-4.1160 occasion	-0.3010
-4.1160 occasional	-0.3010
-4.1160 occasionally	-0.3010
-4.1160 occupation	-0.3010
-4.1160 occupy	-0.3010
-4.1160 occur	-0.3010
-4.1160 ocean	-0.3010
-4.1160 odd	-0.3010
-4.1160 odds	-0.3010
-4.1160 of	-0.3010
-4.1160 off	-0.3010
-4.1160 offender	-0.3010
-4.1160 offense	-0.3010
-4.1160 offensive	-0.3010
-4.1160 offer	-0.3010
-4.1160 offering	-0.3010
-4.1160 office	-0.3010
-4.1160 officer	-0.3010
-4.1160 official	-0.3010
-4.1160 officially	-0.3010
-4.1160 often	-0.3010
-4.1160 oh	-0.3010
-4.1160 oil	-0.3010
-4.1160 ok	-0.3010
-4.1160 okay	-0.3010
-4.1160 old	-0.3010
-4.1160 old-fashioned	-0.3010
-4.1160 on	-0.3010
-4.1160 once	-0.3010
-4.1160 one	-0.3010
-4.1160 one-third	-0.3010
-4.1160 ongoing	-0.3010
-4.1160 onion	-0.3010
-4.1160 online	-0.3010
-4.1160 only	-0.3010
-4.1160 onto	-0.3010
-4.1160 open	-0.3010
-4.1160 opening	-0.3010
-4.1160 openly	-0.3010
-4.1160 opera	-0.3010
-4.1160 operate	-0.3010
-4.1160 operating	-0.3010
-4.1160 operation	-0.3010
-4.1160 operator	-0.3010
-4.1160 opinion	-0.3010
-4.1160 opponent	-0.3010
-4.1160 opportunity	-0.3010
-4.1160 oppose	-0.3010
-4.1160 opposed	-0.3010
-4.1160 opposite	-0.3010
-4.1160 opposition	-0.3010
-4.1160 opt	-0.3010
-4.1160 optimistic	-0.3010
-4.1160 option	-0.3010
-4.1160 or	-0.3010
-4.1160 oral	-0.3010
-4.1160 orange	-0.3010
-4.1160 orbit	-0.3010
-4.1160 order	-0.3010
-4.1160 ordinary	-0.3010
-4.1160 organ	-0.3010
-4.1160 organic	-0.3010
-4.1160 organism	-0.3010
-4.1160 organization	-0.3010
-4.1160 organizational	-0.3010
-4.1160 organize	-0.3010
-4.1160 organized	-0.3010
-4.1160 orientation	-0.3010
-4.1160 origin	-0.3010
-4.1160 original	-0.3010
-4.1160 originally	-0.3010
-4.1160 other	-0.3010
-4.1160 others	-0.3010
-4.1160 otherwise	-0.3010
-4.1160 ought	-0.3010
-4.1160 our	-0.3010
-4.1160 ours	-0.3010
-4.1160 ourselves	-0.3010
-4.1160 out	-0.3010
-4.1160 outcome	-0.3010
-4.1160 outdoor	-0.3010
-4.1160 outer	-0.3010
-4.1160 outfit	-0.3010
-4.1160 outlet	-0.3010
-4.1160 outline	-0.3010
-4.1160 output	-0.3010
-4.1160 outside	-0.3010
-4.1160 outsider	-0.3010
-4.1160 outstanding	-0.3010
-4.1160 oven	-0.3010
-4.1160 over	-0.3010
-4.1160 overall	-0.3010
-4.1160 overcome	-0.3010
-4.1160 overlook	-0.3010
-4.1160 overnight	-0.3010
-4.1160 oversee	-0.3010
-4.1160 overwhelm	-0.3010
-4.1160 overwhelming	-0.3010
-4.1160 owe	-0.3010
-4.1160 own	-0.3010
-4.1160 owner	-0.3010
-4.1160 ownership	-0.3010
-4.1160 oxygen	-0.3010
-4.1160 pace	-0.3010
-4.1160 pack	-0.3010
-4.1160 package	-0.3010
-4.1160 pad	-0.3010
-4.1160 page	-0.3010
-4.1160 pain	-0.3010
-4.1160 painful	-0.3010
-4.1160 paint	-0.3010
-4.1160 painter	-0.3010
-4.1160 painting	-0.3010
-4.1160 pair	-0.3010
-4.1160 palace	-0.3010
-4.1160 pale	-0.3010
-4.1160 palm	-0.3010
-4.1160 pan	-0.3010
-4.1160 panel	-0.3010
-4.1160 panic	-0.3010
-4.1160 pant	-0.3010
-4.1160 paper	-0.3010
-4.1160 parade	-0.3010
-4.1160 parent	-0.3010
-4.1160 parental	-0.3010
-4.1160 parish	-0.3010
-4.1160 park	-0.3010
-4.1160 parking	-0.3010
-4.1160 part	-0.3010
-4.1160 partial	-0.3010
-4.1160 partially	-0.3010
-4.1160 participant	-0.3010
-4.1160 participate	-0.3010
-4.1160 participation	-0.3010
-4.1160 particle	-0.3010
-4.1160 particular	-0.3010
-4.1160 particularly	-0.3010
-4.1160 partly	-0.3010
-4.1160 partner	-0.3010
-4.1160 partnership	-0.3010
-4.1160 party	-0.3010
-4.1160 pass	-0.3010
-4.1160 passage	-0.3010
-4.1160 passenger	-0.3010
-4.1160 passing	-0.3010
-4.1160 passion	-0.3010
-4.1160 past	-0.3010
-4.1160 pasta	-0.3010
-4.1160 pastor	-0.3010
-4.1160 pat	-0.3010
-4.1160 patch	-0.3010
-4.1160 patent	-0.3010
-4.1160 path	-0.3010
-4.1160 patience	-0.3010
-4.1160 patient	-0.3010
-4.1160 patrol	-0.3010
-4.1160 patron	-0.3010
-4.1160 pattern	-0.3010
-4.1160 pause	-0.3010
-4.1160 pay	-0.3010
-4.1160 payment	-0.3010
-4.1160 peace	-0.3010
-4.1160 peaceful	-0.3010
-4.1160 peak	-0.3010
-4.1160 peanut	-0.3010
-4.1160 peasant	-0.3010
-4.1160 peel	-0.3010
-4.1160 peer	-0.3010
-4.1160 pen	-0.3010
-4.1160 penalty	-0.3010
-4.1160 pencil	-0.3010
-4.1160 pension	-0.3010
-4.1160 people	-0.3010
-4.1160 pepper	-0.3010
-4.1160 per	-0.3010
-4.1160 perceive	-0.3010
-4.1160 perceived	-0.3010
-4.1160 percentage	-0.3010
-4.1160 perception	-0.3010
-4.1160 perfect	-0.3010
-4.1160 perfectly	-0.3010
-4.1160 perform	-0.3010
-4.1160 performance	-0.3010
-4.1160 performer	-0.3010
-4.1160 perhaps	-0.3010
-4.1160 period	-0.3010
-4.1160 permanent	-0.3010
-4.1160 permission	-0.3010
-4.1160 permit	-0.3010
-4.1160 persist	-0.3010
-4.1160 person	-0.3010
-4.1160 personal	-0.3010
-4.1160 personality	-0.3010
-4.1160 personally	-0.3010
-4.1160 personnel	-0.3010
-4.1160 perspective	-0.3010
-4.1160 persuade	-0.3010
-4.1160 pet	-0.3010
-4.1160 phase	-0.3010
-4.1160 phenomenon	-0.3010
-4.1160 philosophical	-0.3010
-4.1160 philosophy	-0.3010
-4.1160 phone	-0.3010
-4.1160 photo	-0.3010
-4.1160 photograph	-0.3010
-4.1160 photographer	-0.3010
-4.1160 photography	-0.3010
-4.1160 phrase	-0.3010
-4.1160 physical	-0.3010
-4.1160 physically	-0.3010
-4.1160 physician	-0.3010
-4.1160 physics	-0.3010
-4.1160 piano	-0.3010
-4.1160 pick	-0.3010
-4.1160 pickup	-0.3010
-4.1160 picture	-0.3010
-4.1160 pie	-0.3010
-4.1160 piece	-0.3010
-4.1160 pig	-0.3010
-4.1160 pile	-0.3010
-4.1160 pill	-0.3010
-4.1160 pillow	-0.3010
-4.1160 pilot	-0.3010
-4.1160 pin	-0.3010
-4.1160 pine	-0.3010
-4.1160 pink	-0.3010
-4.1160 pioneer	-0.3010
-4.1160 pipe	-0.3010
-4.1160 pistol	-0.3010
-4.1160 pit	-0.3010
-4.1160 pitch	-0.3010
-4.1160 pitcher	-0.3010
-4.1160 pizza	-0.3010
-4.1160 place	-0.3010
-4.1160 placement	-0.3010
-4.1160 plain	-0.3010
-4.1160 plaintiff	-0.3010
-4.1160 plan	-0.3010
-4.1160 plane	-0.3010
-4.1160 planet	-0.3010
-4.1160 planner	-0.3010
-4.1160 planning	-0.3010
-4.1160 plant	-0.3010
-4.1160 plastic	-0.3010
-4.1160 plate	-0.3010
-4.1160 platform	-0.3010
-4.1160 play	-0.3010
-4.1160 player	-0.3010
-4.1160 playoff	-0.3010
-4.1160 plea	-0.3010
-4.1160 plead	-0.3010
-4.1160 pleasant	-0.3010
-4.1160 please	-0.3010
-4.1160 pleased	-0.3010
-4.1160 pleasure	-0.3010
-4.1160 plenty	-0.3010
-4.1160 plot	-0.3010
-4.1160 plunge	-0.3010
-4.1160 plus	-0.3010
-4.1160 pocket	-0.3010
-4.1160 poem	-0.3010
-4.1160 poet	-0.3010
-4.1160 poetry	-0.3010
-4.1160 point	-0.3010
-4.1160 poke	-0.3010
-4.1160 pole	-0.3010
-4.1160 police	-0.3010
-4.1160 policeman	-0.3010
-4.1160 policy	-0.3010
-4.1160 political	-0.3010
-4.1160 politically	-0.3010
-4.1160 politician	-0.3010
-4.1160 politics	-0.3010
-4.1160 poll	-0.3010
-4.1160 pollution	-0.3010
-4.1160 pond	-0.3010
-4.1160 pool	-0.3010
-4.1160 poor	-0.3010
-4.1160 pop	-0.3010
-4.1160 popular	-0.3010
-4.1160 popularity	-0.3010
-4.1160 population	-0.3010
-4.1160 porch	-0.3010
-4.1160 pork	-0.3010
-4.1160 port	-0.3010
-4.1160 portfolio	-0.3010
-4.1160 portion	-0.3010
-4.1160 portrait	-0.3010
-4.1160 portray	-0.3010
-4.1160 pose	-0.3010
-4.1160 position	-0.3010
-4.1160 positive	-0.3010
-4.1160 possess	-0.3010
-4.1160 possession	-0.3010
-4.1160 possibility	-0.3010
-4.1160 possible	-0.3010
-4.1160 possibly	-0.3010
-4.1160 post	-0.3010
-4.1160 poster	-0.3010
-4.1160 pot	-0.3010
-4.1160 potato	-0.3010
-4.1160 potential	-0.3010
-4.1160 potentially	-0.3010
-4.1160 pound	-0.3010
-4.1160 pour	-0.3010
-4.1160 poverty	-0.3010
-4.1160 powder	-0.3010
-4.1160 power	-0.3010
-4.1160 powerful	-0.3010
-4.1160 practical	-0.3010
-4.1160 practically	-0.3010
-4.1160 practice	-0.3010
-4.1160 practitioner	-0.3010
-4.1160 praise	-0.3010
-4.1160 pray	-0.3010
-4.1160 prayer	-0.3010
-4.1160 preach	-0.3010
-4.1160 precious	-0.3010
-4.1160 precise	-0.3010
-4.1160 precisely	-0.3010
-4.1160 predator	-0.3010
-4.1160 predict	-0.3010
-4.1160 prediction	-0.3010
-4.1160 prefer	-0.3010
-4.1160 preference	-0.3010
-4.1160 pregnancy	-0.3010
-4.1160 pregnant	-0.3010
-4.1160 preliminary	-0.3010
-4.1160 premise	-0.3010
-4.1160 premium	-0.3010
-4.1160 preparation	-0.3010
-4.1160 prepare	-0.3010
-4.1160 prescription	-0.3010
-4.1160 presence	-0.3010
-4.1160 present	-0.3010
-4.1160 presentation	-0.3010
-4.1160 preserve	-0.3010
-4.1160 presidency	-0.3010
-4.1160 president	-0.3010
-4.1160 presidential	-0.3010
-4.1160 press	-0.3010
-4.1160 pressure	-0.3010
-4.1160 presumably	-0.3010
-4.1160 pretend	-0.3010
-4.1160 pretty	-0.3010
-4.1160 prevail	-0.3010
-4.1160 prevent	-0.3010
-4.1160 prevention	-0.3010
-4.1160 previous	-0.3010
-4.1160 previously	-0.3010
-4.1160 price	-0.3010
-4.1160 pride	-0.3010
-4.1160 priest	-0.3010
-4.1160 primarily	-0.3010
-4.1160 primary	-0.3010
-4.1160 prime	-0.3010
-4.1160 principal	-0.3010
-4.1160 principle	-0.3010
-4.1160 print	-0.3010
-4.1160 prior	-0.3010
-4.1160 priority	-0.3010
-4.1160 prison	-0.3010
-4.1160 prisoner	-0.3010
-4.1160 privacy	-0.3010
-4.1160 private	-0.3010
-4.1160 privately	-0.3010
-4.1160 privilege	-0.3010
-4.1160 prize	-0.3010
-4.1160 pro	-0.3010
-4.1160 probably	-0.3010
-4.1160 problem	-0.3010
-4.1160 procedure	-0.3010
-4.1160 proceed	-0.3010
-4.1160 process	-0.3010
-4.1160 processing	-0.3010
-4.1160 processor	-0.3010
-4.1160 proclaim	-0.3010
-4.1160 produce	-0.3010
-4.1160 producer	-0.3010
-4.1160 product	-0.3010
-4.1160 production	-0.3010
-4.1160 productive	-0.3010
-4.1160 productivity	-0.3010
-4.1160 profession	-0.3010
-4.1160 professional	-0.3010
-4.1160 professor	-0.3010
-4.1160 profile	-0.3010
-4.1160 profit	-0.3010
-4.1160 profound	-0.3010
-4.1160 program	-0.3010
-4.1160 programming	-0.3010
-4.1160 progress	-0.3010
-4.1160 progressive	-0.3010
-4.1160 prohibit	-0.3010
-4.1160 project	-0.3010
-4.1160 projection	-0.3010
-4.1160 prominent	-0.3010
-4.1160 promise	-0.3010
-4.1160 promising	-0.3010
-4.1160 promote	-0.3010
-4.1160 promotion	-0.3010
-4.1160 prompt	-0.3010
-4.1160 proof	-0.3010
-4.1160 proper	-0.3010
-4.1160 properly	-0.3010
-4.1160 property	-0.3010
-4.1160 proportion	-0.3010
-4.1160 proposal	-0.3010
-4.1160 propose	-0.3010
-4.1160 proposed	-0.3010
-4.1160 prosecution	-0.3010
-4.1160 prosecutor	-0.3010
-4.1160 prospect	-0.3010
-4.1160 protect	-0.3010
-4.1160 protection	-0.3010
-4.1160 protective	-0.3010
-4.1160 protein	-0.3010
-4.1160 protest	-0.3010
-4.1160 protocol	-0.3010
-4.1160 proud	-0.3010
-4.1160 prove	-0.3010
-4.1160 provide	-0.3010
-4.1160 provided	-0.3010
-4.1160 provider	-0.3010
-4.1160 province	-0.3010
-4.1160 provision	-0.3010
-4.1160 provoke	-0.3010
-4.1160 psychological	-0.3010
-4.1160 psychologist	-0.3010
-4.1160 psychology	-0.3010
-4.1160 public	-0.3010
-4.1160 publication	-0.3010
-4.1160 publicity	-0.3010
-4.1160 publicly	-0.3010
-4.1160 publish	-0.3010
-4.1160 publisher	-0.3010
-4.1160 pull	-0.3010
-4.1160 pulse	-0.3010
-4.1160 pump	-0.3010
-4.1160 punch	-0.3010
-4.1160 punish	-0.3010
-4.1160 punishment	-0.3010
-4.1160 purchase	-0.3010
-4.1160 pure	-0.3010
-4.1160 purple	-0.3010
-4.1160 purpose	-0.3010
-4.1160 purse	-0.3010
-4.1160 pursue	-0.3010
-4.1160 pursuit	-0.3010
-4.1160 push	-0.3010
-4.1160 put	-0.3010
-4.1160 puzzle	-0.3010
-4.1160 qualify	-0.3010
-4.1160 quality	-0.3010
-4.1160 quantity	-0.3010
-4.1160 quarter	-0.3010
-4.1160 quarterback	-0.3010
-4.1160 queen	-0.3010
-4.1160 quest	-0.3010
-4.1160 question	-0.3010
-4.1160 questionnaire	-0.3010
-4.1160 quick	-0.3010
-4.1160 quickly	-0.3010
-4.1160 quiet	-0.3010
-4.1160 quietly	-0.3010
-4.1160 quit	-0.3010
-4.1160 quite	-0.3010
-4.1160 quote	-0.3010
-4.1160 rabbit	-0.3010
-4.1160 race	-0.3010
-4.1160 racial	-0.3010
-4.1160 racism	-0.3010
-4.1160 rack	-0.3010
-4.1160 radar	-0.3010
-4.1160 radiation	-0.3010
-4.1160 radical	-0.3010
-4.1160 radio	-0.3010
-4.1160 rage	-0.3010
-4.1160 rail	-0.3010
-4.1160 railroad	-0.3010
-4.1160 rain	-0.3010
-4.1160 raise	-0.3010
-4.1160 rally	-0.3010
-4.1160 ranch	-0.3010
-4.1160 random	-0.3010
-4.1160 range	-0.3010
-4.1160 rank	-0.3010
-4.1160 rape	-0.3010
-4.1160 rapid	-0.3010
-4.1160 rapidly	-0.3010
-4.1160 rare	-0.3010
-4.1160 rarely	-0.3010
-4.1160 rat	-0.3010
-4.1160 rate	-0.3010
-4.1160 rather	-0.3010
-4.1160 rating	-0.3010
-4.1160 ratio	-0.3010
-4.1160 rational	-0.3010
-4.1160 raw	-0.3010
-4.1160 re	-0.3010
-4.1160 reach	-0.3010
-4.1160 react	-0.3010
-4.1160 reaction	-0.3010
-4.1160 read	-0.3010
-4.1160 reader	-0.3010
-4.1160 readily	-0.3010
-4.1160 reading	-0.3010
-4.1160 ready	-0.3010
-4.1160 real	-0.3010
-4.1160 realistic	-0.3010
-4.1160 reality	-0.3010
-4.1160 realize	-0.3010
-4.1160 really	-0.3010
-4.1160 realm	-0.3010
-4.1160 rear	-0.3010
-4.1160 reason	-0.3010
-4.1160 reasonable	-0.3010
-4.1160 rebel	-0.3010
-4.1160 rebuild	-0.3010
-4.1160 recall	-0.3010
-4.1160 receive	-0.3010
-4.1160 receiver	-0.3010
-4.1160 recent	-0.3010
-4.1160 recently	-0.3010
-4.1160 reception	-0.3010
-4.1160 recession	-0.3010
-4.1160 recipe	-0.3010
-4.1160 recipient	-0.3010
-4.1160 recognition	-0.3010
-4.1160 recognize	-0.3010
-4.1160 recommend	-0.3010
-4.1160 recommendation	-0.3010
-4.1160 record	-0.3010
-4.1160 recording	-0.3010
-4.1160 recover	-0.3010
-4.1160 recovery	-0.3010
-4.1160 recruit	-0.3010
-4.1160 red	-0.3010
-4.1160 reduce	-0.3010
-4.1160 reduction	-0.3010
-4.1160 refer	-0.3010
-4.1160 reference	-0.3010
-4.1160 reflect	-0.3010
-4.1160 reflection	-0.3010
-4.1160 reform	-0.3010
-4.1160 refrigerator	-0.3010
-4.1160 refuge	-0.3010
-4.1160 refugee	-0.3010
-4.1160 refuse	-0.3010
-4.1160 regain	-0.3010
-4.1160 regard	-0.3010
-4.1160 regarding	-0.3010
-4.1160 regardless	-0.3010
-4.1160 regime	-0.3010
-4.1160 region	-0.3010
-4.1160 regional	-0.3010
-4.1160 register	-0.3010
-4.1160 regret	-0.3010
-4.1160 regular	-0.3010
-4.1160 regularly	-0.3010
-4.1160 regulate	-0.3010
-4.1160 regulation	-0.3010
-4.1160 regulator	-0.3010
-4.1160 regulatory	-0.3010
-4.1160 rehabilitation	-0.3010
-4.1160 reinforce	-0.3010
-4.1160 reject	-0.3010
-4.1160 relate	-0.3010
-4.1160 related	-0.3010
-4.1160 relation	-0.3010
-4.1160 relationship	-0.3010
-4.1160 relative	-0.3010
-4.1160 relatively	-0.3010
-4.1160 relax	-0.3010
-4.1160 release	-0.3010
-4.1160 relevant	-0.3010
-4.1160 reliability	-0.3010
-4.1160 reliable	-0.3010
-4.1160 relief	-0.3010
-4.1160 relieve	-0.3010
-4.1160 religion	-0.3010
-4.1160 religious	-0.3010
-4.1160 reluctant	-0.3010
-4.1160 rely	-0.3010
-4.1160 remain	-0.3010
-4.1160 remaining	-0.3010
-4.1160 remark	-0.3010
-4.1160 remarkable	-0.3010
-4.1160 remember	-0.3010
-4.1160 remind	-0.3010
-4.1160 reminder	-0.3010
-4.1160 remote	-0.3010
-4.1160 removal	-0.3010
-4.1160 remove	-0.3010
-4.1160 render	-0.3010
-4.1160 rent	-0.3010
-4.1160 rental	-0.3010
-4.1160 repair	-0.3010
-4.1160 repeat	-0.3010
-4.1160 repeatedly	-0.3010
-4.1160 replace	-0.3010
-4.1160 replacement	-0.3010
-4.1160 reply	-0.3010
-4.1160 report	-0.3010
-4.1160 reportedly	-0.3010
-4.1160 reporter	-0.3010
-4.1160 reporting	-0.3010
-4.1160 represent	-0.3010
-4.1160 representation	-0.3010
-4.1160 representative	-0.3010
-4.1160 republic	-0.3010
-4.1160 republican	-0.3010
-4.1160 reputation	-0.3010
-4.1160 request	-0.3010
-4.1160 require	-0.3010
-4.1160 required	-0.3010
-4.1160 requirement	-0.3010
-4.1160 rescue	-0.3010
-4.1160 research	-0.3010
-4.1160 researcher	-0.3010
-4.1160 resemble	-0.3010
-4.1160 reservation	-0.3010
-4.1160 reserve	-0.3010
-4.1160 residence	-0.3010
-4.1160 resident	-0.3010
-4.1160 residential	-0.3010
-4.1160 resign	-0.3010
-4.1160 resist	-0.3010
-4.1160 resistance	-0.3010
-4.1160 resolution	-0.3010
-4.1160 resolve	-0.3010
-4.1160 resort	-0.3010
-4.1160 resource	-0.3010
-4.1160 respect	-0.3010
-4.1160 respectively	-0.3010
-4.1160 respond	-0.3010
-4.1160 respondent	-0.3010
-4.1160 response	-0.3010
-4.1160 responsibility	-0.3010
-4.1160 responsible	-0.3010
-4.1160 rest	-0.3010
-4.1160 restaurant	-0.3010
-4.1160 restore	-0.3010
-4.1160 restrict	-0.3010
-4.1160 restriction	-0.3010
-4.1160 result	-0.3010
-4.1160 resume	-0.3010
-4.1160 retail	-0.3010
-4.1160 retailer	-0.3010
-4.1160 retain	-0.3010
-4.1160 retire	-0.3010
-4.1160 retired	-0.3010
-4.1160 retirement	-0.3010
-4.1160 retreat	-0.3010
-4.1160 return	-0.3010
-4.1160 reveal	-0.3010
-4.1160 revelation	-0.3010
-4.1160 revenue	-0.3010
-4.1160 reverse	-0.3010
-4.1160 review	-0.3010
-4.1160 revolution	-0.3010
-4.1160 revolutionary	-0.3010
-4.1160 reward	-0.3010
-4.1160 rhetoric	-0.3010
-4.1160 rhythm	-0.3010
-4.1160 rib	-0.3010
-4.1160 ribbon	-0.3010
-4.1160 rice	-0.3010
-4.1160 rich	-0.3010
-4.1160 rid	-0.3010
-4.1160 ride	-0.3010
-4.1160 rider	-0.3010
-4.1160 ridge	-0.3010
-4.1160 ridiculous	-0.3010
-4.1160 rifle	-0.3010
-4.1160 right	-0.3010
-4.1160 rim	-0.3010
-4.1160 ring	-0.3010
-4.1160 riot	-0.3010
-4.1160 rip	-0.3010
-4.1160 rise	-0.3010
-4.1160 risk	-0.3010
-4.1160 risky	-0.3010
-4.1160 ritual	-0.3010
-4.1160 rival	-0.3010
-4.1160 river	-0.3010
-4.1160 road	-0.3010
-4.1160 robot	-0.3010
-4.1160 rock	-0.3010
-4.1160 rocket	-0.3010
-4.1160 rod	-0.3010
-4.1160 role	-0.3010
-4.1160 roll	-0.3010
-4.1160 rolling	-0.3010
-4.1160 romance	-0.3010
-4.1160 romantic	-0.3010
-4.1160 roof	-0.3010
-4.1160 room	-0.3010
-4.1160 root	-0.3010
-4.1160 rope	-0.3010
-4.1160 rose	-0.3010
-4.1160 rough	-0.3010
-4.1160 roughly	-0.3010
-4.1160 round	-0.3010
-4.1160 route	-0.3010
-4.1160 routine	-0.3010
-4.1160 routinely	-0.3010
-4.1160 row	-0.3010
-4.1160 royal	-0.3010
-4.1160 rub	-0.3010
-4.1160 rubber	-0.3010
-4.1160 ruin	-0.3010
-4.1160 rule	-0.3010
-4.1160 ruling	-0.3010
-4.1160 rumor	-0.3010
-4.1160 run	-0.3010
-4.1160 runner	-0.3010
-4.1160 running	-0.3010
-4.1160 rural	-0.3010
-4.1160 rush	-0.3010
-4.1160 sack	-0.3010
-4.1160 sacred	-0.3010
-4.1160 sacrifice	-0.3010
-4.1160 sad	-0.3010
-4.1160 safe	-0.3010
-4.1160 safely	-0.3010
-4.1160 safety	-0.3010
-4.1160 sail	-0.3010
-4.1160 sake	-0.3010
-4.1160 salad	-0.3010
-4.1160 salary	-0.3010
-4.1160 sale	-0.3010
-4.1160 sales	-0.3010
-4.1160 salmon	-0.3010
-4.1160 salt	-0.3010
-4.1160 same	-0.3010
-4.1160 sample	-0.3010
-4.1160 sanction	-0.3010
-4.1160 sand	-0.3010
-4.1160 sandwich	-0.3010
-4.1160 satellite	-0.3010
-4.1160 satisfaction	-0.3010
-4.1160 satisfy	-0.3010
-4.1160 sauce	-0.3010
-4.1160 save	-0.3010
-4.1160 saving	-0.3010
-4.1160 say	-0.3010
-4.1160 scale	-0.3010
-4.1160 scan	-0.3010
-4.1160 scandal	-0.3010
-4.1160 scare	-0.3010
-4.1160 scared	-0.3010
-4.1160 scary	-0.3010
-4.1160 scatter	-0.3010
-4.1160 scenario	-0.3010
-4.1160 scene	-0.3010
-4.1160 scent	-0.3010
-4.1160 schedule	-0.3010
-4.1160 scheme	-0.3010
-4.1160 scholar	-0.3010
-4.1160 scholarship	-0.3010
-4.1160 school	-0.3010
-4.1160 science	-0.3010
-4.1160 scientific	-0.3010
-4.1160 scientist	-0.3010
-4.1160 scope	-0.3010
-4.1160 score	-0.3010
-4.1160 scramble	-0.3010
-4.1160 scratch	-0.3010
-4.1160 scream	-0.3010
-4.1160 screen	-0.3010
-4.1160 screening	-0.3010
-4.1160 screw	-0.3010
-4.1160 script	-0.3010
-4.1160 sculpture	-0.3010
-4.1160 sea	-0.3010
-4.1160 seal	-0.3010
-4.1160 search	-0.3010
-4.1160 season	-0.3010
-4.1160 seat	-0.3010
-4.1160 second	-0.3010
-4.1160 secondary	-0.3010
-4.1160 secret	-0.3010
-4.1160 secretary	-0.3010
-4.1160 section	-0.3010
-4.1160 sector	-0.3010
-4.1160 secular	-0.3010
-4.1160 secure	-0.3010
-4.1160 security	-0.3010
-4.1160 see	-0.3010
-4.1160 seed	-0.3010
-4.1160 seek	-0.3010
-4.1160 seem	-0.3010
-4.1160 seemingly	-0.3010
-4.1160 segment	-0.3010
-4.1160 seize	-0.3010
-4.1160 seldom	-0.3010
-4.1160 select	-0.3010
-4.1160 selected	-0.3010
-4.1160 selection	-0.3010
-4.1160 self	-0.3010
-4.1160 self-esteem	-0.3010
-4.1160 sell	-0.3010
-4.1160 seller	-0.3010
-4.1160 seminar	-0.3010
-4.1160 senator	-0.3010
-4.1160 send	-0.3010
-4.1160 senior	-0.3010
-4.1160 sensation	-0.3010
-4.1160 sense	-0.3010
-4.1160 sensitive	-0.3010
-4.1160 sensitivity	-0.3010
-4.1160 sensor	-0.3010
-4.1160 sentence	-0.3010
-4.1160 sentiment	-0.3010
-4.1160 separate	-0.3010
-4.1160 separation	-0.3010
-4.1160 sequence	-0.3010
-4.1160 series	-0.3010
-4.1160 serious	-0.3010
-4.1160 seriously	-0.3010
-4.1160 servant	-0.3010
-4.1160 serve	-0.3010
-4.1160 service	-0.3010
-4.1160 serving	-0.3010
-4.1160 session	-0.3010
-4.1160 set	-0.3010
-4.1160 setting	-0.3010
-4.1160 settle	-0.3010
-4.1160 settlement	-0.3010
-4.1160 seven	-0.3010
-4.1160 seventh	-0.3010
-4.1160 several	-0.3010
-4.1160 severe	-0.3010
-4.1160 severely	-0.3010
-4.1160 sex	-0.3010
-4.1160 sexual	-0.3010
-4.1160 sexuality	-0.3010
-4.1160 sexually	-0.3010
-4.1160 sexy	-0.3010
-4.1160 shade	-0.3010
-4.1160 shadow	-0.3010
-4.1160 shake	-0.3010
-4.1160 shall	-0.3010
-4.1160 shallow	-0.3010
-4.1160 shame	-0.3010
-4.1160 shape	-0.3010
-4.1160 share	-0.3010
-4.1160 shared	-0.3010
-4.1160 shareholder	-0.3010
-4.1160 shark	-0.3010
-4.1160 sharp	-0.3010
-4.1160 sharply	-0.3010
-4.1160 she	-0.3010
-4.1160 shed	-0.3010
-4.1160 sheep	-0.3010
-4.1160 sheer	-0.3010
-4.1160 sheet	-0.3010
-4.1160 shelf	-0.3010
-4.1160 shell	-0.3010
-4.1160 shelter	-0.3010
-4.1160 shift	-0.3010
-4.1160 shine	-0.3010
-4.1160 ship	-0.3010
-4.1160 shirt	-0.3010
-4.1160 shit	-0.3010
-4.1160 shock	-0.3010
-4.1160 shoe	-0.3010
-4.1160 shoot	-0.3010
-4.1160 shooting	-0.3010
-4.1160 shop	-0.3010
-4.1160 shopping	-0.3010
-4.1160 shore	-0.3010
-4.1160 short	-0.3010
-4.1160 short-term	-0.3010
-4.1160 shortage	-0.3010
-4.1160 shortly	-0.3010
-4.1160 shorts	-0.3010
-4.1160 shot	-0.3010
-4.1160 should	-0.3010
-4.1160 shoulder	-0.3010
-4.1160 shout	-0.3010
-4.1160 shove	-0.3010
-4.1160 show	-0.3010
-4.1160 shower	-0.3010
-4.1160 shrimp	-0.3010
-4.1160 shrink	-0.3010
-4.1160 shrug	-0.3010
-4.1160 shut	-0.3010
-4.1160 shuttle	-0.3010
-4.1160 shy	-0.3010
-4.1160 sibling	-0.3010
-4.1160 sick	-0.3010
-4.1160 side	-0.3010
-4.1160 sidewalk	-0.3010
-4.1160 sigh	-0.3010
-4.1160 sight	-0.3010
-4.1160 sign	-0.3010
-4.1160 signal	-0.3010
-4.1160 signature	-0.3010
-4.1160 significance	-0.3010
-4.1160 significant	-0.3010
-4.1160 significantly	-0.3010
-4.1160 silence	-0.3010
-4.1160 silent	-0.3010
-4.1160 silk	-0.3010
-4.1160 silly	-0.3010
-4.1160 silver	-0.3010
-4.1160 similar	-0.3010
-4.1160 similarity	-0.3010
-4.1160 similarly	-0.3010
-4.1160 simple	-0.3010
-4.1160 simply	-0.3010
-4.1160 simultaneously	-0.3010
-4.1160 sin	-0.3010
-4.1160 since	-0.3010
-4.1160 sing	-0.3010
-4.1160 singer	-0.3010
-4.1160 single	-0.3010
-4.1160 sink	-0.3010
-4.1160 sir	-0.3010
-4.1160 sister	-0.3010
-4.1160 sit	-0.3010
-4.1160 site	-0.3010
-4.1160 situation	-0.3010
-4.1160 six	-0.3010
-4.1160 sixth	-0.3010
-4.1160 size	-0.3010
-4.1160 ski	-0.3010
-4.1160 skill	-0.3010
-4.1160 skilled	-0.3010
-4.1160 skin	-0.3010
-4.1160 skip	-0.3010
-4.1160 skirt	-0.3010
-4.1160 skull	-0.3010
-4.1160 sky	-0.3010
-4.1160 slam	-0.3010
-4.1160 slap	-0.3010
-4.1160 slave	-0.3010
-4.1160 slavery	-0.3010
-4.1160 sleep	-0.3010
-4.1160 sleeve	-0.3010
-4.1160 slice	-0.3010
-4.1160 slide	-0.3010
-4.1160 slight	-0.3010
-4.1160 slightly	-0.3010
-4.1160 slip	-0.3010
-4.1160 slope	-0.3010
-4.1160 slot	-0.3010
-4.1160 slow	-0.3010
-4.1160 slowly	-0.3010
-4.1160 small	-0.3010
-4.1160 smart	-0.3010
-4.1160 smell	-0.3010
-4.1160 smile	-0.3010
-4.1160 smoke	-0.3010
-4.1160 smooth	-0.3010
-4.1160 snake	-0.3010
-4.1160 snap	-0.3010
-4.1160 sneak	-0.3010
-4.1160 snow	-0.3010
-4.1160 so	-0.3010
-4.1160 so-called	-0.3010
-4.1160 soak	-0.3010
-4.1160 soap	-0.3010
-4.1160 soar	-0.3010
-4.1160 soccer	-0.3010
-4.1160 social	-0.3010
-4.1160 socially	-0.3010
-4.1160 society	-0.3010
-4.1160 sock	-0.3010
-4.1160 sodium	-0.3010
-4.1160 sofa	-0.3010
-4.1160 soft	-0.3010
-4.1160 soften	-0.3010
-4.1160 softly	-0.3010
-4.1160 software	-0.3010
-4.1160 soil	-0.3010
-4.1160 solar	-0.3010
-4.1160 soldier	-0.3010
-4.1160 sole	-0.3010
-4.1160 solely	-0.3010
-4.1160 solid	-0.3010
-4.1160 solution	-0.3010
-4.1160 solve	-0.3010
-4.1160 some	-0.3010
-4.1160 somebody	-0.3010
-4.1160 someday	-0.3010
-4.1160 somehow	-0.3010
-4.1160 someone	-0.3010
-4.1160 something	-0.3010
-4.1160 sometime	-0.3010
-4.1160 sometimes	-0.3010
-4.1160 somewhat	-0.3010
-4.1160 somewhere	-0.3010
-4.1160 son	-0.3010
-4.1160 song	-0.3010
-4.1160 soon	-0.3010
-4.1160 sophisticated	-0.3010
-4.1160 sorry	-0.3010
-4.1160 sort	-0.3010
-4.1160 soul	-0.3010
-4.1160 sound	-0.3010
-4.1160 soup	-0.3010
-4.1160 source	-0.3010
-4.1160 south	-0.3010
-4.1160 southeast	-0.3010
-4.1160 southern	-0.3010
-4.1160 southwest	-0.3010
-4.1160 sovereignty	-0.3010
-4.1160 space	-0.3010
-4.1160 spare	-0.3010
-4.1160 spark	-0.3010
-4.1160 speak	-0.3010
-4.1160 speaker	-0.3010
-4.1160 special	-0.3010
-4.1160 specialist	-0.3010
-4.1160 specialize	-0.3010
-4.1160 specialty	-0.3010
-4.1160 species	-0.3010
-4.1160 specific	-0.3010
-4.1160 specifically	-0.3010
-4.1160 specify	-0.3010
-4.1160 spectacular	-0.3010
-4.1160 spectrum	-0.3010
-4.1160 speculate	-0.3010
-4.1160 speculation	-0.3010
-4.1160 speech	-0.3010
-4.1160 speed	-0.3010
-4.1160 spell	-0.3010
-4.1160 spend	-0.3010
-4.1160 spending	-0.3010
-4.1160 sphere	-0.3010
-4.1160 spill	-0.3010
-4.1160 spin	-0.3010
-4.1160 spine	-0.3010
-4.1160 spirit	-0.3010
-4.1160 spiritual	-0.3010
-4.1160 spit	-0.3010
-4.1160 spite	-0.3010
-4.1160 split	-0.3010
-4.1160 spokesman	-0.3010
-4.1160 sponsor	-0.3010
-4.1160 spoon	-0.3010
-4.1160 sport	-0.3010
-4.1160 spot	-0.3010
-4.1160 spouse	-0.3010
-4.1160 spray	-0.3010
-4.1160 spread	-0.3010
-4.1160 spring	-0.3010
-4.1160 sprinkle	-0.3010
-4.1160 spy	-0.3010
-4.1160 squad	-0.3010
-4.1160 square	-0.3010
-4.1160 squeeze	-0.3010
-4.1160 stability	-0.3010
-4.1160 stable	-0.3010
-4.1160 stack	-0.3010
-4.1160 stadium	-0.3010
-4.1160 staff	-0.3010
-4.1160 stage	-0.3010
-4.1160 stair	-0.3010
-4.1160 stake	-0.3010
-4.1160 stance	-0.3010
-4.1160 stand	-0.3010
-4.1160 standard	-0.3010
-4.1160 standing	-0.3010
-4.1160 star	-0.3010
-4.1160 stare	-0.3010
-4.1160 start	-0.3010
-4.1160 starter	-0.3010
-4.1160 starting	-0.3010
-4.1160 state	-0.3010
-4.1160 statement	-0.3010
-4.1160 station	-0.3010
-4.1160 statistical	-0.3010
-4.1160 statistics	-0.3010
-4.1160 statue	-0.3010
-4.1160 status	-0.3010
-4.1160 statute	-0.3010
-4.1160 stay	-0.3010
-4.1160 steadily	-0.3010
-4.1160 steady	-0.3010
-4.1160 steak	-0.3010
-4.1160 steal	-0.3010
-4.1160 steam	-0.3010
-4.1160 steel	-0.3010
-4.1160 steep	-0.3010
-4.1160 steer	-0.3010
-4.1160 stem	-0.3010
-4.1160 step	-0.3010
-4.1160 stereotype	-0.3010
-4.1160 stick	-0.3010
-4.1160 stiff	-0.3010
-4.1160 still	-0.3010
-4.1160 stimulate	-0.3010
-4.1160 stimulus	-0.3010
-4.1160 stir	-0.3010
-4.1160 stock	-0.3010
-4.1160 stomach	-0.3010
-4.1160 stone	-0.3010
-4.1160 stop	-0.3010
-4.1160 storage	-0.3010
-4.1160 store	-0.3010
-4.1160 storm	-0.3010
-4.1160 story	-0.3010
-4.1160 stove	-0.3010
-4.1160 straight	-0.3010
-4.1160 straighten	-0.3010
-4.1160 strain	-0.3010
-4.1160 strange	-0.3010
-4.1160 stranger	-0.3010
-4.1160 strategic	-0.3010
-4.1160 strategy	-0.3010
-4.1160 straw	-0.3010
-4.1160 streak	-0.3010
-4.1160 stream	-0.3010
-4.1160 street	-0.3010
-4.1160 strength	-0.3010
-4.1160 strengthen	-0.3010
-4.1160 stress	-0.3010
-4.1160 stretch	-0.3010
-4.1160 strict	-0.3010
-4.1160 strictly	-0.3010
-4.1160 strike	-0.3010
-4.1160 striking	-0.3010
-4.1160 string	-0.3010
-4.1160 strip	-0.3010
-4.1160 stroke	-0.3010
-4.1160 strong	-0.3010
-4.1160 strongly	-0.3010
-4.1160 structural	-0.3010
-4.1160 structure	-0.3010
-4.1160 struggle	-0.3010
-4.1160 student	-0.3010
-4.1160 studio	-0.3010
-4.1160 study	-0.3010
-4.1160 stuff	-0.3010
-4.1160 stumble	-0.3010
-4.1160 stupid	-0.3010
-4.1160 style	-0.3010
-4.1160 subject	-0.3010
-4.1160 submit	-0.3010
-4.1160 subsequent	-0.3010
-4.1160 subsidy	-0.3010
-4.1160 substance	-0.3010
-4.1160 substantial	-0.3010
-4.1160 substantially	-0.3010
-4.1160 subtle	-0.3010
-4.1160 suburb	-0.3010
-4.1160 suburban	-0.3010
-4.1160 succeed	-0.3010
-4.1160 success	-0.3010
-4.1160 successful	-0.3010
-4.1160 successfully	-0.3010
-4.1160 such	-0.3010
-4.1160 suck	-0.3010
-4.1160 sudden	-0.3010
-4.1160 suddenly	-0.3010
-4.1160 sue	-0.3010
-4.1160 suffer	-0.3010
-4.1160 suffering	-0.3010
-4.1160 sufficient	-0.3010
-4.1160 sugar	-0.3010
-4.1160 suggest	-0.3010
-4.1160 suggestion	-0.3010
-4.1160 suicide	-0.3010
-4.1160 suit	-0.3010
-4.1160 suitable	-0.3010
-4.1160 suite	-0.3010
-4.1160 sum	-0.3010
-4.1160 summary	-0.3010
-4.1160 summer	-0.3010
-4.1160 summit	-0.3010
-4.1160 sun	-0.3010
-4.1160 sunlight	-0.3010
-4.1160 sunny	-0.3010
-4.1160 super	-0.3010
-4.1160 superior	-0.3010
-4.1160 supermarket	-0.3010
-4.1160 supervisor	-0.3010
-4.1160 supplier	-0.3010
-4.1160 supply	-0.3010
-4.1160 support	-0.3010
-4.1160 supporter	-0.3010
-4.1160 supportive	-0.3010
-4.1160 suppose	-0.3010
-4.1160 supposed	-0.3010
-4.1160 supposedly	-0.3010
-4.1160 sure	-0.3010
-4.1160 surely	-0.3010
-4.1160 surface	-0.3010
-4.1160 surgeon	-0.3010
-4.1160 surgery	-0.3010
-4.1160 surprise	-0.3010
-4.1160 surprised	-0.3010
-4.1160 surprising	-0.3010
-4.1160 surprisingly	-0.3010
-4.1160 surround	-0.3010
-4.1160 surrounding	-0.3010
-4.1160 surveillance	-0.3010
-4.1160 survey	-0.3010
-4.1160 survival	-0.3010
-4.1160 survive	-0.3010
-4.1160 survivor	-0.3010
-4.1160 suspect	-0.3010
-4.1160 suspend	-0.3010
-4.1160 suspicion	-0.3010
-4.1160 suspicious	-0.3010
-4.1160 sustain	-0.3010
-4.1160 sustainable	-0.3010
-4.1160 swallow	-0.3010
-4.1160 swear	-0.3010
-4.1160 sweat	-0.3010
-4.1160 sweater	-0.3010
-4.1160 sweep	-0.3010
-4.1160 sweet	-0.3010
-4.1160 swell	-0.3010
-4.1160 swim	-0.3010
-4.1160 swimming	-0.3010
-4.1160 swing	-0.3010
-4.1160 switch	-0.3010
-4.1160 sword	-0.3010
-4.1160 symbol	-0.3010
-4.1160 symbolic	-0.3010
-4.1160 sympathy	-0.3010
-4.1160 symptom	-0.3010
-4.1160 syndrome	-0.3010
-4.1160 system	-0.3010
-4.1160 table	-0.3010
-4.1160 tablespoon	-0.3010
-4.1160 tackle	-0.3010
-4.1160 tactic	-0.3010
-4.1160 tag	-0.3010
-4.1160 tail	-0.3010
-4.1160 take	-0.3010
-4.1160 tale	-0.3010
-4.1160 talent	-0.3010
-4.1160 talented	-0.3010
-4.1160 talk	-0.3010
-4.1160 tall	-0.3010
-4.1160 tank	-0.3010
-4.1160 tap	-0.3010
-4.1160 tape	-0.3010
-4.1160 target	-0.3010
-4.1160 task	-0.3010
-4.1160 taste	-0.3010
-4.1160 tax	-0.3010
-4.1160 taxpayer	-0.3010
-4.1160 tea	-0.3010
-4.1160 teach	-0.3010
-4.1160 teacher	-0.3010
-4.1160 teaching	-0.3010
-4.1160 team	-0.3010
-4.1160 teammate	-0.3010
-4.1160 tear	-0.3010
-4.1160 teaspoon	-0.3010
-4.1160 technical	-0.3010
-4.1160 technician	-0.3010
-4.1160 technique	-0.3010
-4.1160 technological	-0.3010
-4.1160 technology	-0.3010
-4.1160 teen	-0.3010
-4.1160 teenage	-0.3010
-4.1160 teenager	-0.3010
-4.1160 telephone	-0.3010
-4.1160 telescope	-0.3010
-4.1160 television	-0.3010
-4.1160 tell	-0.3010
-4.1160 temperature	-0.3010
-4.1160 temple	-0.3010
-4.1160 temporary	-0.3010
-4.1160 ten	-0.3010
-4.1160 tend	-0.3010
-4.1160 tendency	-0.3010
-4.1160 tender	-0.3010
-4.1160 tennis	-0.3010
-4.1160 tension	-0.3010
-4.1160 tent	-0.3010
-4.1160 term	-0.3010
-4.1160 terms	-0.3010
-4.1160 terrain	-0.3010
-4.1160 terrible	-0.3010
-4.1160 terribly	-0.3010
-4.1160 terrific	-0.3010
-4.1160 territory	-0.3010
-4.1160 terror	-0.3010
-4.1160 terrorism	-0.3010
-4.1160 terrorist	-0.3010
-4.1160 test	-0.3010
-4.1160 testify	-0.3010
-4.1160 testimony	-0.3010
-4.1160 testing	-0.3010
-4.1160 text	-0.3010
-4.1160 textbook	-0.3010
-4.1160 texture	-0.3010
-4.1160 than	-0.3010
-4.1160 thank	-0.3010
-4.1160 thanks	-0.3010
-4.1160 that	-0.3010
-4.1160 the	-0.3010
-4.1160 theater	-0.3010
-4.1160 their	-0.3010
-4.1160 them	-0.3010
-4.1160 theme	-0.3010
-4.1160 themselves	-0.3010
-4.1160 then	-0.3010
-4.1160 theological	-0.3010
-4.1160 theology	-0.3010
-4.1160 theoretical	-0.3010
-4.1160 theory	-0.3010
-4.1160 therapist	-0.3010
-4.1160 therapy	-0.3010
-4.1160 there	-0.3010
-4.1160 thereby	-0.3010
-4.1160 therefore	-0.3010
-4.1160 these	-0.3010
-4.1160 they	-0.3010
-4.1160 thick	-0.3010
-4.1160 thigh	-0.3010
-4.1160 thin	-0.3010
-4.1160 thing	-0.3010
-4.1160 think	-0.3010
-4.1160 thinking	-0.3010
-4.1160 third	-0.3010
-4.1160 thirty	-0.3010
-4.1160 this	-0.3010
-4.1160 thoroughly	-0.3010
-4.1160 those	-0.3010
-4.1160 though	-0.3010
-4.1160 thought	-0.3010
-4.1160 thousand	-0.3010
-4.1160 thread	-0.3010
-4.1160 threat	-0.3010
-4.1160 threaten	-0.3010
-4.1160 three	-0.3010
-4.1160 threshold	-0.3010
-4.1160 thrive	-0.3010
-4.1160 throat	-0.3010
-4.1160 through	-0.3010
-4.1160 throughout	-0.3010
-4.1160 throw	-0.3010
-4.1160 thumb	-0.3010
-4.1160 thus	-0.3010
-4.1160 ticket	-0.3010
-4.1160 tide	-0.3010
-4.1160 tie	-0.3010
-4.1160 tight	-0.3010
-4.1160 tighten	-0.3010
-4.1160 tightly	-0.3010
-4.1160 tile	-0.3010
-4.1160 till	-0.3010
-4.1160 timber	-0.3010
-4.1160 time	-0.3010
-4.1160 timing	-0.3010
-4.1160 tiny	-0.3010
-4.1160 tip	-0.3010
-4.1160 tire	-0.3010
-4.1160 tired	-0.3010
-4.1160 tissue	-0.3010
-4.1160 title	-0.3010
-4.1160 to	-0.3010
-4.1160 tobacco	-0.3010
-4.1160 today	-0.3010
-4.1160 toe	-0.3010
-4.1160 together	-0.3010
-4.1160 toilet	-0.3010
-4.1160 tolerance	-0.3010
-4.1160 tolerate	-0.3010
-4.1160 toll	-0.3010
-4.1160 tomato	-0.3010
-4.1160 tomorrow	-0.3010
-4.1160 tone	-0.3010
-4.1160 tongue	-0.3010
-4.1160 tonight	-0.3010
-4.1160 too	-0.3010
-4.1160 tool	-0.3010
-4.1160 tooth	-0.3010
-4.1160 top	-0.3010
-4.1160 topic	-0.3010
-4.1160 toss	-0.3010
-4.1160 total	-0.3010
-4.1160 totally	-0.3010
-4.1160 touch	-0.3010
-4.1160 touchdown	-0.3010
-4.1160 tough	-0.3010
-4.1160 tour	-0.3010
-4.1160 tourism	-0.3010
-4.1160 tourist	-0.3010
-4.1160 tournament	-0.3010
-4.1160 toward	-0.3010
-4.1160 towards	-0.3010
-4.1160 towel	-0.3010
-4.1160 tower	-0.3010
-4.1160 town	-0.3010
-4.1160 toxic	-0.3010
-4.1160 toy	-0.3010
-4.1160 trace	-0.3010
-4.1160 track	-0.3010
-4.1160 trade	-0.3010
-4.1160 trading	-0.3010
-4.1160 tradition	-0.3010
-4.1160 traditional	-0.3010
-4.1160 traditionally	-0.3010
-4.1160 traffic	-0.3010
-4.1160 tragedy	-0.3010
-4.1160 tragic	-0.3010
-4.1160 trail	-0.3010
-4.1160 trailer	-0.3010
-4.1160 train	-0.3010
-4.1160 trainer	-0.3010
-4.1160 training	-0.3010
-4.1160 trait	-0.3010
-4.1160 transaction	-0.3010
-4.1160 transfer	-0.3010
-4.1160 transform	-0.3010
-4.1160 transformation	-0.3010
-4.1160 transit	-0.3010
-4.1160 transition	-0.3010
-4.1160 translate	-0.3010
-4.1160 translation	-0.3010
-4.1160 transmission	-0.3010
-4.1160 transmit	-0.3010
-4.1160 transport	-0.3010
-4.1160 transportation	-0.3010
-4.1160 trap	-0.3010
-4.1160 trash	-0.3010
-4.1160 trauma	-0.3010
-4.1160 travel	-0.3010
-4.1160 traveler	-0.3010
-4.1160 tray	-0.3010
-4.1160 treasure	-0.3010
-4.1160 treat	-0.3010
-4.1160 treatment	-0.3010
-4.1160 treaty	-0.3010
-4.1160 tree	-0.3010
-4.1160 tremendous	-0.3010
-4.1160 trend	-0.3010
-4.1160 trial	-0.3010
-4.1160 tribal	-0.3010
-4.1160 tribe	-0.3010
-4.1160 trick	-0.3010
-4.1160 trigger	-0.3010
-4.1160 trim	-0.3010
-4.1160 trip	-0.3010
-4.1160 triumph	-0.3010
-4.1160 troop	-0.3010
-4.1160 tropical	-0.3010
-4.1160 trouble	-0.3010
-4.1160 troubled	-0.3010
-4.1160 truck	-0.3010
-4.1160 true	-0.3010
-4.1160 truly	-0.3010
-4.1160 trunk	-0.3010
-4.1160 trust	-0.3010
-4.1160 truth	-0.3010
-4.1160 try	-0.3010
-4.1160 tube	-0.3010
-4.1160 tuck	-0.3010
-4.1160 tumor	-0.3010
-4.1160 tune	-0.3010
-4.1160 tunnel	-0.3010
-4.1160 turkey	-0.3010
-4.1160 turn	-0.3010
-4.1160 twelve	-0.3010
-4.1160 twentieth	-0.3010
-4.1160 twenty	-0.3010
-4.1160 twice	-0.3010
-4.1160 twin	-0.3010
-4.1160 twist	-0.3010
-4.1160 two	-0.3010
-4.1160 two-thirds	-0.3010
-4.1160 type	-0.3010
-4.1160 typical	-0.3010
-4.1160 typically	-0.3010
-4.1160 ugly	-0.3010
-4.1160 uh	-0.3010
-4.1160 ultimate	-0.3010
-4.1160 ultimately	-0.3010
-4.1160 unable	-0.3010
-4.1160 uncertain	-0.3010
-4.1160 uncertainty	-0.3010
-4.1160 uncle	-0.3010
-4.1160 uncomfortable	-0.3010
-4.1160 uncover	-0.3010
-4.1160 under	-0.3010
-4.1160 undergo	-0.3010
-4.1160 undergraduate	-0.3010
-4.1160 underlying	-0.3010
-4.1160 undermine	-0.3010
-4.1160 understand	-0.3010
-4.1160 understanding	-0.3010
-4.1160 undertake	-0.3010
-4.1160 unemployment	-0.3010
-4.1160 unexpected	-0.3010
-4.1160 unfair	-0.3010
-4.1160 unfold	-0.3010
-4.1160 unfortunately	-0.3010
-4.1160 unhappy	-0.3010
-4.1160 uniform	-0.3010
-4.1160 union	-0.3010
-4.1160 unique	-0.3010
-4.1160 unit	-0.3010
-4.1160 unite	-0.3010
-4.1160 unity	-0.3010
-4.1160 universal	-0.3010
-4.1160 universe	-0.3010
-4.1160 university	-0.3010
-4.1160 unknown	-0.3010
-4.1160 unless	-0.3010
-4.1160 unlike	-0.3010
-4.1160 unlikely	-0.3010
-4.1160 unprecedented	-0.3010
-4.1160 until	-0.3010
-4.1160 unusual	-0.3010
-4.1160 up	-0.3010
-4.1160 update	-0.3010
-4.1160 upon	-0.3010
-4.1160 upper	-0.3010
-4.1160 upset	-0.3010
-4.1160 upstairs	-0.3010
